
#include "network_evaluate.h"



float linear(float num) {
	return num;
}



float sigmoid(float num) {
	return 1 / (1 + exp(-num));
}



float relu(float num) {
	if (num > 0) {
		return num;
	} else {
		return 0;
	}
}

static const int structure[3][2] = {{18, 64},{64, 64},{64, 4}};
static float output_0[64];
static float output_1[64];
static float output_2[4];
static const float layer_0_weight[18][64] = {{-0.20377253,0.430848,0.016100802,0.18317465,-0.31474403,0.051843584,-0.3334554,0.12097645,-0.28232762,0.103792414,0.28498825,-0.017973669,-0.2027439,-0.054966114,-0.041927125,0.40394965,0.32067457,0.041378323,-0.3859798,-0.0020592238,0.2895895,0.018633446,-0.14208335,0.26184666,-0.3048151,0.20066658,0.054356907,-0.2604116,0.26403925,-0.039672945,0.28993708,-0.2173927,0.1916839,0.013077659,-0.14260711,0.101182,-0.041731514,-0.22601452,0.081078984,0.25439036,0.17748845,-0.044716153,-0.37263924,-0.10695349,-0.034513474,0.5217157,0.49118102,0.12718815,0.24244368,0.048276447,-0.22930466,0.14787857,-0.12986502,-0.06602198,-0.32611358,0.23163246,0.37295172,0.2208711,0.07940551,0.16237994,-0.3066475,0.011587011,0.107581355,0.15612768},{-0.199499,-0.110894434,-0.008668319,0.025924494,-0.30859435,0.14479175,0.024080466,0.022596337,-0.0073858835,0.23140599,-0.1142435,-0.031092672,0.1368941,0.010065249,-0.43792894,0.41747895,0.2487912,-0.0406502,-0.20642254,-0.01720451,-0.51979923,0.24205218,0.0765427,0.25870377,0.17174332,-0.17010452,-0.29436466,0.065467305,-0.046085488,0.24356869,-0.17552793,-0.18345165,0.086200126,0.081537865,-0.0040288847,-0.16173714,-0.100908354,-0.0030420048,-0.088875815,0.21906747,-0.14713563,-0.1779502,-0.020522166,0.14802992,-0.2974687,-0.019119918,0.16683298,-0.19661564,-0.36346775,0.25410658,0.24619411,0.0205072,-0.6240879,0.26774973,-0.37309405,0.19509655,0.0066629564,0.06654373,0.13333896,0.20132732,0.21379355,0.07914631,-0.103754796,-0.17633022},{0.076327406,-0.38667372,-0.10174358,-0.1823895,0.68219787,0.25773162,0.1653326,0.07501447,-0.006842607,0.15324973,-0.05702972,-0.10883515,0.07524888,0.106719285,0.22876944,-0.1278093,0.0738435,-0.35030907,-0.016153784,-0.114692286,-0.53397155,-0.24748085,-0.16868384,0.024426501,-0.7282123,0.046001874,-0.17599952,-0.18810283,-0.19850862,-0.08567952,0.13008174,-0.058058113,0.035282657,-0.1281819,-0.07545958,-0.16541761,0.037819512,-0.38786483,0.03751969,-0.12193807,0.29576162,0.014837413,-0.020224733,0.16277036,0.31059176,-0.288327,0.005895575,-0.25927788,0.060720664,0.11869316,0.28251055,-0.09158248,-0.21994044,-0.0775045,-0.09780562,0.06847194,-0.24248151,-0.2098951,-0.051575672,-0.22054605,0.27013984,0.069383256,0.05294633,-0.05621145},{-0.09028245,-0.17496713,0.2704989,0.2090714,-0.34799197,0.3214739,-0.14630431,-0.107385844,-0.14678337,-0.16235913,0.25948787,0.34649718,-0.42428356,0.050652545,-0.1428439,0.14041644,-0.011640323,-0.6252733,-0.29966003,0.27560562,-0.066832535,0.08822283,-0.4681872,-0.108433045,-0.07596868,0.20377196,0.29964295,0.46813154,-0.167515,0.28957748,-0.345643,0.14115569,-0.08535985,-0.09088947,0.23713897,0.381352,-0.09635459,0.31683543,0.14141935,0.18165559,0.500801,-0.16492914,-0.15944527,0.21312127,0.0053088367,-0.20769963,0.29516882,0.08820611,0.12931198,-0.09468576,0.006724782,0.13054186,-0.05754843,-0.06839993,-0.1699419,0.09993951,-0.03140705,0.4229958,0.274315,-0.02153274,-0.39483067,0.20561217,0.23767066,0.17328931},{0.11724025,-0.36770245,-0.3922015,-0.22363964,0.107702434,-0.01803008,-0.17043896,-0.14206383,-0.090728834,0.11091014,-0.17830208,0.24325405,-0.08488603,-0.06928215,-0.31736958,0.37243953,0.014872467,0.13902593,-0.20087403,0.0015536745,-0.082583606,0.2211755,0.038009234,0.055194058,0.26181212,-0.07167399,-0.32906923,0.17943904,0.0003239109,-0.36035824,-0.124232486,-0.14934984,0.057042744,-0.12853247,-0.36697483,-0.13710599,-0.33985758,-0.10721447,-0.2130786,-0.23130271,-0.21369027,0.11268307,0.2205651,0.05715253,-0.33466998,-0.0634985,-0.2398606,-0.023348505,-0.13362397,0.6358334,0.22365591,-0.16227853,-0.2864791,-0.19641119,-0.42549828,0.3591235,-0.27475795,0.038762026,-0.004181333,-0.33248255,0.076669805,0.06791157,0.21169482,-0.13877249},{0.10183063,-0.06302012,-0.24171022,0.015237932,0.087126724,0.12565711,-0.276681,0.30996776,-0.35819665,0.061039977,0.13463953,0.29699504,-0.120259486,-0.01704805,0.21322793,0.14486021,0.24888517,0.08100628,0.20054847,0.20227696,0.31208307,-0.03590566,-0.15726417,0.074022055,-0.05301891,0.3499273,-0.1864224,-0.14916517,-0.06445293,0.36582813,-0.0958008,-0.041182708,0.034384508,0.037891332,-0.56660056,-0.35532224,-0.06452768,-0.00066624174,-0.15784879,0.17335708,0.080640994,0.08098643,0.110523626,-0.009720102,-0.052602362,-0.0010720443,0.2280753,0.042301107,-0.258397,-0.23234206,0.23063189,0.17046963,0.22882335,0.0022080382,0.1856714,0.1146414,0.19896391,-0.10369329,0.3011828,0.0060992455,0.15651794,-0.32914633,-0.17161344,0.09984512},{-0.8223494,0.07866545,-0.45608383,0.45186424,0.2224053,-0.009824326,0.20866744,0.5222471,0.37731296,-0.4834819,-0.1658235,-0.028090568,0.20813997,-0.064622305,-0.39245507,-0.05133604,0.5830378,0.51783264,-0.25908092,0.3318571,0.03482601,0.08065008,0.315581,-0.44273224,1.1123704,0.28494185,0.9917807,-0.2293104,-0.17713748,0.528647,-1.2477694,0.5795759,0.5587227,-0.3020155,0.045554724,0.19811432,0.24301802,-0.3000069,0.1491069,0.54930335,0.6264881,0.040071137,0.29080528,0.15665126,-0.078909755,0.14727733,-0.12695706,-0.38866732,-0.42579988,0.50859815,-0.36451945,0.52189416,0.10930086,0.040620822,-0.6379402,0.08920956,0.1226706,0.0034873271,0.11005422,-0.33085537,-0.56314784,-0.18863243,-0.2845513,0.038620345},{-0.08013525,-0.22731903,0.8313289,-0.038161453,-0.9848782,-0.65076005,0.6685132,0.39407754,0.8834521,-0.6977879,0.46193424,0.8189369,-1.3943969,0.1457608,0.5997985,-0.18960537,0.39691702,0.1631643,0.2672139,-1.0425801,-0.8904576,-0.6616949,0.06054035,-0.23723187,-0.98863083,0.23921,-0.69810927,0.19780523,-0.6443942,-0.3147226,-1.2176186,0.4904906,-0.58115095,-0.28913456,0.22034678,-0.2785862,-0.68402374,-0.3396739,1.3892732,0.7458872,-0.06627271,-0.17791784,-0.7990698,0.4684884,0.3443306,0.28720397,-0.18467622,-0.086324364,0.19249576,1.6970669,0.031837687,-0.116796896,-0.37319165,-0.26048675,-0.4697689,-0.01639728,1.3617653,0.26548716,-1.0185341,0.5370498,0.7407061,0.4958171,-1.4597371,0.96859384},{0.85668856,-1.2578318,1.2124077,1.0627432,-0.35693195,1.400456,-0.8647445,0.19204824,0.13706946,0.34911978,-0.5208063,-0.42151752,-0.036410473,-0.535643,0.004096769,0.8792492,1.4590546,0.24816568,0.04308467,0.5919352,0.16609627,-0.05856504,-1.9298319,-0.42932478,0.22879948,0.5052043,-0.43652594,1.1757399,1.068135,-0.17259932,-0.17680614,-0.16792803,-0.32794067,-0.5772612,1.0740495,1.5164698,-0.1616888,-1.5115002,-0.85815966,0.3079497,1.2915787,-0.46393973,0.3806529,-0.4299257,0.6584943,0.37317735,-0.3505293,0.41062537,-0.25085503,-0.16897854,0.17434168,-0.08993605,1.2931579,0.9323092,-0.79122174,1.0877898,-0.4664104,1.2670972,-0.52569497,-0.54251873,0.50394386,0.062364712,0.6168221,0.4825213},{-0.8687273,-0.23814766,-0.18148537,-0.57297015,0.48215437,0.5755468,-0.5168006,0.20565385,0.16258438,-0.20440616,-0.7964919,-1.3321198,0.3066819,0.5839314,-0.10187253,0.44071913,-0.36378476,0.07186245,0.18141708,0.76796734,-0.1392318,0.41723225,-0.5073583,-0.014734877,-0.07841413,0.34310454,0.25856164,0.03587761,0.6915962,-1.2525696,0.33966222,-0.88921535,-0.20149344,0.9939458,-0.124920115,-0.12527816,0.74248517,0.025528999,-1.2842284,-0.25597295,-0.13517368,-0.19337367,1.0136058,0.31309578,-0.27205294,0.13151889,-0.18314397,-0.89652264,0.44604182,-1.1177034,-0.18098545,0.87400717,0.6946694,-0.9485301,0.1893275,0.5671206,0.28838742,0.42650017,-0.021917501,0.31577647,0.49083862,-1.144883,1.0748712,0.27247012},{0.07271074,0.45000568,-0.3652936,-0.31646737,-0.14932153,0.050916117,0.253327,0.15517122,0.29529986,-0.6246213,-0.18441983,-0.16966376,-0.22716977,-0.69715667,0.07484152,-0.45192274,0.6224803,0.68448085,-0.85924214,0.030660242,-0.7240968,-0.3021341,0.03510793,-0.4415954,0.8819213,0.18979868,0.701343,-0.1795823,0.9276197,0.10198375,-0.9678467,0.6256314,1.4023525,-0.57140666,0.10872165,-0.116184115,0.2236784,-0.051697418,0.32954898,0.21155375,0.35579872,0.13298795,0.46485227,-0.46958727,0.12236362,-0.017817369,-0.1181111,-0.21527739,-0.6823041,0.66912466,0.58705324,-0.3245367,-0.13912597,-0.2496595,-1.7110454,0.6660687,-0.30375418,-0.38683298,-0.3393242,-0.19199853,-1.2027617,-0.70210254,-0.50073534,0.8404189},{-0.47841188,-0.2627442,-0.0782929,0.50032,0.1212022,0.27150285,-0.7612708,1.264967,0.2293561,-0.13776964,-0.74232626,0.06788286,0.13213652,0.120009765,0.040881854,1.5761377,0.5541904,0.6766791,-2.5898306,-0.73244196,-0.4738511,0.73409677,0.1864907,-0.60554963,-0.64695835,-1.2158768,0.18579178,0.29252848,0.9229948,0.83847755,-0.092783205,-0.51495755,-0.06912732,0.28190002,-1.1548269,-0.16373092,-0.9461308,0.0902726,0.93231505,0.024281368,-0.92788446,0.21090408,0.34150994,0.58845735,-1.0219204,-0.48157078,-0.059633482,-1.124839,0.8987779,-1.1034404,0.6512148,-0.67002183,1.8297746,-0.28407517,0.14103621,1.9621152,-0.05281052,0.64149386,0.36392662,0.17863333,0.30365813,-0.2061657,0.26392236,-0.8863619},{-0.77586865,0.34794772,1.1443335,-2.0376916,0.10304952,-1.3944333,1.3061811,-1.5980221,-0.24966471,-0.98279935,0.6784791,0.85020953,-1.2032865,-0.50142014,-0.44653586,-0.44149062,-1.5180331,-0.19847399,0.6882497,-0.578928,-0.44336385,0.41606066,1.1782982,0.053918824,-0.7380585,-0.81749886,0.41221005,-1.8496952,-1.0419867,-0.1366721,-0.05704316,-0.65054727,0.06573331,0.50759864,0.26713538,-0.9795715,-0.044053268,-0.13074596,0.5111459,-1.2294725,-0.8222729,-0.031906504,-1.3848072,0.4439783,0.2784532,-0.50677454,-0.23566927,-1.243756,-1.0162709,-0.36995783,0.3677352,-0.2269706,0.044194993,-1.4562502,-0.11548639,0.33390433,0.89255655,-0.7550768,-0.092796855,0.45241705,0.5047944,-1.5615685,-0.8653019,-0.35701805},{0.37805265,-0.2282201,0.24311808,0.38561392,-0.13546766,0.1357335,-0.2383003,-0.39300305,-0.15047424,-0.28765517,0.28917748,0.6012009,-0.6882193,-0.67281014,1.1599147,0.3686337,0.52005196,0.0042068264,0.2805052,1.8075241,-0.17267011,-1.4528224,-0.54776174,2.279871,-0.095062144,-0.13761736,-0.7719426,-0.004311406,0.25962532,-0.28124505,-0.49951413,-0.23440401,0.6025215,0.118691504,0.47306907,-0.28946257,1.438948,-0.1352193,-0.26360366,0.66479874,-0.28325924,-0.6788287,0.41375786,-0.7462026,1.4869643,1.8207288,-1.1734208,1.3166542,-0.40590176,-0.43846515,-1.1823784,0.68835986,-0.27623868,0.15582009,-0.17995256,-1.6097659,1.5708543,0.59947896,0.8014496,-0.5940767,0.5640203,-0.36022332,-0.8791149,0.95349544},{-0.5641284,0.19389467,0.16287106,-0.37442005,0.15242329,-0.2693679,0.0352642,0.069810934,0.16564578,-0.6471579,0.69498295,0.026940664,0.00045801068,-0.33218002,-0.39935726,-0.3118498,0.49514714,-0.1271917,-0.80067354,0.2381647,0.09126233,0.612437,0.34309366,-0.16457926,-0.0040426264,0.009837117,0.3956924,-0.024681894,1.2815453,-0.365142,-0.62634045,0.44218644,0.96735024,-0.5976492,0.049572244,0.22999607,-0.48481435,0.46846545,-0.55631834,0.10620535,-0.47939825,0.441887,0.1701914,-0.740409,0.40238187,-0.20933163,-0.1449051,-1.4392918,0.18916017,-0.24630749,-0.1777016,-0.114506334,0.28019795,-0.76418084,-0.581364,-0.045028154,0.13135517,-0.6259834,-0.25214553,-0.24797875,-0.4097633,-0.014736951,-0.19680849,1.0802},{0.20592573,0.36105043,0.0022013823,0.3480289,0.22630209,0.61975783,0.52188003,0.039549757,1.3258946,0.2828896,-0.3685527,0.09750347,-0.12366455,0.2669186,-0.810089,-0.21478966,0.24651407,-1.0448232,-0.3911246,0.69996125,-0.33573362,-0.72048396,0.15165025,-0.2957912,-0.9654111,-0.50087905,-0.21213816,-0.33315137,-0.33370677,0.625073,-0.38534728,-0.091147624,-0.686113,0.5565167,1.1930854,-0.4468595,0.47603065,-0.8524147,0.16914901,0.83389425,-0.07691829,0.3788386,0.59420663,1.1951343,0.09367131,-0.91339,-0.4014765,0.31427485,-0.3033644,0.20593987,-1.1062526,-0.3986577,-0.33244774,0.06492213,0.25683036,-0.535499,0.85898876,0.4661966,0.94021505,1.365525,0.06143554,-0.8976392,-0.75023377,0.5303156},{-0.88688016,0.24480827,1.4445456,0.40378848,0.45486778,0.24753404,0.65241677,1.9547193,-0.8112275,0.1071357,0.043528464,-0.280909,0.24329044,0.364488,-0.033469014,-0.70310026,0.32705694,0.6776355,0.14716446,0.4740362,-1.3132445,0.34203452,-0.31868196,-0.3366752,-0.72953755,1.2755408,-0.044465646,0.015038312,-0.6491682,-0.3773026,-0.41177255,0.2911097,-0.2299465,-0.8974062,0.49946633,0.14111663,-0.17525615,-0.01916739,-0.5863198,-0.15525316,0.73410916,-1.1282538,0.7949681,-0.8125071,-0.036449287,-0.19147737,0.8584454,0.3003916,-0.58830047,-0.33655092,0.3506082,-0.520733,0.64084363,-0.68680125,-0.4385808,0.23032208,0.5909822,0.82133967,0.0381233,0.009003797,-0.104504354,0.7733936,0.50742364,0.036841948},{0.24057658,-0.42050663,0.779897,-0.18894057,-0.80163026,0.15167646,0.26414725,-0.2951926,0.048613906,-0.12683606,0.05557674,-0.3441,1.7450237,-1.6724519,0.1557031,0.40993825,-0.88917875,0.6699713,0.43156388,0.47217476,0.16959773,0.755058,0.5943574,-0.066796415,-0.59094024,0.7246426,-0.4166218,-0.5903228,-0.69186246,-0.7046232,-0.050055433,0.5333487,-0.84842765,-0.027880814,-0.1144532,0.39273715,1.1426522,0.5580448,0.13958672,1.146312,0.8434777,-1.7723882,0.85554785,0.15050866,-0.20848402,-0.601375,-0.91941607,-0.9899744,0.0822527,0.086161405,-0.3716077,0.6592271,-0.15831232,0.21318251,0.3282472,0.6987857,-0.18328442,-0.014493701,0.2425749,-0.7998903,0.31853548,-0.40507296,0.27570823,-0.18403733}};
static const float layer_1_weight[64][64] = {{0.02661819,-0.03407353,0.17886414,0.27645278,0.28697905,0.2164852,-0.13272229,-0.07280545,-0.017716935,-0.08414904,0.15905322,0.036714472,0.062550195,0.15736787,-0.08134261,-0.56418407,0.2874827,0.006396363,0.09007578,0.1662839,0.06274234,-0.14808908,0.29394245,0.10105476,-0.36791894,-0.014221949,-0.12185312,0.014694865,-0.19833346,0.062112752,0.13838689,-0.118300706,-0.019538457,0.1912081,0.20690925,-0.17002851,-0.14148703,-0.2980951,-0.054311704,-0.03725943,0.011293807,-0.12182106,-0.03439455,-0.18873578,0.11485417,-0.23804519,-0.06859176,0.02812538,-0.25665793,0.23744011,0.054684646,0.23448369,-0.05465059,-0.029601082,-0.07279657,-0.21181984,0.0010853561,0.09307436,0.22522695,-0.057268694,-0.07283187,-0.057625696,-0.05057993,-0.06066611},{0.1800655,-0.5424581,0.15112458,0.06319619,-0.10827017,-0.09033051,0.05460369,-0.05939401,-0.39777026,0.009869835,0.06943408,-0.02678392,-0.15142293,-0.27789986,-0.18301123,0.12753598,0.005485988,0.38641128,-0.13957097,-0.046148073,0.041445985,-0.30112553,0.06834824,-0.035160273,-0.3377359,-0.013437336,0.15296811,-0.55839056,0.020004094,0.096506566,0.07787896,0.20600708,0.16593078,0.2659557,-0.02877188,-0.36226,0.13312592,0.18345574,0.6174795,-0.23457576,0.13188212,0.012393687,0.07073984,0.24090724,0.18581545,0.12662224,-0.020374114,-0.19644503,-0.19163373,0.49098676,-0.3918147,0.11217117,0.015792243,-0.31092912,0.21727797,-0.17325899,0.15130046,-0.24488318,0.008677546,-0.19265127,-0.37132275,0.13931078,0.18494695,0.02732792},{0.08929331,-0.21391931,0.21066856,-0.0940218,-0.43177742,0.12064772,-0.072276115,-0.2666394,-0.25003296,-0.3540607,-0.099297784,-0.10883461,0.13083313,0.05040777,-0.20586763,0.067695625,-0.38367176,0.10164567,0.08948936,0.23897606,0.09262408,0.32578778,0.0037543222,0.07909341,0.3529154,-0.036636863,-0.169545,-0.03591672,0.25659987,-0.37910765,-0.018842803,-0.11543155,0.0667995,-0.19472463,-0.108491115,0.15956514,0.07435522,-0.18553856,0.07345672,0.13732347,0.057580605,-0.19682814,-0.108261205,-0.24092987,-0.23501953,0.35123566,-0.16192679,0.14115898,-0.5268828,-0.34132546,0.11681655,-0.09441389,-0.11907005,-0.077154316,-0.05509232,-0.12930697,0.19095224,0.3601254,0.57225037,0.26018792,0.16089949,-0.1467182,-0.26112404,-0.3155611},{-0.09074961,0.41807294,0.0900053,-0.34809816,0.20165052,0.17333882,-0.47813365,0.23370625,-0.22496764,-0.35910282,0.11259358,0.19837946,-0.1437154,0.10382001,-0.27948457,0.083805904,0.06381749,-0.19421618,-0.104156345,0.4762515,-0.073522314,0.022463825,-0.2024843,-0.31789583,0.03899975,-0.40464234,0.077106185,0.24718297,-0.018564446,-0.25604472,0.0629237,0.72108454,0.17704633,-0.15367731,-0.34272733,-0.1471245,-0.14023985,-0.06452706,0.12945718,-0.06123714,-0.10327524,-0.12896705,-0.3531147,-0.36759168,0.03472858,-0.33485058,0.34943962,0.005535291,0.056788705,-0.37064347,0.34986708,0.29580104,0.62827873,-0.27958968,-0.1589702,-0.32815027,0.24360801,0.42286325,0.5135891,-0.39135775,-0.14798108,0.0056666695,-0.3241369,-0.06718205},{0.083385885,0.037913576,-0.092760734,0.330078,-0.12338377,-0.13166451,-0.09509136,0.07257556,0.3541626,0.26220214,-0.20672451,0.22101468,0.22369835,-0.12761539,0.29207328,-0.038911894,-0.16305217,0.22711219,0.09654372,0.00493311,-0.048717886,0.12855926,-0.14612739,-0.012560277,0.03247608,-0.14460953,0.14582595,0.028991545,-0.1717043,0.059823554,0.085708156,-0.10901272,-0.04721624,0.23345014,-0.15997668,-0.09686737,0.1755088,0.030883757,0.09087488,-0.10000331,-0.15980625,0.00091412896,-0.059719313,-0.10660901,0.037628677,-0.26706824,0.24393928,-0.06958582,0.21391064,0.39952415,-0.22515596,0.004550813,0.130067,0.32551706,-0.1471625,-0.13661063,-0.2921745,-0.2692423,-0.26488596,-0.2428127,-0.3025218,-0.0581665,-0.29285538,-0.05851276},{0.49888322,0.4025965,-0.5402915,-0.01531982,0.110559724,0.056689307,-0.3511469,0.23092183,0.3895031,0.093160175,0.022993093,0.10222632,-0.12508188,0.017367417,0.06634936,0.30277342,-0.03834419,-0.12550166,-0.51135725,0.08495664,-0.11312287,-0.21177088,0.18231477,-0.004341769,-0.21424416,-0.15583576,-0.24042168,0.3292177,-0.2288425,-0.1066714,0.3843902,-0.14830005,-0.057905894,-0.11558743,-0.25044608,0.33458444,-0.19193706,-0.03184114,0.048752263,-0.19118299,0.11180106,0.16214353,0.075044475,-0.5098679,0.24164152,-0.2991741,0.34592536,0.12288371,0.3555824,-0.48385122,-0.0066707153,-0.009780932,0.30097747,0.3685956,0.08872094,0.16984843,0.42499545,0.6801078,0.21657708,-0.10689462,0.46356538,0.044268936,-0.491363,0.17041735},{0.05760716,0.018771986,0.07893271,0.051491458,0.001144521,-0.03253128,0.15344758,0.036404517,-0.04631956,-0.16764426,0.19246805,0.117087334,0.1836082,0.003186143,0.08779498,0.049900405,-0.026406357,0.27962387,0.061807126,-0.09385943,-0.25144637,-0.08740287,0.06479437,-0.18963769,0.10372529,-0.07308545,-0.0020950558,-0.21768938,-0.0025428324,-0.06362095,0.11739642,0.013273406,0.11102732,-0.207507,0.06781239,-0.13083886,0.2684426,0.26825732,-0.31806138,-0.23801123,-0.04352637,-0.07426302,0.13798879,0.07142049,0.00921035,-0.057976525,-0.13793178,0.22572123,-0.10750196,-0.0937935,-0.1344069,-0.2194173,0.095041804,0.0049475343,-0.04252185,0.13392161,0.4690402,-0.39857793,-0.12026598,-0.22644147,0.08554478,-0.25951827,0.49095136,-0.17994525},{0.3380238,0.078019604,-0.37292963,-0.12328129,0.082928576,-0.02160773,-0.31847647,-0.1600883,0.4021249,-0.023870379,0.14076167,0.20988941,0.14498435,-0.17019871,-0.11417589,-0.2882862,0.13302124,0.033593416,-0.1237633,-0.5000246,-0.08366984,0.10752363,-0.14226182,0.09417223,-0.24665257,0.3239343,0.07649673,0.121723786,0.025346657,0.3879238,0.112615,0.046627726,0.14228304,0.009234461,-0.24691652,0.056872692,-0.013442524,-0.24289276,0.17696151,-0.09900973,0.42658442,0.12363209,-0.12291743,-0.20232844,0.17249122,0.12385301,0.3565142,0.056247633,0.6349335,-0.23753737,0.38357446,0.09442316,-0.049051907,0.028768655,-0.10020133,-0.10936489,-0.22751054,0.2985713,0.17160407,-0.22964476,0.3064198,0.12527157,-0.05461299,0.12753858},{-0.10471638,-0.011445315,-0.0029425235,-0.017583812,0.39987808,-0.067628436,-0.330649,-0.073543444,0.25585762,-0.012377681,0.109944575,-0.3186065,-0.13724402,-0.12363127,-0.092798784,0.010075503,-0.03416784,0.29492056,0.139405,-0.35450795,0.05599096,0.07987598,0.15809494,0.118216746,-0.24199629,-0.14514187,-0.010655818,-0.22951919,-0.13556361,-0.001927687,-0.22916846,-0.31220245,0.10184709,-0.0934688,-0.15721655,0.23839085,0.180855,-0.038802125,0.27217877,0.2115728,0.13624662,-0.11639242,-0.16786455,0.09740957,-0.17253628,0.037438907,0.032385673,0.11286753,0.11790961,-0.015278123,0.51221764,-0.21578786,0.27049878,-0.016975373,-0.14305788,-0.3471984,0.1793274,-0.22570781,-0.2094613,-0.42411458,0.43294337,0.16801694,0.3196806,0.07017962},{0.33786824,-0.0707653,0.1292976,-0.13303475,-0.11312892,0.43478045,0.29424772,0.38131687,0.08056691,0.5416813,0.21003382,-0.11676559,0.22951767,0.19160691,0.30788776,0.17529994,-0.07700128,-0.21985981,0.14505279,0.21154003,-0.38948065,0.12602627,0.34376362,0.097085975,-0.32662958,-0.023492856,-0.09610753,0.5111448,0.07116776,0.34074888,-0.23709616,0.3711106,-0.34499583,0.040099792,-0.20930935,0.14641239,-0.29266176,-0.32946327,-0.08881031,0.25445706,0.41269365,0.32497078,-0.06803688,-0.31813225,0.10132131,-0.10426016,-0.21890377,0.021138119,-0.30180472,-0.28131792,-0.11400771,0.00991132,0.19772077,-0.29929373,0.043568034,-0.12390925,0.16148509,-0.1328545,-0.08075736,0.16757055,0.20972183,0.2170426,-0.16516721,-0.01122866},{0.103467934,-0.022099772,-0.25900298,0.18575059,0.10770445,-0.41839394,-0.025095865,0.011487992,0.046978172,0.08650616,0.029439194,-0.19466159,0.057598647,0.24453294,-0.022587873,-0.21839072,-0.021802347,-0.02373737,-0.24363856,0.39697513,0.38087216,0.3408959,-0.15697625,-0.19357271,-0.038416862,0.15386334,0.27406424,-0.019145336,0.08184961,0.13927081,0.24672836,0.40448216,0.17350456,0.102557175,-0.065797366,-0.055902876,-0.119348064,-0.3023273,-0.31521058,0.14692494,-0.23146425,-0.13684845,0.25117642,0.36518887,-0.20550257,0.21335973,-0.036830794,-0.3300989,-0.0043059676,0.06921121,0.31841898,-0.04167666,-0.02246285,-0.03376731,-0.09614371,-0.03346926,0.16751647,-0.01825858,-0.09159122,0.26842746,-0.13166277,-0.07458916,-0.22723493,0.2075681},{0.3490197,-0.08718743,-0.19088417,0.20135748,-0.08611479,-0.3182447,0.14224733,-0.2085634,0.17252389,0.38359404,-0.018573994,0.027229218,0.06386983,0.30103928,-0.038574245,-0.040901873,-0.24679331,0.01668863,0.074841656,0.49737167,0.061842844,-0.3432538,-0.045509357,0.012718075,0.051662613,0.24531648,-0.19984761,0.38161787,0.063204914,0.13693123,-0.3895918,-0.11766616,0.22056164,-0.020068878,-0.08561679,0.15720245,-0.16099946,0.28668982,-0.34728414,-0.027617007,-0.21915595,0.2515538,-0.10781284,0.28734806,-0.12485533,-0.14918469,-0.25793344,-0.15937074,-0.015991984,-0.060856067,0.051601548,-0.27029973,-0.20090401,0.2465615,0.019450054,0.19993739,-0.24360776,0.06638809,-0.17257904,0.15449914,0.033828508,-0.16341212,-0.10849958,0.09859124},{0.18132861,-0.31229672,0.115877256,-0.052571,-0.18935613,0.6121,-0.14167643,0.32900855,0.13084912,-0.18621264,-0.07345333,-0.35831386,0.06759221,-0.3579859,0.5584152,-0.3029581,-0.015261385,0.23974867,0.084303156,-0.3288168,0.39925694,-0.069022104,-0.0919825,0.4012747,-0.25588855,0.39361966,-0.42380455,0.4049582,0.15488991,0.5315816,0.3871071,-0.034615412,0.3724173,0.12977827,-0.2041405,-0.34365675,-0.30291548,0.042345583,0.29031825,-0.33676937,0.3012256,-0.23167531,-0.042917747,-0.2853391,0.11964853,0.074850194,-0.37886804,0.27022338,-0.34539765,0.054659612,-0.21228027,0.246852,-0.27896726,-0.024954515,0.13461058,0.43530908,0.3464868,-0.18807276,0.14731362,-0.1369229,0.041422077,0.40255442,0.11272545,0.14086282},{0.13679825,-0.07312114,0.21044815,-0.049641207,-0.32728335,0.19573592,-0.073830195,0.008946316,-0.56409913,-0.07941698,-0.04231982,0.056693103,0.14721793,0.31964588,-0.28125185,0.09368577,-0.07166873,-0.069125704,0.1562965,0.37103048,-0.25278032,0.25764352,0.47967148,-0.25555497,0.4034606,-0.24945088,-0.17105645,-0.1478776,0.20523405,-0.3199932,0.18757977,0.2778634,-0.6792048,0.31064418,-0.23421355,-0.04507522,0.28050458,0.3034621,0.19567472,0.1660385,-0.26513326,-0.022545667,-0.0061048144,0.19504876,-0.3042481,-0.23748913,-0.05595706,0.08773242,-0.16856529,-0.076407924,-0.05341253,0.23586439,0.3049299,-0.01151256,-0.12654395,-0.04414854,-0.034429256,0.026514046,0.17602132,0.19061683,-0.18774296,-0.14931472,0.23981349,0.3021359},{0.20496611,0.1823173,-0.046792626,0.21880545,0.14294557,-0.0074389516,0.11537174,0.12642848,0.004367218,0.22426221,-0.18369682,-0.12281065,0.22174868,0.12059867,-0.082079805,-0.5044581,0.07482638,-0.27697158,-0.19858237,0.10114376,-0.21479978,0.00053274987,0.12056862,0.18261567,-0.21055607,0.25292283,-0.18118282,0.4238264,0.19102822,0.011089642,0.09928451,0.016084414,-0.1222822,-0.019273942,-0.044319607,0.11508076,0.18505336,-0.14532165,0.045528177,-0.02650533,-0.082099654,-0.13954078,0.0641084,-0.104626395,-0.03764941,0.052053526,0.0028379064,-0.37923503,0.06695193,0.1722763,-0.0064790943,-0.14882092,-0.36615852,0.08231271,0.16076139,0.21891774,0.12270359,0.024098502,-0.08921952,0.19514053,-0.24830443,0.16249472,-0.1430702,-0.13605285},{0.024826078,-0.10704081,0.081914425,-0.18798636,-0.15413293,0.06764913,-0.18707952,-0.018773152,0.0064130262,0.16777772,0.2239237,-0.27116558,0.20768337,0.19573598,-0.043602288,0.08361846,-0.02420864,-0.0028375438,0.0063701496,0.20641418,0.31534347,-0.16536762,0.014799184,0.18175696,0.0007069517,0.2538653,-0.059730202,0.17091309,-0.20278281,0.2990199,-0.057874788,-0.016143993,-0.18412071,-0.19727713,-0.25039005,-0.042758085,0.1416375,-0.20700921,-0.23915838,-0.05229378,-0.14881067,0.2426254,-0.41702485,0.12586132,0.066858016,0.0026307446,-0.19431959,-0.11185728,0.22089505,-0.32707605,0.14680506,-0.004020036,-0.015825484,0.31566012,-0.023933215,0.11811707,-0.28644168,0.28610456,0.20672072,0.15224525,-0.15693426,0.22227895,-0.5652579,-0.07131733},{-0.04293273,0.23724233,0.038116056,0.0019800984,0.06487393,-0.043692026,-0.34610516,-0.1766499,0.6791277,0.011006404,0.14122364,0.15497069,-0.10144344,0.23945998,-0.16683124,-0.27571717,-0.19587481,0.2513968,-0.09734038,0.102041386,0.03661306,-0.09913508,-0.022871956,-0.21701755,0.20041107,0.14313777,0.0059854304,-0.09404688,-0.12974182,0.14743997,0.13398989,0.2035282,0.17573449,-0.18403536,0.12040517,0.07654347,-0.09757174,-0.07090162,-0.25023198,0.07790021,-0.07567994,-0.036016382,-0.037560847,0.07581662,0.32929918,0.07262083,0.44461223,-0.10059796,0.52980524,-0.2036801,0.17287786,-0.2084877,0.16369562,-0.26961777,-0.21946102,0.10276426,-0.06345744,0.17932573,0.10295104,-0.27266443,0.10972365,-0.10397206,-0.13328558,0.07115098},{0.1537566,-0.014114431,-0.19525942,0.164429,-0.2095591,0.05391112,0.32847703,-0.13763294,0.2846947,0.12559025,-0.15954602,-0.029465437,-0.2577021,-0.35649937,-0.09725628,-0.70088357,0.14924371,-0.0866475,-0.16009076,-0.13485865,-0.23118743,-0.15731536,-0.07624404,0.13058761,0.11765945,0.25655314,-0.1124346,0.33966336,-0.56318724,0.13751407,-0.09911988,-0.053254984,0.20459256,-0.2561022,0.01663577,-0.041999437,0.028376244,-0.20752044,0.17581579,-0.19230872,0.017186131,-0.08255294,-0.045703925,-0.015459471,0.28372914,0.04266512,0.12074653,-0.20814872,0.5616138,-0.041030917,0.014861553,-0.117991455,-0.041062664,0.06417955,0.031455796,0.14896591,0.075900085,-0.036425464,-0.018331455,-0.1879649,0.051358476,0.27106634,-0.28011754,0.24182393},{0.0998248,0.10335352,-0.33849335,0.027883021,0.24186915,0.14317055,0.11268451,0.17673065,-0.16577888,0.38174373,-0.2503704,0.12348956,0.121049166,-0.103854835,-0.19668454,-0.42643267,0.0652189,0.17841028,-0.089844525,0.20604923,-0.018473197,0.0783334,0.25646397,0.1140754,-0.10056957,0.2222357,0.24897932,0.0762524,0.4023908,0.32286295,0.070048034,0.24522093,0.11517213,0.10793713,0.09722023,0.15914795,0.0074049393,-0.23165311,0.07577435,0.17762922,-0.19950561,0.054042496,0.21146023,-0.13469012,-0.256093,-0.062205113,-0.11029279,-0.06512298,0.07132067,-0.030352307,0.50106114,-0.039809227,-0.08750111,0.07953976,-0.009741857,0.012246325,-0.07786869,-0.02672194,0.29312986,0.3083367,-0.17650215,-0.035832543,-0.011187148,-0.10331132},{-0.054388978,0.09686802,-0.16821738,-0.2055598,-0.020833267,-0.65119207,0.065664016,-0.26987633,-0.28100258,0.5825405,0.3129677,0.07985792,-0.16892728,-0.45628607,0.08395442,0.048968144,-0.31687537,-0.09430293,0.14138666,0.114610806,-0.13901766,0.04793262,-0.35253042,0.019604715,0.076836735,-0.2975693,0.1800453,0.502416,-0.29386646,-0.205372,0.25558093,-0.4013248,-0.10427964,-0.09906385,-0.09133489,0.12653871,-0.16957395,-0.2688856,0.08030252,-0.26880395,-0.10224917,-0.19259238,0.04255175,-0.18774939,-0.36269948,0.29938385,0.2702907,0.15962377,0.264213,0.06885224,-0.027139945,0.1094546,0.16764535,0.5497227,-0.40449142,-0.41248173,-0.0176307,0.23625238,-0.017694725,-0.15566629,0.5557168,-0.008743714,-0.048476983,0.058126267},{0.16374214,-0.25235575,-0.10936606,-0.053810183,0.2870347,-0.02665388,0.10044895,0.028869407,-0.3813276,0.23105864,-0.14441256,0.1279526,0.09688997,0.3288907,0.058399353,-0.17392622,-0.023596138,-0.199717,-0.038193863,0.5821712,0.024585547,-0.14157693,-0.109909564,-0.14197169,0.010199038,0.120824225,-0.08308827,0.1890384,0.4080177,0.034920726,-0.15853092,0.0656113,-0.05573885,-0.042439368,0.2537507,-0.107178465,0.13142242,-0.032725442,0.2012538,-0.007416007,-0.2120347,0.040920474,0.089504845,0.15624917,-0.08274173,-0.13951184,-0.2881551,-0.19999577,0.1421447,0.07206762,0.21735047,0.11490858,-0.018278673,0.009817744,0.3237498,0.19005527,0.0898324,-0.027900971,-0.03625845,0.0056629097,-0.24733181,0.21835549,-0.16722114,-0.18447204},{0.10271952,-0.104359135,0.4883853,-0.1982838,-0.4622913,0.39105102,0.18268599,-0.06445824,0.24807964,0.27931306,0.13673536,0.2592822,0.08087374,-0.37365818,0.47784778,0.6789302,-0.07636931,-0.4138952,-0.00032436795,-0.04610418,-0.09141375,0.03351317,0.024120912,-0.22175267,0.17305507,0.044165317,-0.12376602,-0.032120217,-0.21852706,-0.047677778,-0.22686319,0.11377366,0.36358422,0.25523835,-0.3430503,-0.3401862,-0.090101615,0.022489972,-0.2560996,-0.31155452,0.35838288,0.29438147,-0.41634798,-0.24734259,0.14639631,-0.041534416,-0.45603806,-0.057823952,0.062887,-0.38679087,-0.46957043,-0.05866914,0.23921312,0.2548764,-0.18509409,0.1574104,0.2852751,-0.0076884083,-0.14983685,-0.029681144,-0.122314624,-0.074873075,-0.09473881,-0.123789825},{-0.080177665,-0.11173278,0.236565,-0.12652531,0.2896301,0.047339533,-0.039964218,-0.2943802,0.22034359,0.17092322,0.058909424,-0.12252897,0.15432933,-0.19667178,0.24170685,-0.11701908,0.11870911,-0.021803916,0.22888571,-0.32576272,0.08566981,-0.10244889,-0.36825094,-0.27469465,-0.050237894,0.18118887,0.23611724,-0.10293973,0.060309883,-0.12307768,-0.23569238,0.12936732,0.09314726,0.035467945,0.060052864,-0.1719958,0.070162795,-0.098541304,0.020367745,-0.1647462,0.017868824,0.022019187,-0.3292649,0.13847466,0.20121251,0.17893513,0.06291885,-0.10031785,-0.2078545,0.21899164,-0.09202177,-0.093103364,-0.014786132,-0.04829461,0.04448431,0.01782119,0.031118445,-0.27556607,0.072099775,0.013084307,0.23405905,-0.14082307,0.18370846,0.038332254},{0.18969275,0.34587452,0.37078002,-0.0749284,-0.052615628,0.045031834,-0.077239774,-0.09730125,-0.1793718,0.26108587,0.10125167,-0.10077282,-0.18331797,0.114106834,0.10475829,0.5241631,0.08836972,-0.28771535,-0.4236477,0.111769,-0.102464855,0.25928017,0.024404531,0.4166418,0.0975812,0.19956614,-0.2536334,0.46952608,0.094319925,0.27399406,0.012836646,-0.28463775,-0.24112777,-0.29104626,-0.20027536,0.31469157,-0.154831,-0.03189401,-0.13114093,0.18865329,-0.020260293,-0.055608794,-0.06535242,-0.20455027,-0.17976145,0.2241452,0.042564858,0.12969212,-0.3922459,0.0386681,-0.15528816,-0.33438906,-0.11659375,0.15886067,-0.1030472,0.11554886,-0.2962546,0.19178155,-0.26070622,0.2664765,0.47587806,-0.010176471,-0.255467,-0.07213585},{0.06348625,0.1896667,0.022424795,-0.15368304,0.10871251,0.07831402,-0.118814185,0.14072153,0.4536057,-0.0036798432,-0.17538914,-0.24908024,-0.19702302,-0.3037678,-0.042906612,0.01118025,0.0889633,-0.17043383,0.044560723,-0.3770724,0.11855718,0.23480012,-0.52579343,0.15650244,0.012183656,0.024698306,0.21587482,-0.18104568,0.04207112,0.091185115,-0.04161528,-0.009061237,0.12118453,0.044322018,-0.14075132,0.026652385,-0.34246156,0.13296941,0.08953386,0.16434868,0.48344743,-0.25780392,0.009547152,0.034262426,0.26150167,0.16483518,0.16384536,0.5605262,-0.13949823,-0.13469647,-0.3736724,-0.24735175,-0.13742372,0.056555018,-0.2315431,-0.18416388,-0.23597921,-0.0271084,0.21141109,-0.17291984,0.22618102,-0.19775431,0.3138709,0.03824804},{0.2406439,0.07575892,-0.23361263,-0.03953406,0.14267904,-0.2058462,0.0015309134,0.1821619,-0.018698975,-0.113788396,0.031688374,0.10516541,-0.13379668,0.18922232,-0.04714662,-0.044967297,0.22055352,-0.07256152,0.03175266,0.18381377,-0.1373122,0.16389064,-0.02196471,0.12149556,0.2984296,0.0500273,0.20668238,-0.14022675,-0.1623144,-0.06101393,0.2422786,0.19425249,0.15537299,0.13516296,0.16323644,0.1696677,-0.09293763,0.27956384,0.04651611,-0.009982547,0.21524167,0.24035984,0.09316081,0.20317161,0.16747117,-0.067388795,0.54638,-0.2305339,0.32627964,-0.1342706,-0.18458132,0.26170218,0.016051749,-0.10621701,0.21925154,0.17923824,-0.018727863,0.17568271,0.17057852,-0.17674793,0.1598971,0.23826621,0.04239452,0.16418143},{-0.10255928,-0.1350644,-0.1962459,-0.21898928,0.3630134,-0.305923,-0.1788952,-0.090073526,0.2477512,0.03166914,0.15861882,0.27330106,-0.2966746,0.036822915,0.08951596,0.037353255,0.49622318,-0.23713897,-0.07275944,0.18815763,0.29236692,-0.30651212,-0.41165444,-0.016889377,-0.0021060195,-0.29776493,0.54387814,-0.7473799,-0.22006775,-0.2130628,-0.11517441,0.03781032,-0.07603157,-0.4348543,0.31885722,-0.22759981,0.26295853,0.112845376,-0.0438665,-0.23800369,-0.11077113,0.19495274,0.06304119,0.49088222,0.027434597,0.07757581,0.03889189,-0.14869088,0.08997741,-0.14417371,0.076704435,0.40094286,0.27591705,-0.07370137,0.35579574,-0.019603923,-0.13813213,-0.006075899,-0.18799324,-0.03721147,0.039226606,-0.06248089,0.20089607,-0.44136992},{-0.12861931,0.07993903,-0.013210593,-0.52106977,0.01036592,0.24682075,-0.1076038,0.06617369,-0.05038911,-0.41133556,0.10314547,0.16842142,-0.096808545,-0.07166984,0.12023347,0.6851796,0.09057974,0.07194816,0.19733906,-0.22475414,-0.11507449,0.07211035,0.1251056,-0.11353351,-0.17989011,-0.087210394,0.11881452,-0.07955089,-0.38387018,-0.14780729,0.069574,-0.26142058,0.09365763,-0.0496936,-0.08850306,-0.14907318,0.10454333,-0.26109746,-0.36654577,0.28444216,0.08852269,0.073292434,-0.3428364,-0.29705206,0.29626474,0.051463082,0.030352106,-0.16707212,0.051258236,-0.2039667,-0.038058504,0.030572012,-0.060161013,-0.18888032,-0.24017404,0.16478501,0.26723114,0.12953572,0.09066668,-0.11092566,0.037505127,0.1253868,-0.093300335,-0.27390397},{0.06806166,-0.0058187135,0.37490737,-0.114271164,-0.037084322,-0.2500559,0.014635545,-0.23947546,-0.21057379,-0.06612711,-0.004804849,-0.055923194,-0.28338453,0.17829318,0.3025706,-0.06134075,-0.2750601,-0.094698146,-0.073318586,-0.20814355,-0.060492057,0.09479651,-0.12178484,0.032575484,0.5020035,0.17298438,0.04701325,-0.14515837,-1.1402752,0.16626145,0.26276097,-0.2277787,0.18178748,0.13955131,-0.34993514,0.21471618,-0.33445144,0.07375798,0.12047659,0.062011555,0.57735395,0.29524523,-0.20816655,-0.09247383,-0.14819016,0.27104554,-0.3261115,0.18755975,0.12775807,-0.0059254416,-0.1252502,0.13514757,0.34536186,-0.0921096,-0.46212515,0.04276934,0.010595194,-0.18595225,-0.0038159061,-0.117847465,0.17980367,-0.07136498,-0.16143698,0.20691621},{0.24543166,0.00087571563,-0.116553,0.37798136,0.041404054,-0.05008918,-0.2798857,-0.34090048,0.09746521,-0.11090954,-0.114123434,0.25059742,-0.25567088,0.09056247,-0.1766732,-0.1482295,0.37638336,-0.054027382,-0.033898525,-0.13064533,0.18922876,0.29874048,0.1717156,-0.21424623,-0.12889294,0.0348888,-0.01602551,0.20637587,0.116302446,-0.33465508,-0.1202825,-0.24586709,-0.1312553,0.015130546,0.08089017,0.44119963,-0.15808856,0.040925268,-0.13159348,0.30324742,0.19715852,0.0036130627,0.25568,-0.052513897,0.2882906,-0.16677105,0.23211756,-0.6102999,0.32053328,0.41743273,-0.03783495,0.042958923,0.022433385,0.010452215,0.25346944,-0.013761416,0.13374195,0.08032194,0.013878428,0.059013274,0.1497452,0.00079697336,-0.24258685,0.4544241},{0.08155797,-0.39350015,-0.010094105,-0.29014146,-0.14727874,0.13945302,-0.014554597,0.22907883,-0.35691637,0.02480793,0.25792208,-0.08800344,-0.16629775,0.39474913,0.039534055,0.018988268,0.046134792,0.02059258,-0.2986878,0.28801408,-0.18356735,0.14247398,0.17793551,-0.08985824,-0.21442783,-0.35459867,0.026054824,0.16546541,0.4009363,0.025468742,-0.23222233,0.07403818,-0.19788809,0.19503532,-0.22247478,-0.2710776,0.02211825,0.26819924,-0.02907387,0.21912903,-0.19648662,-0.38091582,0.25572878,0.07361693,-0.30448854,0.019941209,0.00094490923,-0.06477739,-0.23574087,0.16266923,-0.4559643,0.021115419,0.0412041,0.14040501,0.14622782,0.020882953,-0.09667272,-0.09173877,0.10556837,0.26706463,-0.28994048,0.228085,0.20275192,0.21408993},{0.20864503,-0.046762906,-0.07360406,0.044434227,0.24775831,0.11555431,0.05298075,0.22897959,-0.11422497,-0.31264937,0.04427777,0.18350722,0.15282981,-0.45134017,0.12458432,-0.16624817,0.25391495,0.40760356,0.29990473,-0.35557607,0.02369261,0.084301636,0.04171523,-0.38160866,-0.0059320354,-0.045917798,0.5099741,0.14512843,-0.14392373,-0.6747212,0.113730274,0.07602876,0.23077747,0.0315138,0.19450393,-0.17168109,-0.0148730455,0.052085314,0.3155581,-0.27501294,0.1497133,-0.30723476,-0.085973896,0.2833723,0.25476113,0.24282745,-0.16672835,-0.20023611,0.16979593,0.15485272,-0.035591636,0.13148598,-0.13807955,-0.17094706,0.16893749,-0.16315025,0.28137445,-0.011333035,0.047606934,-0.15352185,-0.10735198,-0.19001433,-0.00970612,-0.0025164494},{-0.06933893,0.0943756,0.20345148,-0.080936745,-0.25248545,0.016312405,-0.054572534,-0.10541732,0.10253704,-0.16897292,-0.08205279,-0.073601045,-0.42331764,-0.20343903,0.25176966,0.06582585,-0.07405131,-0.03396723,-0.07115024,-0.15836853,-0.066384256,-0.049746722,-0.22590037,0.058007065,0.23346215,-0.045218185,-0.10474476,0.15249182,-0.5539983,0.17921981,-0.041797407,-0.109296374,-0.122170545,-0.051358636,-0.2513,0.2904786,-0.186653,0.28755778,0.22584257,0.2642263,0.118281856,-0.04123447,0.13706276,-0.08210953,0.0033569168,0.15340267,-0.05103137,0.31955677,0.0047845715,0.14872494,-0.41640577,0.052241076,0.10116462,-0.091029465,0.01439686,-0.008439232,-0.013850936,-0.234059,0.15053843,-0.11123967,0.26674783,0.06753736,0.19841911,-0.1756898},{-0.0686261,-0.25755948,0.15769595,0.25887033,0.0059527312,-0.12470492,-0.14807005,-0.08592551,-0.5522138,0.18847327,0.2037594,-0.17436911,0.423756,0.1688665,-0.18373288,0.17659906,0.28816447,-0.06545557,-0.11865573,0.15289912,-0.07482669,-0.09239388,0.19091874,0.3320178,-0.738768,0.03934527,-0.19066371,-0.25228128,0.96425325,-0.047920544,0.019544087,0.17154413,0.048697088,0.38582623,-0.15543565,0.0340515,0.0061429343,0.05269158,0.009524971,0.54318005,0.15035553,-0.36777303,0.38058424,0.015612353,0.1390041,-0.33562985,-0.2102078,0.2737258,-0.08314907,-0.06746568,0.2170745,0.41837978,-0.044153072,0.07448159,0.20118585,-0.11594579,-0.025487226,0.001337608,0.2652791,-0.19605328,-0.07044477,0.32239494,-0.045261115,-0.2098372},{0.3498111,0.25766605,0.289809,-0.27725124,0.26559678,-0.034113254,-0.29586014,-0.11339794,-0.067088276,-0.12912041,0.092164755,0.059290867,-0.096578196,0.03757521,-0.22967207,-0.617265,-0.5380889,0.075782254,-0.11554878,0.027466001,-0.25240594,-0.23710516,0.32341662,0.11845119,0.14207302,-0.08149078,0.29558387,-0.21281235,0.16216195,-0.18734242,0.25609976,-0.08828672,-0.23201412,0.055110224,-0.1874032,0.021919597,-0.09349229,-0.11711091,-0.029986368,-0.027170576,0.032647587,-0.10110748,0.060295694,0.016258359,-0.20105672,-0.11095545,-0.27843466,0.30760127,-0.11789622,0.20590138,0.24543676,-0.32892716,0.17944458,0.31386217,-0.1698491,-0.34963664,0.5074401,0.37649298,0.13206111,-0.23339199,-0.11378879,-0.30719316,0.43272877,-0.18144608},{-0.04285629,0.16412847,0.40787038,-0.454273,0.111743614,0.15497535,-0.04994305,-0.22171628,0.12829307,-0.038107358,-0.22309454,0.17238832,-0.24006434,-0.14450963,0.010018224,-0.085952505,-0.17597893,-0.15470082,-0.47697994,0.11208422,0.37152123,0.08710251,-0.10236911,0.11036746,0.16387711,-0.093120314,0.5308797,0.18517034,-0.08688916,-0.33247295,0.3039249,0.23140776,-0.06194191,-0.13262439,-0.14671363,-0.14263566,-0.13431114,0.08439872,-0.17682926,0.21043098,0.15846202,0.014788919,-0.22254656,-0.077410445,0.1971636,0.102983855,-0.23887649,0.23495232,-0.21582656,-0.121331036,0.0074251904,-0.27693745,0.14570025,-0.1804028,-0.41129938,-0.36450225,0.15200494,0.03123309,0.16800524,0.19281699,0.08310286,-0.1607907,0.15758884,-0.09747293},{0.3992289,-0.27220953,-0.51635337,0.22158521,-0.0013455355,-0.12476513,0.07129688,-0.06080884,-0.58709455,-0.16476478,0.14449339,-0.2598486,-0.13700366,0.2814129,-0.20396668,0.12403852,-0.38230544,-0.14269312,-0.19947489,-0.18225501,-0.27544734,0.018058037,0.2000206,0.1659017,0.06466658,0.015014757,0.26708785,0.1879524,-0.020907436,-0.28534955,0.67752886,-0.18683456,-0.28856435,-0.31172103,-0.31621313,-0.1850102,-0.29490805,-0.08242057,-0.12372469,0.23192923,0.2580503,-0.494769,0.72980624,0.11992922,-0.2490675,0.04230803,-0.22925928,0.13484928,-0.6049008,0.34425014,0.04255341,-0.2633916,-0.031857245,0.07766177,-0.45548832,-0.56394386,0.29834458,0.008399955,0.19787587,-0.2117623,-0.30493832,-0.34258816,0.19981554,0.19273251},{0.11455943,-0.09233362,0.24625292,0.16527572,-0.28428924,-0.66696596,0.011504958,-0.536048,-0.1276536,0.06359008,-0.07317551,0.024732843,-0.06209857,-0.06784222,0.0755754,-0.012004126,0.09831243,-0.32238865,-0.08313776,-0.059761275,0.15494101,0.29970184,-0.19704801,0.07052828,0.0034127524,-0.11354048,0.060694486,0.13346761,-0.5575736,-0.21060257,0.26561788,0.19010834,0.08113693,-0.053503424,-0.028025085,0.10464248,-0.22769484,-0.22983986,-0.28693706,0.44802222,-0.34639153,-0.37809655,-0.07743031,0.05039413,-0.21240428,0.23864228,0.11065402,0.0050848816,0.14618638,-0.1442538,0.274311,0.052759826,-0.28675076,0.22239129,0.11323056,-0.30447382,-0.10170932,-0.036721643,0.028642036,0.018851096,-0.03902765,0.26085994,0.047767334,-0.05078878},{-0.26644102,-0.1822821,-0.24074635,0.11040467,0.3225359,-0.1546833,-0.20412861,-0.0137415845,-0.019830493,0.037282575,0.022185614,0.34416667,0.34142208,0.07661862,-0.36960095,-0.39367163,0.2958881,0.045358296,0.016321868,0.1407776,0.4104646,-0.11571475,-0.12566793,-0.22067776,0.016795272,-0.2680142,0.16002882,0.08327305,-0.045793448,-0.3910306,0.043072592,0.48376375,-0.04441631,0.19029553,-0.056606174,-0.2948118,0.08491462,0.0025762955,0.1778624,0.099114716,-0.15881282,-0.21493708,-0.018286144,0.3841784,0.0332813,-0.34148988,0.19685698,0.17100635,-0.1640736,-0.10075272,0.3860888,0.37541434,-0.14350285,-0.3173832,0.45666787,-0.068262056,0.17539251,-0.18133974,0.42874494,-0.17028475,-0.2656017,-0.15605213,0.3193022,-0.21698695},{0.22312504,0.12432899,0.064263046,0.18111911,-0.16481084,-0.3042063,-0.16092864,0.117553405,-0.16071564,-0.14484333,0.23517343,-0.08830049,0.10304551,0.17436656,0.2698779,-0.36205924,-0.07004127,-0.2797899,-0.08116079,0.36595365,0.014547637,-0.030449731,-0.16232337,-0.16690789,-0.014201083,0.05773158,-0.34642988,0.37250084,-0.0038512272,-0.2244114,0.1973572,-0.3716546,-0.09903556,-0.1354156,-0.25510168,-0.06188209,0.022131177,-0.015233587,0.094541244,-0.13932085,-0.113845624,0.080768764,0.1701348,0.28102317,-0.10157861,-0.12724678,0.22326878,-0.41995004,-0.0040414524,-0.032131437,0.08033722,0.05477865,0.1175875,-0.054718733,-0.06587056,-0.07932237,0.07188834,-0.0035639245,-0.14899945,-0.43847752,0.040797226,0.42266566,-0.07504598,0.30759245},{-0.04640756,0.18702564,-0.06318586,0.16357115,0.21223345,-0.039073233,-0.2639723,0.38911188,-0.021551207,0.43429363,0.30054492,0.24397999,0.1622679,-0.10693281,0.28911343,-0.23969121,-0.013019647,0.055422742,-0.0017771857,-0.38256082,0.0037859285,0.012129476,0.10325732,-0.06704642,-0.022063611,-0.3128441,0.46042734,-0.21793057,0.058895096,-0.004965288,0.44820407,0.23833685,0.03022725,0.5841392,-0.20488198,-0.1620071,-0.26263964,-0.07135996,0.01353124,-0.26414016,-0.072206564,0.02414309,0.033179402,0.27963424,0.08349933,0.29423147,0.26966035,0.014988371,-0.07349433,-0.14820556,0.6095869,0.19036022,0.1891183,0.028231047,-0.20295781,-0.10423231,-0.17098582,0.05239305,0.26625854,-0.37332737,-0.27240694,0.010245783,-0.00023421305,0.25878397},{-0.39336348,0.053622153,0.42387128,0.30955827,0.2747017,-0.13476387,-0.31302372,-0.0738237,-0.0073717986,-0.020830862,0.39460313,0.10286469,0.08466551,-0.1603284,-0.12754747,0.11675465,0.26378122,-0.16492797,0.020840306,-0.2359219,0.033161294,-0.17627007,0.63006467,-0.47314987,0.34160247,-0.07028295,-0.12754492,-0.22641224,-0.2527446,0.15283374,0.25464058,-0.06755849,-0.8192258,0.6672236,0.12191408,-0.09739078,-0.06921996,0.21130586,0.3744892,0.3944894,0.12214227,-0.2370255,0.090186626,0.11027149,-0.2756425,-0.7641124,0.12612283,0.18525662,0.36635387,0.34320316,-0.46357387,-0.026544515,0.13185586,-0.45701936,-0.019781485,-0.15966164,0.11034371,-0.030854704,-0.04770662,-0.10057511,-0.16415139,0.05268502,0.18975547,0.09050936},{0.2508937,0.41177475,0.034710113,0.031899743,0.061812542,0.0025755712,0.07729438,0.223224,-0.13866785,-0.22670585,-0.21221553,0.23643361,0.1378401,-0.6199854,0.13317047,-0.17841515,0.12688234,-0.15392688,0.25010243,-0.17257018,-0.3184799,-0.07426032,0.0033637725,-0.10106547,0.28227067,0.19352669,0.09621377,0.25102514,0.048217457,-0.28309113,0.44811967,-0.5487454,0.16490994,-0.1496491,0.12558219,0.0063891257,-0.24535252,-0.011254128,0.32636765,-0.60041434,0.31291366,-0.1712422,-0.2670826,-0.27253768,0.1906594,0.114500985,0.31434992,0.043516852,0.43248016,0.35176215,-0.5435182,0.032199696,0.04096854,-0.023555,-0.17380325,0.20925352,0.3870897,0.21412149,0.14431676,-0.32169592,0.34340653,0.38497892,0.40125299,0.37482014},{-0.16718219,0.09201137,0.10915218,-0.014947115,0.14408354,0.030023525,-0.022101441,-0.17816159,-0.17689629,0.27936438,0.16227217,0.036640324,0.078426376,-0.22567889,0.31077415,-0.21721101,0.12041208,-0.1788418,-0.13265719,-0.071022436,-0.09290452,-0.30050746,0.20718525,-0.04218856,-0.43615645,-0.16274743,-0.17564218,0.38492852,0.5287484,-0.15057197,-0.26010972,0.31251794,0.29077733,0.05019139,0.07634999,0.091626495,0.27770433,-0.34439337,0.18755138,-0.10019179,-0.33612788,0.04092936,0.19366543,0.06790887,0.17970483,-0.32960477,0.10356788,-0.15830357,0.07826344,-0.140011,-0.18387249,-0.023701712,-0.22112848,-0.17598452,0.044018354,0.12623188,-0.03918849,0.06866574,-0.34810922,-0.17732202,0.08824684,0.22805941,0.2865257,0.013840482},{0.06420434,0.16861467,-0.48438776,0.14849725,0.1229216,-0.29833657,-0.05234616,-0.21188186,-0.009413021,-0.057493813,-0.212768,-0.4206228,-0.015576594,0.13451569,-0.41775465,0.15853663,-0.46965834,0.099702686,-0.28185114,-0.06280818,0.31432906,0.37022415,-0.11013364,0.32421598,0.26158112,-0.011571849,0.14846708,0.0634162,-0.3173505,0.23529659,0.14891385,0.013837896,-0.2383149,-0.084819846,0.31648248,0.1427264,-0.12888184,-0.32598954,0.02196642,0.17287035,-0.1825845,-0.09546424,0.48442394,0.17663696,-0.01295939,0.14363743,0.25885215,-0.12383463,-0.21955322,0.45351738,0.3717668,-0.17104985,-0.11338805,-0.15845832,-0.16185045,-0.4793855,-0.07239986,0.16469821,0.21544059,-0.012749765,-0.013502419,0.061037093,-0.028654108,0.053835433},{0.19979328,-0.43783092,0.27632254,0.030757228,0.07918587,-0.28861934,-0.27416527,0.030188136,0.08966469,0.0042148624,0.4008819,-0.22004426,-0.069779165,0.0021554693,-0.23448221,-0.20927346,-0.10850129,-0.023805004,0.10486118,0.14143032,-0.12104107,0.2618134,0.22294705,-0.0005299954,-0.013815126,0.35183227,0.43079022,-0.044430945,-0.08794807,-0.1923172,0.046224557,0.5379741,0.111289226,0.2742965,-0.25941718,-0.3299261,-0.06528741,0.049900517,0.20452634,-0.015687387,0.14989471,-0.19563879,0.0122460285,-0.3588492,0.05654097,0.061056208,0.32268918,-0.6808139,0.037938073,0.20200111,0.11328913,-0.059186965,0.15728423,-0.40839723,0.16814509,-0.32881036,-0.3033589,0.15111323,0.23666818,0.034812294,0.13330543,-0.059270762,-0.3520326,0.017724607},{0.12334367,-0.24063772,0.045307044,0.2736243,0.06174273,0.39299655,-0.0067016953,-0.14430779,0.06693746,0.38686225,-0.0673671,-0.25647306,-0.13741532,0.16352493,-0.120546825,-0.20027217,0.016416883,-0.24343118,-0.65910983,0.12429788,0.12191182,0.20552799,0.28934592,-0.13295329,0.029589064,0.107664175,0.16926286,0.047211815,0.19221379,0.20597903,0.09947147,0.50755084,0.282415,0.56288207,0.0043304465,-0.40392998,0.19740246,0.22471988,-0.24717717,-0.286729,-0.21318461,0.22250324,-0.09858209,-0.1640385,-0.09010227,0.2135694,-0.095982715,0.0513938,0.022720642,0.018229876,0.296143,-0.0120735625,0.031774435,-0.29893503,0.24254346,0.023255445,-0.10167242,0.38089976,0.41133946,0.49632096,-0.08822318,-0.055981755,-0.22779134,-0.022182124},{-0.20296636,0.08061633,-0.28039175,-0.116265655,-0.0025764382,-0.041275665,-0.06790027,0.29251757,-0.28458393,0.30807337,-0.028291104,0.21908833,0.37130314,-0.03996362,-0.33369926,0.028433645,-0.08412977,-0.051239427,-0.110151365,0.26970598,0.2427469,0.023146598,0.5411727,0.07534316,-0.15383177,-0.06562361,-0.04668515,0.27188778,-0.17246214,0.24524474,0.18369964,0.08311811,-0.36328673,0.3597171,-0.04105227,0.056468744,0.12177969,-0.069499515,-0.077634394,0.32495338,-0.2086403,0.14812903,0.3570445,0.092301786,-0.111820444,-0.10108709,0.4187275,-0.13663943,0.010252999,-0.37046134,-0.29562542,0.3320576,0.17037617,0.0099414075,0.26098576,0.15134102,0.00123939,0.14629108,0.36755696,0.12962542,0.13834961,-0.19801028,-0.20762868,-0.018957762},{-0.29177287,-0.15392943,0.046547063,0.048296027,0.24164239,0.10689358,-0.039151862,0.12580484,0.068230666,-0.572564,0.13578084,0.11764672,0.29157624,0.3112025,-0.22097665,-0.32141674,0.3899348,-0.27333304,-0.26269835,0.14025433,0.27368826,0.10292464,0.35068312,-0.034288228,-0.07860122,-0.06332895,-0.179674,-0.38550466,0.4009281,0.20290203,0.1180049,0.12972216,-0.06970865,-0.46088296,-0.14074807,-0.021723578,0.10083259,-0.26472935,0.34049127,0.023361757,0.083379686,-0.08662105,-0.12627615,0.005037076,-0.14213885,-0.19082852,0.2259701,-0.058472633,-0.33284932,-0.047018785,0.042546872,0.31495872,0.1164641,-0.35479409,0.10263837,0.050703406,0.033541035,0.20819584,0.34559247,-0.22102325,-0.04501361,0.129779,-0.027717425,-0.15532982},{0.08531918,0.012163541,-0.06846751,-0.28304303,0.0975563,-0.04406329,-0.31768465,0.31499606,0.3199623,-0.018927692,0.07072091,-0.09670337,-0.3324781,-0.11511403,-0.19034076,0.22833364,0.031031026,-0.1503496,0.13410468,0.027478563,0.2816297,0.00745049,-0.041168977,-0.08801687,-0.025029283,-0.14522062,-0.088780604,0.02202971,-0.09207654,-0.21608682,-0.00993892,0.042868894,-0.27746037,-0.39825913,0.0011490937,-0.033382755,-0.4469008,0.21550606,0.33560288,-0.14126727,0.2372208,0.19805452,0.07515446,0.14507754,0.21779497,-0.08910321,0.23625916,0.4128959,-0.42611045,0.15735501,-0.05580778,0.063725874,-0.025218956,-0.11940772,0.14639334,-0.12790143,0.052175358,0.22864439,0.14089325,-0.12694989,0.059848126,-0.06800334,-0.014018881,-0.09259558},{-0.35166097,0.38805774,-0.38312918,0.04544721,-0.37320203,0.43536848,-0.013057383,0.3346523,0.14155795,-0.23509674,-0.08500257,-0.014769866,-0.29354498,0.06202361,0.23512766,0.0047532273,0.56298566,0.45093766,-0.12073739,-0.06673713,0.069214776,-0.11174058,-0.004702286,-0.13711913,0.035927236,0.15304129,-0.34504175,0.17613745,-0.23483828,0.13186136,-0.092495374,-0.09753339,-0.11078009,0.26181757,0.21849622,0.06453878,-0.21285994,0.18540207,-0.24809726,-0.011078584,0.24354441,0.12727109,0.13562407,-0.4474131,0.25907364,0.15672256,0.09895168,0.1004182,0.50709206,-0.26650718,-0.13721637,0.3619682,0.20790538,0.45897058,0.03670097,0.45919058,-0.17878948,0.012122406,-0.08452218,0.1741371,0.19170517,0.22481284,-0.28654468,-0.108235076},{-0.019340474,-0.36328936,-0.31746435,-0.20038538,-0.1383023,-0.32902843,-0.19659105,-0.032091707,-0.20946763,0.068483934,0.13627198,-0.15299556,-0.20766024,-0.05741135,0.19367003,-0.16471238,0.027382879,-0.2829048,-0.27128053,0.25773132,-0.040169388,0.16985013,-0.03276059,0.14451517,0.11992786,-0.051557027,0.214959,-0.20352463,0.039873697,-0.19438052,0.36332598,-0.19434112,0.015683822,-0.17598924,-0.03620313,0.18665697,0.15309796,-0.012918655,0.1220833,-0.07991366,-0.011089632,-0.2361871,0.19647774,-0.06933751,-0.13593799,-0.16394949,0.22111809,-0.40181208,0.34409973,0.31029484,-0.16403252,-0.048730854,0.18707313,0.0658945,0.13774097,-0.3109092,-0.023473334,0.14147678,0.12503922,0.014056324,-0.22832473,0.35764217,0.03985953,0.22686139},{0.21239083,0.0061929687,-0.047824472,0.44233668,-0.14150718,-0.18982866,0.20694374,0.006288188,0.025516894,-0.2620838,-0.0051883054,-0.13559791,-0.056256186,0.038799018,-0.16696306,-0.55965734,0.21845903,-0.06626456,-0.014265494,-0.23064458,-0.02093559,0.13800357,0.092709064,0.07172755,-0.15113726,0.09827252,-0.12999141,-0.1808621,-0.10223782,-0.10421218,0.10311783,0.12985608,0.018107595,-0.009098139,0.035506733,0.025506094,0.043304753,0.23078607,-0.15304075,-0.07338209,0.035892513,-0.24695805,-0.18849559,-0.009158312,0.097498596,-0.13052824,-0.2699425,0.3191429,0.52878773,-0.07960733,0.1390375,-0.15082282,-0.14263098,-0.17093801,-0.27185526,0.20552015,-0.2614017,-0.076523624,-0.24208222,-0.007956543,-0.25243366,0.1782657,-0.166408,0.23205687},{0.14306454,0.055044614,0.39129278,0.09746879,0.35315114,0.31714714,0.07706327,0.11004611,0.07521993,0.12318878,0.07724007,-0.35245562,0.12827611,-0.18658474,0.10735039,-0.2642291,0.057077844,0.2542948,-0.36082238,0.24814941,-0.07207126,0.11041514,0.07371837,0.31390157,-0.3852012,0.3862258,-0.16241443,0.5424359,-0.034947738,0.021918561,-0.064555824,-0.1783059,-0.2813107,0.1488921,-0.053205263,0.1446681,-0.2931672,-0.49509087,-0.26391387,0.23226684,0.013434122,0.032192357,-0.02304251,-0.51134485,0.3682376,0.035769172,-0.008249178,0.035519414,-0.023712574,-0.13423274,0.1764106,0.018700719,0.15409641,-0.1746391,0.057103027,-0.3510101,0.06281222,-0.0012549821,0.10189699,-0.20290782,0.37960267,-0.03988266,-0.2232871,-0.21320085},{-0.04064322,0.08734471,-0.120256215,0.24733312,0.14377855,0.27812746,-0.06754398,-0.18736456,-0.10919294,0.20318577,0.3274571,-0.010728775,0.29268578,-0.106376864,0.19200547,-0.13998649,0.26652566,-0.14335214,0.03545356,-0.06829844,-0.024104033,-0.18220174,0.28830147,0.018252328,-0.21875618,0.09250576,0.13192031,0.22198987,0.7480913,-0.08480111,0.08176081,-0.04344843,-0.26859155,0.103406996,0.01746477,-0.27706066,0.1849666,0.11429845,-0.14505008,-0.10322646,0.29262188,-0.2039208,-0.02296932,0.25227672,0.108472355,-0.46024638,-0.37974122,-0.09900891,-0.16879468,0.10518537,0.27616066,-0.011455768,-0.04578567,0.13128258,-0.073499195,-0.17249236,0.095088094,-0.28910375,0.011099684,0.2846579,-0.37424356,-0.12826425,0.27410978,0.2754163},{-0.14438893,-0.30982018,-0.1069148,0.05095353,-0.03465707,0.33677274,-0.21231379,0.36075038,-0.08294016,-0.009907907,0.27621898,0.16040759,0.020267332,0.13107128,0.28049392,0.055524167,0.29300028,-0.35064632,0.11511739,0.32788995,0.056104228,-0.04508514,0.02036589,-0.08773693,0.08837358,-0.22545755,0.11170799,-0.24781668,-0.018580506,-0.13113868,-0.07626431,0.14397605,0.21866046,0.2755748,-0.2969404,-0.29302734,0.17203458,0.20475458,0.059623122,-0.24305165,-0.007943187,0.40664318,-0.30262482,0.23212542,0.4470025,-0.03040796,-0.39767787,-0.2671055,0.5277492,-0.37126777,-0.06746218,0.33896682,0.07946654,0.5232446,-0.007037152,0.2247579,-0.041050967,-0.11998162,0.08216873,-0.046257876,-0.13448367,0.20554534,-0.32155764,0.47381753},{0.07264685,0.06255284,-0.38596025,0.31651703,-0.019497951,-0.35628313,0.22291565,0.0879014,-0.013151002,0.12612869,0.049466953,-0.28987107,0.1547725,0.6225735,-0.023172416,0.045373086,-0.15133406,-0.16037104,0.2685381,0.37435082,0.07422276,0.07751875,0.05041888,0.07911429,-0.12925471,0.23824799,-0.03879398,0.07864114,0.32582927,-0.047196507,0.30475155,0.1430846,0.1856613,-0.058166575,0.057357553,-0.033167314,0.48663783,0.35572857,0.08660847,-0.14819683,-0.060247883,-0.17204918,-0.09717683,0.1325236,-0.20950203,0.10831823,0.17577799,-0.5795905,-0.00107577,0.17108616,0.18187462,-0.031000724,-0.17359287,-0.13525616,0.2699874,-0.14220288,0.026916707,0.039325442,-0.14087956,0.2674135,0.065122716,-0.05093527,0.06380316,0.14313482},{-0.36048087,0.30326182,-0.026930667,-0.22910252,-0.014853936,-0.029084457,-0.26586035,0.056590375,0.24291399,0.14661351,0.36216858,-0.03773819,-0.21052761,-0.03139109,-0.10060328,0.2200071,-0.36678123,-0.36152762,-0.083042756,-0.11422416,0.41626045,-0.2654917,0.0058312993,0.2889351,0.14826193,-0.2904625,-0.04871968,0.16240497,-0.3145437,0.19026642,0.2602457,0.023940386,0.21966465,0.036946557,0.07670062,0.1268497,0.040495675,0.0029504118,0.13051544,0.14895967,-0.123781614,0.38671213,-0.6203377,-0.2385741,0.1588607,-0.19733796,0.40429488,0.13191316,0.11901009,-0.100023836,0.18061003,-0.14526589,-0.1176549,0.26640627,0.096104756,-0.2023798,0.15504077,0.44827387,-0.028625764,0.1699849,-0.12474687,0.11098505,0.11311737,-0.21865615},{0.26563814,0.21912396,-0.10293405,0.21264717,-0.0032197658,-0.25133142,-0.05196623,-0.196448,0.101600036,0.6730924,-0.022700844,-0.045830913,-0.1314384,0.28771982,-0.03241817,-0.11976843,-0.19526738,-0.2156023,-0.4487706,0.3870095,-0.2971581,0.092526436,0.1895418,0.21308275,-0.22097845,0.15359357,-0.4029245,0.5958694,-0.0758903,0.22645241,0.1995924,-0.13189998,-0.21496205,0.29890972,0.19666763,-0.13983648,-0.07751114,0.1984225,-0.1266302,-5.2602052e-05,-0.34600446,0.034133557,0.24189389,-0.0058312337,-0.24000925,0.09140841,0.11566544,0.26834258,0.30122936,0.016673153,0.089102864,-0.073998176,0.22741574,-0.02025198,-0.019891879,0.05814446,0.081085235,0.24834688,0.09835932,0.020867191,-0.07502835,0.13488278,-0.32678097,0.02862772},{0.07980201,-0.32881185,0.025760164,0.04398002,-0.29025215,0.34261438,0.082525924,0.17823482,0.19273993,0.243023,-0.21309409,-0.36533538,0.56420976,0.27469775,-0.1263966,0.08339146,0.0698974,0.36074248,-0.20060734,0.2910919,-0.23912619,0.064577416,0.20686728,-0.20517777,-0.15063298,-0.04332874,-0.12882413,-0.06744533,0.45909753,-0.29303503,0.11971684,0.3533611,-0.17292832,0.54252535,-0.3257022,-0.05243035,0.4483634,0.4094357,0.50374293,0.020864103,-0.32474524,-0.30234948,0.36602157,0.034623764,-0.23473354,-0.31892142,-0.17302445,-0.46423966,0.0638564,0.24603443,-0.1588074,-0.17562309,0.067926876,-0.22854695,0.111396715,0.46964988,0.018767552,0.2292998,-0.058861516,-0.13294604,-0.352351,0.0070388685,-0.044397734,0.21042657},{-0.07315751,0.077586904,-0.18674442,0.563314,-0.11733547,-0.11583674,0.17655554,-0.17982073,-0.09858573,0.08705933,0.016102184,-0.047092672,0.047428925,0.09347702,-0.13029434,-0.07486995,-0.20217437,-0.17638174,-0.017680144,0.112408936,-0.26397866,0.28820762,0.32176858,0.24050891,-0.02041121,-0.15656143,-0.32158697,0.1682439,0.40119156,0.27513665,-0.05783523,-0.17165655,-0.2025316,0.11342327,-0.12785698,0.017189289,0.09428561,-0.26874158,-0.053585753,0.30252036,0.16664429,-0.31068224,-0.22729951,-0.31750494,-0.093269154,-0.23851962,0.13590889,-0.19223428,-0.10903366,0.1431762,0.14328712,0.096554294,-0.1941257,0.033412717,-0.30908534,-0.13849272,0.044371843,0.26917902,0.06902141,0.04443216,0.034536876,0.1345321,0.232819,0.34051123},{-0.044207197,-0.10606959,0.2327515,-0.30537465,0.19357425,0.3715933,-0.30846238,0.28955582,-0.20451285,-0.2538578,-0.017611584,0.25872216,-0.12269197,-0.02990488,0.27013373,0.43540332,-0.19417447,0.2787236,0.31355268,0.015704116,0.22888032,-0.159025,-0.061783828,-0.17081496,-0.34284344,-0.11916935,0.4709761,-0.025565967,0.3767965,0.0012479201,-0.017697804,0.16554761,0.16497241,-0.14522047,-0.36819166,-0.03596907,-0.22300568,-0.23438203,-0.2611663,0.050215088,-0.18634114,-0.03813108,-0.31956846,-0.2662728,0.219475,-0.2930718,0.13042232,0.22309405,-0.2975167,-0.24309362,0.20234539,-0.17046359,0.08862971,-0.20124182,-0.10010858,0.11435298,0.090089545,-0.095096014,0.30503404,-0.039845083,0.050439056,-0.37513787,0.014946201,-0.22588441},{-0.41261923,-0.17011422,0.320589,-0.284062,-0.085240796,0.20895451,0.15901855,0.21784046,-0.100994706,0.059410263,0.1340521,0.27193335,0.2670201,0.17696318,-0.012337114,0.21902029,-0.40636992,-0.1647046,-0.36722973,-0.04473716,-0.13205902,-0.22196037,-0.1358401,0.15792923,-0.021760492,-0.23477678,0.38684013,0.12386128,-0.12658218,-0.18990138,0.16082518,0.16230781,-0.091449134,-0.030590633,-0.28336263,-0.30579513,0.014395338,-0.43521717,0.15179116,-0.24037328,-0.19176972,0.42830113,-0.20518439,-0.098506115,-0.22655682,-0.09131535,-0.36913094,0.21063204,-0.1887617,-0.54721934,0.1612609,-0.005733373,-0.044988368,0.12410359,0.063279726,0.12422802,-0.30786496,0.07188857,0.20628013,0.1309469,-0.35038072,-0.3033889,-0.23567185,-0.018354522},{-0.15727569,0.07477243,-0.047128476,-0.22379354,0.03161755,-0.29843715,-0.16117544,-0.30018595,0.0151415225,-0.21723534,0.22934331,-0.19869249,-0.40131167,-0.18947248,-0.49243873,0.1586951,-0.14099228,-0.056135535,0.17852286,-0.04164003,0.09383087,0.09971328,0.040467083,-0.38717115,0.45530975,-0.15357281,0.121895805,-0.27726266,-0.07403629,-0.263542,0.36171356,0.15279189,0.027379474,-0.06006989,-0.16473173,-0.14300773,0.34514228,0.29360366,0.14651485,-0.34484068,-0.024542714,-0.09671443,-0.20754197,-0.029892527,0.1478759,0.42065877,0.15680723,-0.17543201,0.1062307,0.11701336,-0.098494835,0.04571644,-0.18402621,-0.28071147,-0.023435272,-0.40266398,0.13196658,0.03805654,-0.100787334,-0.12754795,-0.084354125,0.02022326,-0.08562055,0.13305461}};
static const float layer_2_weight[64][4] = {{0.07503067,-0.07503807,0.054594323,-0.058009733},{-0.054631196,-0.09102497,-0.20964707,0.09641293},{0.26569006,0.03208011,-0.025477722,-0.13814974},{-0.1362176,-0.2213055,-0.15675282,-0.08188537},{0.061424386,-0.0013931185,-0.1497732,0.05918878},{-0.050307266,0.2710179,-0.05423482,-0.107009046},{0.034510225,-0.17853728,0.17168386,-0.024616593},{-0.17429397,0.15726627,0.04027351,-0.10016434},{0.09576792,-0.13079052,-0.18605708,0.277225},{0.2587847,0.10411497,-0.067091,0.09722849},{0.030675413,0.22250432,-0.16453402,-0.11303931},{0.04786077,0.08003127,-0.026281659,0.010168906},{-0.19592214,0.31670338,-0.11817736,-0.041667815},{-0.053327367,-0.06607447,0.09557312,-0.07678645},{0.032545667,0.27080622,-0.011784339,-0.23494679},{0.05252693,0.16902384,0.042720504,-0.011175554},{-0.029339086,0.24713106,0.044662002,0.06534313},{-0.1469994,0.1734293,0.33334935,0.13629243},{0.073357,0.22523472,-0.22011508,-0.14514332},{-0.0006837608,-0.050070092,0.15072949,0.020036936},{-0.18173909,-0.14392182,-0.12342157,0.15309575},{0.025621915,-0.0737959,0.003651278,-0.055163577},{-0.10923714,0.11879603,-0.17984232,-0.1995952},{-0.09372579,-0.28171918,-0.1381005,0.11663364},{-0.0064528356,-0.1647015,0.14575486,-0.29941863},{0.048568126,-0.056611314,0.12647505,0.12556955},{0.15175773,0.16127892,-0.06930855,0.011945273},{0.22974417,-0.11141761,0.13688633,0.045166966},{-0.030462317,0.2921563,0.14227405,0.107897304},{-0.10136838,-0.07374206,-0.09965447,0.16692127},{-0.022855263,-0.24368715,-0.2503706,-0.28947836},{0.14616685,0.14482166,-0.08080489,0.13342065},{-0.02790953,0.041501842,0.014304378,0.17197087},{0.045947682,-0.015276994,-0.2011106,-0.21901573},{-0.01617156,0.027921129,0.023153825,0.1560422},{-0.017743891,-0.070702836,-0.02178218,0.0017980479},{0.1402001,0.17995271,0.26457754,0.13591005},{-0.11280539,-0.036303915,0.22968483,-0.17668337},{-0.10442891,0.021554243,-0.0135485185,-0.0856771},{-0.047157675,-0.24679501,-0.2818183,-0.0925755},{-0.05412888,0.012602095,-0.16822548,-0.18109773},{-0.03779287,0.24780697,-0.1953215,0.0033230076},{-0.28775793,0.03617237,0.07331502,-0.17380346},{-0.12236657,0.0638019,0.18771204,0.094554566},{0.008586772,0.21847245,-0.1410911,0.19692378},{-0.053392306,-0.2885618,0.2943955,0.08104473},{-0.07603375,-0.047859102,-0.24659927,0.31066987},{-0.1808849,-0.17750342,0.093540356,0.00948655},{0.053605538,0.23571497,-0.09748083,0.09690844},{0.10844336,-0.19298546,0.19971801,-0.0069693085},{-0.056188297,-0.011510147,-0.20810318,0.15789409},{-0.06751327,0.08412473,-0.04237667,-0.057013877},{-0.009865627,0.14780006,-0.08403752,-0.21473421},{-0.054680254,0.024492165,0.016157523,-0.12827115},{-0.20661111,0.12144412,0.087264426,0.17621006},{-0.14603488,0.106038965,0.19312291,-0.034854405},{0.12420424,0.15790956,0.13210353,0.19883488},{-0.17190824,-0.10786596,-0.1695473,0.04973627},{-0.09053477,-0.075425334,-0.24965149,-0.06771591},{-0.05057855,-0.2682405,0.24015045,-0.15544635},{-0.11434228,-0.23968104,-0.09478035,-0.06688046},{-0.08399848,-0.03557236,-0.03384004,-0.035808165},{0.15133998,-0.051179126,-0.13854693,-0.09705219},{0.06034213,-0.04819973,0.04512454,-0.14261094}};
static const float layer_0_bias[64] = {-0.2206454,0.19685659,-0.021080295,0.079050235,-0.09599404,0.17618817,-0.071992554,-0.13008241,0.18158764,-0.048930503,-0.2255778,-0.11681561,0.062083356,0.028420694,-0.3401491,0.08295701,0.28939304,-0.09489203,-0.3957427,0.088506244,-0.09600258,-0.39107808,0.0010222401,0.044641316,0.49471727,0.14818148,-0.025156276,0.06333752,-0.113770045,0.25122228,-0.21587753,0.26010922,0.30746105,0.17308536,-0.03707659,0.07150153,-0.04725169,0.060952425,0.084109,0.13786742,0.0061800643,-0.08119249,0.37875998,0.21899354,-0.23727553,-0.113299765,-0.29992998,0.2340329,0.36725527,0.6980236,0.17113495,0.1236763,-0.26600707,0.15790683,-0.28502402,-0.030264536,-0.3846191,-0.22405797,-0.19733319,-0.112449944,-0.13750094,0.015800271,0.024189696,-0.029592682};
static const float layer_1_bias[64] = {-0.16166276,0.0054634237,-0.0037626796,-0.0691858,-0.0021110843,0.009861895,-0.12272839,0.10251948,-0.0411612,-0.2751032,0.10711174,0.05278622,0.047318563,-0.11476141,0.0104106525,0.4428679,0.074819826,0.14762251,0.14197291,-0.22429891,0.041906457,-0.027259776,-0.11311227,-0.12634227,0.021427752,-0.04326488,0.057171006,-0.32149315,0.019480264,-0.18068506,0.07178388,-0.011982171,-0.066616476,-0.12667197,-0.1051965,0.054802626,-0.07272636,0.093541756,0.08753772,-0.026102819,0.16002207,0.03454238,0.090767235,0.023970874,0.030939523,0.12057583,-0.033723544,0.2653202,-0.001621639,-0.12914655,-0.14383192,0.0805544,0.16528332,0.026830673,0.081366494,0.017697465,-0.027783323,-0.029034402,0.023070073,-0.20188858,0.030951748,-0.0058390317,0.043811932,0.0059731435};
static const float layer_2_bias[4] = {-0.054694925,0.08180508,0.015723428,-0.06737132};

void networkEvaluate(struct control_t_n *control_n, const _Float64 *state_array) {
	
		for (int i = 0; i < structure[0][1]; i++) {
			output_0[i] = 0;
			for (int j = 0; j < structure[0][0]; j++) {
				output_0[i] += state_array[j] * layer_0_weight[j][i];
			}
			output_0[i] += layer_0_bias[i];
			output_0[i] = tanhf(output_0[i]);
		}
	
		for (int i = 0; i < structure[1][1]; i++) {
			output_1[i] = 0;
			for (int j = 0; j < structure[1][0]; j++) {
				output_1[i] += output_0[j] * layer_1_weight[j][i];
			}
			output_1[i] += layer_1_bias[i];
			output_1[i] = tanhf(output_1[i]);
		}
		
		for (int i = 0; i < structure[2][1]; i++) {
			output_2[i] = 0;
			for (int j = 0; j < structure[2][0]; j++) {
				output_2[i] += output_1[j] * layer_2_weight[j][i];
			}
			output_2[i] += layer_2_bias[i];
		}
		// clock_t t = clock();
		// cout << CLOCKS_PER_SEC <<endl;
		// cout << t << endl;
		control_n->thrust_0 = output_2[0];
		control_n->thrust_1 = output_2[1];
		control_n->thrust_2 = output_2[2];
		control_n->thrust_3 = output_2[3];	
	
	}
	