
#include "network_evaluate.h"



float linear(float num) {
	return num;
}



float sigmoid(float num) {
	return 1 / (1 + exp(-num));
}



float relu(float num) {
	if (num > 0) {
		return num;
	} else {
		return 0;
	}
}

static const int structure[3][2] = {{18, 64},{64, 64},{64, 4}};
static float output_0[64];
static float output_1[64];
static float output_2[4];
static const float layer_0_weight[18][64] = {{0.39069417,-0.10899044,0.1562298,0.37110823,0.069120064,0.19970511,-0.1625025,0.32648283,-0.1424233,0.2733264,0.13533166,0.20133193,0.20371905,-0.14215581,0.1850736,-0.18666245,-0.23575553,-0.14381789,0.045652933,0.007690939,-0.02910013,0.21903434,0.3267121,-0.22902697,0.10977738,0.1821248,-0.079596266,-0.24886891,-0.0461752,-0.27814475,0.14615576,0.035056476,-0.103090666,0.27345112,-0.13431938,0.21730761,0.0034248692,0.124259435,0.21577665,0.10666017,0.07093039,-0.12168811,-0.30084908,-0.3031411,0.17032333,-0.5514632,0.15720496,-0.04034444,-0.078630865,-0.17898281,-0.15170866,0.2100509,0.06754669,-0.19992158,-0.32978797,0.100509286,0.5509734,0.04292181,-0.11221385,0.15577452,0.1336596,-0.41919062,-0.1273963,-0.083199024},{-0.1783702,-0.18129964,0.1518975,0.06901302,-0.12520604,-0.14706744,0.07318211,0.03164795,-0.037571482,0.18246049,0.25165543,0.2173248,0.0903473,-0.08002649,-0.1845859,0.055485368,0.09314161,-0.024506055,0.060430255,0.031962324,0.16304718,0.008910558,-0.27448863,-0.28768623,0.25137097,0.18517911,-0.14308481,0.10298386,-0.073123015,0.37533334,0.02324655,-0.099183165,0.020649308,-0.024938477,-0.24429792,-0.18346256,0.0036407323,0.0683179,-0.29643294,-0.104854494,-0.09433639,0.13715331,0.10331745,0.40502623,0.2551642,0.20288321,0.34402254,-0.119585596,0.39260307,-0.18801752,0.08353219,0.078484155,-0.17196459,-0.11226923,-0.05078404,0.2103673,-0.2644224,-0.17255828,0.21994495,-0.24220404,-0.13886523,-0.4631573,-0.17557997,-0.17091799},{-0.16997884,-0.2014858,0.020308211,-0.27272528,-0.045229193,0.6989273,0.28651017,0.268402,-0.34463808,0.5032791,0.0814502,-1.0183585,0.30052385,-0.089132,0.14606172,0.20039424,0.086979285,0.04230146,0.28321818,-0.10653653,0.0970153,-0.41988012,-0.15344039,0.4003405,0.16388372,-0.14488994,-0.10771901,-0.15016066,-0.1926948,-0.5601185,0.12872326,-0.07730048,-0.13460629,-0.19405533,0.006032397,0.29658192,-0.16570346,0.30449033,-0.3162615,0.04913782,-0.12804063,-0.3483798,0.106242225,0.11186182,0.016161604,0.15458548,-0.28116995,-0.04693504,0.1179722,-0.19449075,-0.17858684,0.122428276,0.34273285,-0.45482597,0.14019348,-0.05596014,0.0585603,-0.0097790435,0.10622196,-0.32801908,0.104731426,-0.31359282,0.23837967,-0.126832},{-0.35334945,-0.33422792,0.04787219,0.3424041,0.32681516,0.24352682,-0.27336946,0.4799353,0.06060566,0.2233463,0.18954866,0.09373597,-0.08414067,-0.559931,-0.14428265,-0.4360302,0.10593466,-0.15727992,-0.10471391,-0.3040406,-0.3667047,0.11786486,0.12955825,-0.15621418,-0.13759571,0.5941466,0.021679077,0.027480152,-0.40588436,0.016083306,0.19544256,0.15416163,-0.27485725,0.14172497,0.10145095,0.09353254,-0.19333154,-0.13602857,-0.2829046,-0.117971234,0.08422415,-0.07807631,-0.34726804,0.08224764,-0.0401824,-0.48497608,0.18535201,0.049950257,0.050436262,-0.08891179,0.0602373,-0.022104306,0.44285178,-0.040256113,0.11542597,-0.15601505,0.6626851,-0.08341296,-0.13658343,-0.10067872,-0.2614911,-0.0010842496,-0.019818434,-0.101019934},{-0.28530243,0.40205836,0.35524097,0.11384257,-0.026967878,-0.20087868,-0.34462136,-0.07324255,-0.35851994,-0.110101625,-0.13044822,0.2281426,-0.030632466,0.16213606,-0.010614424,-0.22147846,-0.07270792,0.018014586,-0.22220859,0.07560862,0.5486668,-0.21065085,-0.017781053,-0.14176987,-0.008436704,0.13598579,-0.40014246,0.22711739,0.09731904,-0.14242336,0.23861334,0.017576454,-0.2332707,-0.012891298,0.029652428,-0.06884922,-0.56884724,-0.11402002,-0.28686535,0.058028832,0.0420132,-0.09307543,0.11529077,0.44839764,0.27318633,0.054173127,-0.2329528,-0.3672927,0.33277693,0.05169176,0.24952595,0.2119118,-0.055093545,-0.102242485,-0.31226224,0.3547005,-0.2725559,-0.397374,0.083367676,-0.24802442,-0.3606497,-0.2104332,0.011622773,-0.24698792},{0.039110586,0.09075881,0.124485746,-0.28308818,-0.068540186,0.27423853,0.12080458,0.26022217,-0.11308364,0.26642233,0.023582863,-0.929909,0.8021086,0.0984937,-0.10480093,0.17850916,0.018706674,-0.16772127,-0.08924192,-0.014256632,0.09471733,-0.18287325,0.1662309,-0.03647579,0.019863095,0.10233098,0.33868176,-0.0026977933,-0.082307875,-0.4400607,-0.19324075,0.06690121,0.1365299,0.11038378,0.1994784,-0.06263064,0.20982638,0.21469066,0.08992953,0.012429731,0.13380744,-0.20225732,0.065524004,0.52802074,-0.015321503,0.13392545,0.03236098,0.07695696,0.050201908,0.28674868,0.15607992,-0.13196667,0.116574794,0.335579,-0.09888339,-0.13239267,-0.03768049,-0.09825893,-0.34096885,-0.2371466,-0.22565334,0.10656198,0.014840394,-0.0020820508},{0.1749436,-0.48199874,-0.3949257,0.1738335,-0.459805,0.06480352,-0.4950121,0.63122475,-0.29526,-0.5553788,-0.7056301,0.51830006,-0.51509666,-0.36422884,-0.19191644,-0.087337814,0.055431154,0.1955188,0.12164387,0.024962634,-0.14451478,0.2644201,-0.56353265,-0.46476334,0.7607543,-0.08425442,0.5691161,1.0969697,0.24689893,1.2565361,0.29154682,0.29180893,-0.323127,0.2264743,0.41531786,0.45709968,-0.18289366,0.036912337,-0.42425528,-0.20173687,-0.061786167,0.18073829,-0.0014296554,0.16291618,-0.03490096,0.22385027,-0.3695319,-0.25728887,0.3221034,0.1559426,0.3811763,-0.53447956,0.47231048,0.14809325,0.6158529,0.49707517,0.63550526,-0.1232794,1.3146745,0.070697874,-0.037127763,0.23972946,-0.28598872,-0.20389293},{-0.6051625,-0.5079245,0.7671482,-0.6189494,-0.31402084,0.4999845,0.07334699,0.4251841,1.1920899,0.64567,-0.08340198,-0.07435209,-0.0849373,-0.40124854,-1.012733,-0.16716495,0.0033469752,0.6760501,-0.6755265,0.1337938,0.2635288,0.8216216,-0.5117833,0.075309716,-0.1386005,-0.32454208,0.4564476,-0.16605087,-0.30757743,0.08716945,-0.70273846,0.1185244,-0.97478724,0.81057733,1.552557,-0.29741856,0.4945853,0.50800186,0.46599415,0.3136719,-0.052374836,0.93610394,-0.30295902,-0.047021575,-0.8694161,-0.29098386,-0.5436952,-0.4774339,0.6537615,0.029823402,1.3967324,0.22864865,0.543402,-0.62736917,-0.6996879,-0.9608883,1.2834828,0.36530262,0.5794548,-0.34047917,0.033322804,0.688644,0.31864327,-0.7539671},{-0.26828748,-0.0137213515,-0.1762844,-0.3506934,0.8674677,0.87663555,0.50505,0.3886973,0.16341595,-0.39912415,0.40066865,0.3993838,1.0502207,-0.600302,-1.2221528,-1.7238252,-1.2575012,-0.38248327,1.1309797,1.3707033,0.084725276,0.41195962,0.12045371,-0.18719314,0.33486825,0.620852,-0.24399504,1.0021385,-0.5588801,0.56341106,-0.1959254,-2.1369212,-0.6239138,0.54172003,0.68224055,1.7083972,-0.24260798,0.5789995,0.2869856,0.24099925,-0.5728518,-0.56558067,-1.8676673,0.77282214,0.8300896,-0.58187085,0.1987771,0.5603029,-0.25229913,-0.59123796,-0.23764086,0.23836584,-0.31869644,-1.0516039,0.57797444,0.4050742,0.32282296,-0.6565151,-1.0172753,-0.6460112,0.24839783,0.6409643,0.75424504,-0.23437122},{-0.25992927,0.27684945,0.03683391,0.8852992,0.5184787,-0.2988399,0.14672278,-0.5611808,-0.06394733,-0.3297548,0.27193603,0.33045995,-0.22088265,0.7079957,0.08771176,0.012198291,-0.44290867,-0.6930352,-0.059231784,-0.8015783,-0.29009524,-0.57799023,0.5943825,-0.43451038,-0.022959001,0.17792799,-0.7954091,-0.51935726,1.0537522,-1.2657598,0.08148077,0.19808897,1.0224712,-1.1609516,-0.4670347,0.078682095,-0.09285483,0.131955,-0.43981647,0.26080722,0.21627887,-0.065818205,0.7870175,0.020643702,0.20375484,-0.026397452,0.6616805,-0.5589172,-0.40770334,0.6368425,-0.7420585,0.21751031,0.33268404,0.6481294,0.36978105,0.24062046,-1.1376659,0.10599851,-0.6514623,0.29748368,-0.88463485,-0.21469095,-0.40457422,0.20771958},{-0.26065361,-0.1462733,-0.104304746,0.52306604,-0.12992063,0.2504123,-0.31438172,-0.03483311,-0.44269854,-0.86025566,-0.43881926,-0.03969481,-0.09521715,-0.09032804,-0.16853824,-0.08358195,0.2857366,-0.1198896,0.29782698,-0.1191358,0.3491609,0.2771696,-0.15224126,-0.6941317,0.50877196,0.21598071,0.22312133,1.1217167,0.69647795,1.3162762,0.9173678,-0.51817423,-0.20847525,0.1902748,0.042101987,0.17765245,-0.22325705,0.18078874,0.28349167,-0.19987726,-0.015341106,0.052612767,-0.112558044,-0.011431447,-0.04858847,-0.14011414,-0.123527676,0.26252398,0.22481343,0.22084737,0.29448527,-0.43166435,0.37488708,-0.16654466,0.09130344,0.19610085,-0.22513439,-0.08448994,0.5817741,-0.14942184,0.14384955,0.41344514,0.18340658,-0.13430661},{0.5849213,0.23511046,2.2028184,-0.23770931,-0.02117314,-1.159721,-0.41444927,-0.29434597,0.18639487,0.13874534,-0.44435737,-1.2657866,0.33229578,0.35751045,0.063122705,0.3249232,0.2828615,0.56682944,-0.33968556,-0.13991803,0.098358765,0.20167436,-1.0573328,-0.11291383,-0.44721344,0.28487578,-0.15479438,-0.13282399,-0.34595737,0.3159746,0.43809646,0.4269948,-0.72173226,0.0367085,0.25126597,0.65678144,-0.47179613,1.0074294,0.6309404,0.13926499,1.187533,-1.2755276,0.2536084,0.64455175,1.3056731,-0.010514676,0.60308355,-0.53856075,0.76957566,-0.09662649,-0.038455978,1.2945651,0.61610156,0.18273409,0.61102134,-1.6247085,0.7041452,-1.548166,-0.023732394,-0.6316492,-0.1462719,-0.3820718,0.19676271,-0.21146674},{-0.49333784,0.2239143,-1.0357559,-0.0816094,-1.7529213,0.2342463,-0.643813,-1.0391778,-0.54588866,0.003949795,-0.7112849,-0.18713772,-0.84726846,0.92052853,1.1940219,0.44316912,0.87964123,0.052251857,0.5239568,-0.5350529,1.1680262,1.0772903,0.80315566,0.5490783,-0.0944792,-0.8451875,1.4302537,-1.4899093,-0.43833733,-0.024704505,1.9925102,-0.05407635,0.55865693,-0.5794534,-0.6329792,-1.2721171,0.9548949,0.067203514,0.12893704,-0.39527333,-0.33112398,-0.29756021,0.6372141,-0.10239049,-1.3984737,-0.60731214,-0.3595422,-0.98140997,-0.05262391,-0.20536083,1.0665673,-0.42997187,0.54023427,0.76423407,-0.6680668,0.035669945,0.51649505,1.2309517,1.3773737,-0.18102577,0.7057438,-1.0420059,-0.27006337,0.9733523},{0.6858313,-0.36970937,-0.5213436,0.16371854,0.5838846,0.8142494,0.6278331,0.6860514,-0.039193157,-0.039422426,1.0971396,-0.8138986,0.31805152,-0.66327477,0.08626263,-0.39708048,0.3362979,-0.9008992,0.1800152,0.55601,-0.83187324,-0.3320408,1.4665271,-0.36966604,0.7843822,0.94956684,0.49570924,-1.0224063,-0.051555008,-0.4080884,-0.66512054,-0.8820251,0.62915754,-0.492305,0.8085547,-0.067534626,-0.07855158,-0.8560791,1.2158731,-0.19755703,-1.7559133,-0.351243,-0.9486241,-0.7022082,-0.74593514,-0.5694954,-0.31876865,0.26431704,-1.3250711,-0.93169504,-1.1645964,-2.0456963,-1.2065244,-0.40191057,-0.8458226,1.3786675,-0.21809869,0.72323865,0.59969527,-0.19068575,0.07632781,0.77962035,0.8165385,-0.12983635},{0.062474087,0.504839,-0.026890177,0.2605803,0.24010834,-0.34357935,0.37107643,0.3398389,-0.3481829,-0.23100284,-0.43375343,-0.23553333,-0.06883898,0.5957347,-0.028597971,0.109710306,-0.10575939,-0.71762866,0.46812126,-0.6537553,0.30584943,-0.39219448,0.1894156,-1.2257872,0.6469275,-0.19850817,0.2356631,0.9648543,0.54910636,0.43011215,-0.1101259,-0.04102614,-0.014043624,0.12106916,-0.36256325,0.28042695,-0.055959683,-0.10067798,0.5283748,-1.2024776,-0.6071629,-0.33959773,-0.42043975,0.030545916,0.002673794,-0.28420803,0.1603144,-0.40174645,0.2344485,0.23868051,-0.09359619,0.29451105,-0.09050077,0.06998283,0.39375556,0.27167326,-0.0063990965,-0.093178846,0.6346037,-0.3420106,-0.15570156,-0.09264702,0.07858512,-0.35619378},{-0.62174237,-0.09524479,-0.56398785,-0.05661865,0.13166294,-0.2881216,-0.5632472,-0.049960762,0.42241156,0.16102831,0.26038647,0.26713517,0.71720743,-0.48896614,-0.17812471,-0.054752346,-0.15303591,-0.59018165,0.5110956,-0.1797259,-0.11412427,-1.0304204,0.5448788,0.007673717,-1.0789053,0.31991342,0.5519119,-0.87452453,-0.44788224,0.42222026,-0.097302206,0.5399943,0.0767712,-0.5117657,0.6949348,-0.3796703,0.11064893,-0.58880055,0.28887388,0.29294547,-0.09285281,0.2317425,0.3036401,-0.22210293,-0.43553385,0.4821807,0.47561517,-0.22048895,-0.49946883,0.3327949,0.2507876,-0.15965524,0.35472023,0.2815538,0.18122278,0.4371607,0.28145403,1.0342432,0.0992481,0.25304258,-0.21246096,0.22308014,-0.041386288,-0.03225046},{0.33512604,-0.5592074,-0.078842536,-0.20382631,0.750528,0.28884307,-0.41993374,0.36037028,0.33180037,-0.1251135,-0.9383813,-0.50981504,-0.40187186,-0.5431754,-0.5865429,-1.372942,-1.0399005,0.48001346,-0.28443673,-0.06472577,-0.39821106,0.040805865,-0.3230935,0.37563103,0.30845943,0.8584683,-0.5152971,0.31767926,0.29219165,1.0239222,0.50484186,0.9705213,-1.1477988,0.47074986,0.82510936,-0.016695453,-0.89103276,0.55159205,-0.42207354,-0.55628777,-0.12014274,-1.3160564,0.29535487,0.27476698,0.1968673,0.0046039405,-0.3978707,-0.10575032,-0.048409414,1.0572875,-0.43303338,0.11909818,0.079290845,-0.3635902,0.1269466,-0.03848137,-0.580481,-0.365993,-0.24733943,-0.8520704,-1.2408495,0.2503947,-1.2522327,-0.47415364},{-0.36921972,0.5891465,-0.66152966,-0.6526701,0.3212669,-0.1624263,-0.35788888,-0.1113067,-1.18256,-0.6567016,-0.22581843,-0.71766776,-0.51824564,-0.018404098,0.3967361,0.5780236,-0.62241894,-0.627471,1.2194949,-0.1373519,-0.42456192,-0.4324709,-0.33024305,-0.793408,0.01656,-0.38189626,-1.0619074,0.14560029,-1.5685781,0.06463493,0.9632904,-1.7286358,0.7179672,0.019188583,-0.08621676,-0.95012516,-0.9884423,0.24913663,-0.63426733,0.8892707,-0.17516251,-0.12511314,0.22967717,-0.65007097,0.2969026,-0.341919,0.0715828,0.52987605,0.19320396,0.86426556,-1.2229258,-0.481481,2.1775196,-0.14354233,-0.25282452,0.12840311,0.632368,0.20869334,0.5949857,0.4361459,0.99994016,-1.095328,0.3576426,0.5818972}};
static const float layer_1_weight[64][64] = {{0.10953712,0.0030452842,-0.0353332,-0.0049749627,0.14843608,0.0364884,-0.07108607,-0.10637677,0.31902954,-0.038521122,0.14275046,0.2879453,-0.0789443,-0.24846438,-0.009164249,0.010639945,-0.08481088,-0.26822105,0.08819998,0.2169288,-0.011924377,-0.023726929,-0.23713571,-0.00832537,-0.17533645,-0.08981926,0.29494733,0.107173055,0.1571689,0.1176728,0.2388326,-0.11203171,-0.21631923,-0.17392401,-0.04519915,0.06733357,0.27971444,0.00626025,-0.16418718,0.1016804,-0.19465621,0.19696708,0.3180726,0.29280663,0.49177626,0.044764835,0.09221595,-0.19282216,0.31371364,0.24222635,0.07001832,-0.0013543003,0.101531796,0.098441236,0.048007905,0.17323026,-0.04651204,-0.25982276,0.03261938,0.0058622905,0.115226716,0.23300396,-0.3980352,-0.3275457},{0.14246531,0.25698596,0.3346789,0.065222,0.016074527,-0.092247486,-0.52597135,-0.4737433,0.45425487,0.0910343,0.0020209288,-0.22289181,0.40804103,-0.045841955,-0.2125196,0.3328092,-0.047196973,-0.006466932,-0.19786349,-0.396518,-0.253721,-0.09921417,-0.010596241,0.00012388927,0.28936845,0.030608328,0.28501064,0.4408122,-0.11790818,0.017320752,0.1984922,0.14776507,-0.11763346,0.28112563,0.40882224,0.16160358,0.17236722,0.08729796,-0.32738304,0.1880435,0.07938821,-0.06670591,-0.13971332,-0.08973205,0.10395305,-0.04852348,-0.1099761,-0.04770581,0.033437364,-0.21081156,0.2278136,0.13141818,-0.31271327,-0.15078697,0.10067754,0.081787996,-0.20947143,-0.120884925,-0.01826724,0.1624773,-0.31887206,-0.021437312,-0.003588859,0.4311761},{0.038800724,0.17396326,-0.07821068,0.033774156,0.22196832,-0.2109679,0.16927247,0.061052475,-0.04554222,0.20330842,0.21159469,-0.16300762,-0.46315807,-0.15928523,0.17194267,-0.17843755,-0.4155914,0.049768396,-0.36240634,0.01323911,-0.06255308,0.15371762,-0.16075088,0.3241736,0.6557968,0.15442397,0.15147029,0.06038764,0.011075839,0.048067648,0.19053711,0.2539684,0.16101545,-0.3457258,0.0060650017,-0.014880682,0.16111282,-0.017836064,0.25439352,0.25444695,-0.05753132,-0.113666005,0.2012171,0.21970458,-0.0125905415,0.03928949,0.010417232,0.16900653,0.5820605,0.20764236,0.3499329,0.16190514,-0.124468885,-0.25138006,-0.06716515,0.12622905,-0.14099295,0.38490504,0.020436695,0.10936922,-0.051694706,-0.4721295,0.13204294,0.39231688},{-0.10908832,-0.15791169,-0.27975118,-0.02909009,-0.4091181,0.08056644,0.16242447,-0.13541564,-0.019186739,0.21783683,0.14120755,0.18880333,-0.058541246,-0.123210445,-0.06785484,-0.26564038,0.3627928,-0.23914956,-0.029676717,-0.07086175,0.2774896,0.3009864,-0.07892794,-0.22363889,0.15968399,0.18026643,0.06969795,-0.1190896,-0.14446157,-0.15476805,-0.099285565,0.2239174,0.24024205,-0.18447606,-0.22472537,-0.10503458,-0.19606623,0.13693148,-0.0542507,0.060484245,0.34212458,0.18771699,-0.2304001,0.2518154,0.29044282,-0.13106962,0.25495994,0.09649755,-0.16285479,-0.076370955,-0.13201413,-0.1673506,-0.036385633,0.1011368,0.107481815,0.14697301,0.21336007,0.18133266,-0.7268786,-0.08892088,0.1564983,-0.112891324,-0.09539038,0.09189484},{-0.023388227,-0.26026008,-0.035366368,0.37188637,-0.4859423,-0.14137267,-0.2545341,0.50483245,-0.10733136,0.25086543,-0.010034507,-0.6293372,0.25862426,-0.14204007,-0.08588829,0.111312576,0.2649483,0.35833323,0.68689257,-0.013643296,-0.21179976,0.47736776,-0.05943909,0.45218557,-0.07806998,0.1388287,-0.17632489,-0.02644322,0.22103295,0.0005767684,0.092041045,0.4038248,0.23839703,-0.021132844,0.071150675,-0.20678689,0.18541692,-0.13205501,0.18283312,0.23757794,0.015072441,-0.02593786,0.19906269,-0.010136745,0.2414198,-0.13567874,-0.13651405,0.25478637,0.018998208,-0.32666117,0.09071691,-0.07711263,-0.7787578,-0.055505875,-0.1548394,-0.0409228,0.058618017,-0.28294712,-0.060650874,0.365215,0.4125894,0.24356014,0.30162767,-0.34070742},{-0.35735628,0.13965292,-0.3468012,-0.07080597,-0.035248782,0.15798707,0.44865128,0.05257436,0.1144962,-0.08660912,-0.10513786,0.1848358,0.27070284,-0.2672191,0.08878748,-0.00437621,-0.096532844,-0.30146933,-0.075314544,0.029303607,0.28057578,0.2305492,0.041640505,0.31405208,0.30284873,-0.007784949,0.2798226,-0.038494233,0.30271155,0.64646673,0.20569712,0.16304986,-0.085101545,0.057123538,-0.48449817,0.10412124,0.32335794,-0.43130764,0.24224563,0.005710107,-0.088812746,0.0939745,0.17163491,0.036199678,0.16587129,-0.04587669,-0.11562904,-0.077253476,0.041334096,0.068470515,0.022546401,-0.18150893,0.082165085,-0.15291975,-0.3020465,0.2714593,0.037824247,-0.17518136,0.2110984,0.21070616,-0.08938269,-0.016949562,-0.041467655,0.071678184},{-0.10082047,-0.35029235,0.07343409,0.12166189,0.22545975,-0.064162314,-0.012173864,-0.00819775,-0.0439026,-0.112710446,0.022321241,0.07842845,0.085323595,0.05170304,0.15485585,0.5385679,0.104974486,0.40262413,-0.34450856,-0.14299655,-0.2278189,-0.10094596,-0.3588396,0.071071625,0.18797688,-0.17222203,0.13096085,-0.29595023,0.16778553,0.08795075,0.24444509,-0.12397917,-0.2838455,0.29431212,0.070330285,0.13693814,0.16328147,0.2445683,-0.34237406,0.0568481,-0.29045206,-0.0696114,0.19807997,0.3598799,-0.29599357,0.09363129,-0.34864643,0.11371988,-0.028503267,0.24143901,0.116923034,0.048199758,0.093887225,0.023327842,-0.279185,0.054457355,-0.34550053,-0.52492404,0.17531955,-0.23954324,-0.34497455,-0.04877943,0.16949293,-0.1731729},{-0.1336904,0.032231774,-0.090988845,0.13942717,-0.060587574,0.07871025,0.17790638,0.1506687,-0.13132282,0.054447312,0.05800838,0.21411532,-0.18509929,0.14267369,-0.0115075465,-0.2284829,0.15322308,-0.01880373,0.4032324,-0.08760468,-0.06642211,0.38400307,0.11878921,0.6218034,-0.17291255,0.013570843,0.35538965,-0.0110292565,-0.15474966,0.2031938,0.1184208,-0.1871238,0.2063073,-0.12959819,0.14410605,0.34439248,0.3100334,0.05273415,0.28134722,-0.06358053,-0.06333453,-0.0072038947,-0.12537296,0.06439283,0.18367748,-0.028820623,-0.23587014,0.026357835,-0.011340932,-0.13223548,0.11314855,-0.24864045,-0.2587231,0.14007248,-0.08793645,0.20928419,0.11947805,-0.17059414,-0.043887217,0.04230049,0.14102907,0.22127408,0.015187664,0.20137852},{-0.13234955,-0.20125571,-0.0009555772,-0.04657432,0.1639589,-0.23829658,-0.021612437,0.33888683,-0.23377314,0.16199397,-0.39186773,-0.09601573,-0.21822432,-0.30191216,0.0567796,-0.15145189,0.037254706,0.04266847,-0.36774334,-0.04411835,0.25810367,-0.27277622,-0.12335061,0.13831078,0.03634257,0.024701726,-0.14113012,0.19234215,0.009564532,-0.08996327,-0.0315479,-0.10503593,0.204038,-0.2244939,-0.12236571,-0.05253127,-0.20182684,-0.13958989,-0.28293034,0.092509575,-0.15489116,-0.18526515,-0.034143962,0.20807213,0.14231631,-0.08240031,0.13581023,0.089926586,0.22130056,-0.2673738,-0.01937927,-0.100623906,-0.005727741,-0.33825523,-0.18435735,0.121591076,-0.09598616,0.06282255,0.24957496,0.02750531,0.25814697,-0.1422776,0.04500204,-0.36028045},{-0.1321364,-0.24383122,-0.30172879,0.24328047,0.1439588,0.0350477,-0.19604044,0.035078235,-0.19672807,0.0542503,-0.02689028,0.11953085,-0.063712694,-0.60328585,0.24131534,0.17313749,-0.08873474,0.04024837,0.16159847,-0.1443719,0.033969022,-0.21611096,0.10068403,0.49376217,0.201245,0.036516126,-0.11684121,-0.58008575,-0.10610341,0.3638891,0.39104298,-0.16426569,-0.03312682,0.0061132624,0.06793353,0.035589002,-0.1053022,0.02917752,-0.09964676,0.04640982,-0.1552106,0.07307405,-0.07763994,0.21583633,-0.17951518,-0.103631765,0.093599394,-0.064547874,-0.018359559,0.19323015,-0.26574913,0.00023462769,-0.16743824,0.19821045,0.098075785,0.16631946,-0.120056614,0.1071966,0.19609232,0.17754775,0.13328911,-0.24748953,-0.25168893,0.009109364},{-0.08207225,0.006553963,-0.21077129,-0.13817613,-0.038320288,-0.19431946,-0.17595983,0.0012339378,-0.19549115,-0.009859418,-0.12211483,-0.19627395,-0.30718958,-0.053358074,-0.11873559,0.06014052,0.23131348,0.1186991,0.16013545,0.035788238,0.20189567,0.088240415,-0.15022974,0.27303672,-0.10157324,0.037588198,0.10748087,-0.26782018,0.23328273,0.1826137,0.27151224,0.24272884,-0.43136954,0.08976759,-0.17148069,-0.06899058,0.13688786,-0.045465127,0.22173975,-0.30201405,-0.30307102,-0.023323778,0.058735974,0.39124146,0.089195594,0.099610865,0.035416637,0.12343642,0.29494342,0.0035618548,-0.29639703,-0.10611761,0.09601618,0.05688155,-0.14170912,0.09804084,-0.21014677,-0.09432386,-0.27664387,0.3457134,0.23634514,0.1201325,-0.2392365,-0.065100506},{0.29247525,0.058705397,0.10134392,0.21400647,-0.39373034,-0.10302723,-0.27274653,0.047983944,0.17737877,-0.003277652,-0.03100029,-0.027013775,0.33949602,0.03600227,-0.13944325,-0.021265035,0.364202,0.09833543,-0.050237935,-0.27941883,-0.021921476,-0.07708535,0.3709406,-0.20905992,-0.17778319,-0.10340104,-0.11938794,-0.037124213,0.14316574,-0.10303961,-0.16867958,0.017632177,0.22723038,-0.14670719,0.37887043,-0.38363686,-0.49984053,0.20758867,0.021463647,0.13061924,0.20985796,-0.21981621,-0.15209651,0.071966596,-0.60619855,-0.13682105,0.19218847,0.24287663,-0.16792066,-0.1993825,0.21569967,-0.037580874,0.09131066,0.12014223,0.20624067,-0.27061594,-0.059353586,-0.26243332,-0.22540897,-0.016083427,-0.073568985,-0.030492533,0.30879888,-0.45491543},{-0.33889416,-0.1194096,-0.24123938,-0.20748144,-0.13580593,0.12673807,0.10342563,0.28605866,-0.07201788,-0.15311436,-0.12858744,-0.009979783,-0.1205713,-0.51926935,-0.020226635,0.21558265,-0.10240346,-0.12362573,-0.21592152,-0.01820009,0.009259697,-0.1021724,0.19503675,0.3748485,0.38968575,-0.0025380687,0.12029162,-0.08807212,-0.037485886,0.37976965,-0.22884598,-0.17044485,-0.1667842,0.0013469573,-0.38971448,0.29730868,0.21657038,-0.2139561,-0.120037936,0.020696217,0.12264173,-0.16772102,-0.035807572,0.26261893,0.37863392,-0.036167387,0.1962238,0.18786214,-0.040473286,-0.14314006,-0.26622537,-0.09914463,-0.0023614666,-0.25260526,-0.25724518,0.24859416,-0.26479742,-0.09177101,0.09676375,-0.066962786,-0.033816386,0.11570835,-0.23845637,0.059060387},{0.0006740964,-0.12976064,0.41470748,0.019306052,0.2353397,0.20969655,-0.18833013,-0.4429658,0.6082314,0.015271357,-0.3827731,-0.041947335,0.29057983,-0.16257434,-0.18773852,0.18663163,-0.47002172,0.44741932,-0.31385142,-0.3487541,-0.045202535,-0.0482982,0.008595667,0.034285057,0.017165536,0.04507619,-0.26760396,0.11303632,-0.15825096,-0.27224326,0.19577745,0.20749268,0.05663032,0.4426777,0.2657066,0.17704412,0.07093376,0.59354234,-0.39687967,0.35674262,0.42057863,-0.17600472,0.14032951,-0.09345965,0.06194515,0.056631308,0.15243602,-0.09238663,-0.24695069,-0.004692215,0.045104425,-0.24392486,0.05518778,0.05259134,-0.13353449,-0.17889968,-0.4010234,0.20316102,-0.0083094025,-0.19343832,-0.38472733,-0.21506724,-0.10349073,0.55925316},{-0.17571935,0.016523985,0.009706768,-0.20091584,0.21558945,-0.03826264,0.25913045,-0.47521228,-0.102415025,-0.11854464,0.077558585,0.1372074,-0.07386711,-0.22009386,0.02509209,0.17048237,0.0009523917,-0.25004345,-0.27451718,-0.35360545,-0.38040122,-0.22990145,-0.1258468,0.12709597,-0.21370122,0.32402444,0.15644167,-0.323165,-0.18455513,0.26133162,0.14838763,-0.037418325,-0.41981894,0.027031653,0.07397696,-0.1461079,-0.43590778,0.10707926,0.12506692,0.12608895,0.18925454,0.1531788,-0.17789567,-0.30090812,0.05904823,0.19031565,-0.09587999,-0.27996692,0.0902746,0.104453206,-0.13973513,0.027494079,0.21715471,0.08882828,0.1938625,-0.04981061,-0.28830016,0.29831997,0.282376,0.003021378,-0.14712055,-0.08152857,-0.29628205,-0.043490116},{-0.113624156,0.2995939,0.049406715,-0.31440413,0.49625924,0.11151913,-0.20272943,-0.019031048,0.31718594,-0.15257697,-0.053111807,0.18030638,-0.009909307,-0.30370575,-0.17633818,0.0011351075,-0.33591256,-0.052107733,0.10988551,0.23294197,-0.27126595,0.089777924,0.068233535,-0.12868051,0.48131287,0.09794863,0.20978035,-0.11595405,-0.17817417,-0.2229039,-0.06799616,-0.30041873,-0.38393715,0.3852975,0.10594316,0.39450833,-0.22071119,0.15077546,-0.26172608,0.13338837,0.028495343,-0.017968474,0.059351187,0.2582834,-0.2888157,0.23969756,-0.03680604,-0.2679423,0.1606301,0.104892276,-0.13854602,0.072431296,0.2127164,-0.21960108,0.014292235,0.02223466,-0.30802715,-0.19479986,0.4232984,-0.016219344,0.03193576,-0.01793305,0.07830641,-0.13880107},{0.26665917,0.14107357,0.0091549205,-0.31828415,0.25514323,0.05104349,-0.69248915,-0.08043736,0.16149454,-0.30798846,0.2625872,0.40335447,-0.28083605,-0.17767435,-0.10651846,0.1178797,-0.047850702,-0.10267297,-0.25587583,0.40434578,-0.11389057,0.28036964,-0.06968091,-0.30898103,0.104375735,0.20899926,-0.12302862,-0.0803167,-0.13851534,0.077627525,-0.17650913,-0.029234473,-0.19754952,0.18792512,0.035634868,-0.18436922,-0.04081246,-0.070683286,0.11282186,0.012137527,-0.16135263,0.12811759,-0.23791662,-0.13963313,-0.2886046,0.2560511,0.05289292,-0.26430494,0.20169224,-0.039937858,0.09210126,-0.09042213,-0.26988772,-0.28406698,-0.08810957,-0.25545153,0.2566409,0.17885084,-0.06883382,0.018166617,-0.08119421,0.045704827,0.24941853,0.14954293},{-0.052507836,-0.09830446,0.18228166,0.178119,0.010049608,0.14379269,0.45637986,0.31506312,-0.40689132,0.21371284,-0.23428649,-0.15797625,-0.024581987,0.030443542,-0.048108645,-0.07247298,-0.5164812,0.37694272,-0.42442676,-0.26364088,-0.18563187,-0.17267409,-0.11264386,-0.23023269,-0.17164503,-0.26544538,0.16537422,0.27149603,0.19512354,0.022900533,-0.14889993,-0.060515128,0.29474694,-0.43499514,0.056938894,0.10855029,0.053822346,0.0634292,-0.001669651,-0.13681279,-0.049273055,0.11424139,0.35401487,-0.098126926,-0.22114356,0.06012042,0.07959683,0.27076897,0.28332505,-0.18200383,0.26426548,0.20305656,0.15979515,0.16671847,0.16470672,-0.1566352,-0.016269961,0.3460005,0.4790097,0.012292671,0.1731345,0.110097416,0.010334771,-0.15425868},{-0.23784499,0.2941536,0.19408844,-0.28735614,0.16148691,-0.079329215,0.11233247,0.019809749,-0.14881308,-0.14941594,0.34783298,-0.10729191,0.4761336,0.40914273,0.12695178,0.11929582,0.37551823,-0.02365812,0.2597045,0.21702392,0.13979262,-0.0107129635,-0.1836142,-0.37978476,0.098174185,0.15872964,0.03342843,0.35863718,-0.057141237,0.42765793,-0.079336785,-0.18414612,0.17374341,-0.042436786,-0.22492768,0.1891753,0.017140247,0.249953,0.09378599,-0.24763396,0.03483515,-0.03799988,0.0063595655,-0.303885,-0.42724383,-0.20054488,0.04997558,-0.018363843,-0.72111046,0.09231581,-0.21853992,0.112685025,-0.2872735,-0.24153073,0.11978539,-0.090151116,-0.31304535,-0.18267879,-0.4244068,-0.018575476,-0.10327824,0.37919807,0.13910468,0.28266996},{0.03251832,0.24456199,-0.41221327,0.0037535492,0.07996794,-0.41801417,0.3886919,0.50248754,-0.3834278,0.23614886,0.032149732,-0.14381357,-0.21274498,0.014854811,0.072733976,0.057557568,0.27585822,0.14979921,-0.1139026,-0.21346031,0.37777963,-0.16037968,0.116581954,-0.30711734,-0.24365528,0.07952304,0.11436019,0.40894437,-0.0033062734,-0.13067466,0.10139355,-0.020504003,-0.27474272,-0.09777156,-0.046809852,-0.032582123,-0.012668366,-0.13072893,-0.08790446,-0.21713102,-0.43213445,-0.23722322,-0.33900386,0.5749988,0.16411392,-0.19177367,-0.08953276,0.306987,0.033165973,-0.16491303,0.12796994,0.18882243,0.06353481,-0.19518483,-0.19587457,-0.039251093,-0.23153979,-0.09764853,-0.016587285,0.02532396,-0.11867287,0.08192946,0.24195817,0.10843528},{-0.08788028,0.15176518,0.26903915,0.21362352,0.1635626,-0.109640315,-0.12291825,-0.1344533,0.083797485,-0.14440258,-0.023368584,0.018894928,-0.1257748,-0.42962733,-0.05355011,-0.16558258,-0.29825306,-0.13825473,-0.05629234,-0.12727037,0.13650465,-0.070306964,0.056186058,-0.4681814,0.25733134,-0.13175738,-0.00026898677,0.17061275,0.21308303,-0.07748282,-0.052542962,-0.36464217,0.21212582,0.08581636,-0.0280043,0.08751265,-0.09609168,0.0742629,0.11312867,0.10336802,0.292125,0.30301878,-0.16809855,-0.17336771,-0.33378378,-0.02223137,0.32120392,-0.06660018,-0.18378334,-0.012148749,0.02883052,0.10859175,0.16206461,-0.120710574,0.044963624,0.02986108,0.3584481,-0.06885164,0.012255815,-0.25471768,-0.26819265,0.03312944,0.047263693,0.35674617},{0.12307809,0.2919748,-0.12497847,0.08962907,-0.017186264,-0.13314372,0.20220943,0.06629467,-0.0052056895,0.20053019,-0.05047327,-0.15642521,0.07644679,-0.017407203,0.31382382,-0.10291463,-0.2568666,0.10305265,-0.4283959,0.004616343,-0.027882025,-0.06627083,-0.14095925,0.0103717875,0.15537861,0.034440227,-0.0050109522,-0.2659715,-0.06828937,-0.21399245,-0.46067038,0.07024061,-0.11272258,0.0003270537,0.14585519,-0.16585349,-0.32584867,0.14677775,-0.27470097,-0.099063724,0.063392185,0.01005877,0.07289277,-0.20575455,-0.08078783,0.16933516,-0.18076035,0.19241226,-0.15050398,-0.032523822,0.030804647,0.07939957,0.22714536,0.14412892,0.13888673,-0.2597377,0.0415164,0.21458043,0.38556764,-0.30042976,0.06141011,-0.009052022,-0.01480586,-0.3992221},{-0.094634436,-0.42226434,-0.2552487,-0.1846041,-0.5233556,-0.14845294,0.4152161,0.23783246,0.008693435,-0.13748226,0.39097244,0.04799719,0.08035481,-0.34714755,0.19804433,0.13853168,-0.05389118,-0.2579137,0.37874708,-0.3584446,0.07826596,-0.25848705,0.004346738,0.483198,-0.1364139,-0.106156066,0.101790555,-0.1960148,0.012459428,0.37957498,0.042063914,-0.0414617,-0.39317033,0.18362576,-0.0830178,-0.37112743,0.057161435,-0.42569202,0.28188407,-0.12472894,-0.03771571,0.017560398,-0.32930696,-0.24216826,-0.089603916,-0.31977817,0.23409694,-0.06269348,0.2411017,-0.060935594,0.07302174,0.038511716,0.10323748,-0.13302138,0.08333463,-0.1024546,-0.26466882,-0.29311377,0.1411481,-0.08485892,-0.068153396,0.2666751,-0.026344834,-0.22515252},{-0.14012676,0.04790663,-0.18021,-0.015618131,-0.12170392,0.33029333,0.17055087,0.24563056,-0.09942652,0.14545818,-0.36995596,0.0152149545,-0.18904737,-0.2566513,0.121758126,-0.0072695357,-0.2193398,0.27906585,-0.16089495,0.08986438,-0.2600421,0.24449024,-0.19029047,0.026737101,-0.2774729,-0.007820274,0.093372315,-0.23345155,-0.04960522,0.2964298,0.30153215,0.3068586,-0.13615428,-0.22484031,-0.050114322,0.18321411,-0.2357166,0.31151068,0.09727961,0.1797808,0.18268366,-0.14644577,0.12574777,0.06097589,-0.20003101,0.04244584,0.033811674,-0.2143405,0.31569156,0.073113054,0.07241481,-0.15428084,0.19554543,0.24261992,-0.091579445,-0.25698078,-0.3251505,0.106130004,0.58674043,-0.06405839,-0.42861155,-0.13026865,-0.04026079,-0.34700796},{-0.101138145,-0.24015868,-0.26443753,0.049870826,0.17333192,-0.1201557,0.17541073,-0.14080831,0.09395286,-0.49283895,0.48798978,0.25093842,0.14198478,0.64066494,0.3909448,0.19221108,0.118613735,-0.10113957,-0.106674254,-0.010214024,0.33432922,-0.04099937,-0.4103427,-0.15511347,-0.025234278,0.26912925,-0.005307604,-0.079385415,0.2631643,0.11853521,-0.03722676,-0.43373773,0.015725594,-0.049424585,-0.061057106,0.15867583,0.39695033,0.0034179692,-0.12562715,-0.088667154,-0.19229838,0.29433656,0.20692913,-0.31603307,-0.4420082,-0.024427501,-0.28019977,0.22743787,-0.1384126,-0.0024144636,0.08422361,0.07437467,-0.01473992,-0.41000912,-0.19104505,-0.18653323,-0.29126352,0.025665421,0.0060810004,0.015685838,0.11144546,0.13933006,0.36712748,0.4216184},{-0.023753077,-0.32965136,-0.10632409,0.18234421,-0.32657668,-0.40318465,-0.015138746,0.2892552,-0.44938862,0.23837712,0.26187047,0.017268518,-0.13148418,-0.23827782,0.10588323,-0.26735294,0.010217653,0.017605456,0.10130731,-0.40362132,0.012308734,-0.015807798,-0.14555822,0.5659677,0.12485369,-0.2132595,-0.28569245,-0.19231166,-0.17231824,0.13678215,-0.21940294,-0.10590241,-0.030354012,-0.23441078,-0.12164859,-0.18812025,-0.08808385,-0.29195148,0.3076752,-0.124722034,-0.13519779,0.06586801,-0.037213724,0.12069935,0.28593057,-0.047311828,-0.06613815,0.32555795,0.28718483,-0.22647329,0.047080867,0.23787214,-0.27340823,0.077530034,-0.21308815,-0.027322471,0.13462484,-0.24991937,0.12314226,0.5354578,-0.029332379,0.3481576,0.078859255,-0.5790001},{-0.22902386,0.113993056,-0.12478776,-0.10653337,0.19750398,0.15902592,0.008166358,0.2582735,0.036019858,-0.1730232,-0.2082828,0.2019458,0.025671095,-0.28594565,0.085317045,-0.33173057,-0.057882514,-0.11151305,-0.23205492,-0.15358207,0.11417074,-0.270557,0.3015176,-0.21293697,-0.14061087,-0.11947027,-0.2672247,0.16377011,0.09339683,0.24186055,-0.02353331,-0.2883036,0.22834198,-0.04281621,-0.16156098,-0.042140614,-0.26915643,-0.093740575,-0.23897499,0.00041612049,0.0012852872,0.42902,-0.016786918,-0.35008153,0.045442354,0.15985307,0.22520319,-0.0066948226,-0.1292384,-0.026884442,0.1945834,-0.06247578,-0.11932585,0.23790793,0.23293151,-0.35857162,0.058302972,-0.112271346,-0.19495608,-0.32989636,-0.06889718,0.38269952,-0.043829415,0.1604697},{0.21749058,-0.16770075,0.3242257,0.23264691,0.2870065,-0.120890185,0.22436902,-0.06568856,-0.18441318,-0.39156207,0.3722796,0.32195,0.17043167,0.19554192,0.17916909,-0.27295697,0.10094164,0.0032503637,0.25058684,0.24714057,0.060387317,-0.1900407,-0.12571585,-0.35049322,0.026834885,-0.2901792,-0.1859858,0.4565669,0.14994052,-0.4517538,-0.4107315,-0.40866172,0.30139473,0.0675896,0.20480594,0.031981584,0.20764144,0.0105762,0.10199331,0.04649578,-0.3190074,0.08250934,-0.1660217,-0.514842,0.025865393,-0.17663552,-0.07222112,0.02115268,-0.5178481,-0.08169227,-0.11986187,-0.21325473,-0.4416877,-0.3171778,0.18498681,-0.1502852,0.460946,-0.24620289,0.0643761,-0.15657894,0.4177286,0.40713224,0.37627634,0.29571593},{0.02137287,0.16375677,-0.1942391,0.043962978,-0.11224005,0.019991234,-0.01695391,0.03326481,0.0801588,-0.16613796,0.2579417,0.061445843,0.49757847,0.38564757,0.19720842,0.21959677,-0.13028117,-0.23516634,0.15798824,0.14344895,-0.10928644,-0.037315287,0.09652873,-0.25452676,-0.2914322,-0.25622198,-0.35867685,0.029698225,-0.09849513,-0.13651563,-0.15094624,-0.15252537,-0.058668207,0.08660622,-0.18068719,-0.15952389,-0.010600683,-0.08469068,-0.24921294,-0.11809616,-0.036036674,-0.17516086,0.17656477,-0.17893821,-0.111338645,0.21507297,0.084495075,0.09596522,0.3335414,-0.15087213,0.08590432,0.11671306,-0.41855574,-0.41574526,-0.16965991,-0.37452456,0.0409219,0.041111887,0.054818317,-0.17914598,0.30271384,0.24806504,-0.0489363,-0.22246134},{0.021110108,0.2045815,0.048726663,-0.13950601,-0.28789237,0.01586089,-0.105476096,0.03303235,-0.14218372,0.07412795,0.13482226,0.0010984489,0.09233455,0.5745048,0.11475148,0.09735459,0.2040659,-0.031194694,-0.24542163,-0.18445064,0.08882582,0.10984492,-0.23449732,-0.4199576,-0.010752983,0.13981466,-0.14498343,0.15798995,-0.03568332,-0.59773326,-0.2554195,-0.03370829,0.18470004,-0.036295895,0.029048905,0.008903488,0.06848441,-0.0887848,0.21039051,-0.07855609,0.07962769,0.13710895,0.026514886,0.13080758,0.024632897,-0.096129395,0.053713486,-0.040257856,-0.1544888,-0.056598164,0.18328571,0.18074498,-0.1292561,-0.07487539,-0.021585597,-0.2256483,-0.022595122,-0.10347417,-0.09795655,0.11729341,0.014286142,-0.11214203,0.1618714,-0.22094174},{-0.319615,0.1443203,0.09537297,-0.17875043,-0.045330975,0.30650225,0.23476705,-0.04030319,-0.07969556,-0.11570622,0.024061369,-0.08227344,0.24607493,0.40107146,-0.31518978,-0.12580764,-0.07556188,-0.14397977,0.0031131394,-0.16623576,-0.13381015,-0.09551132,0.13953763,-0.40693608,0.111668,0.018223891,-0.03605011,-0.21268968,-0.081147835,-0.39734274,-0.20818576,-0.2060225,0.0854595,-0.10706861,-0.09620789,-0.13882273,-0.30520517,-0.11723007,0.22054783,0.14199644,0.17629997,0.05513763,0.22366726,-0.44108123,0.12365735,-0.13573442,-0.043401,0.037927024,-0.36146805,0.030454155,0.059537873,0.09518851,0.13654488,0.13061652,0.040942963,-0.267162,0.03169032,-0.11898783,0.05089815,-0.14563927,-0.31542367,0.04349809,0.18629745,0.08726988},{0.05677292,-0.35748482,0.07567853,0.10059677,-0.22788838,0.021908326,0.15728109,0.00051889237,-0.0056143724,0.13735473,-0.10045537,0.37478706,-0.108463526,-0.21778253,-0.009944634,0.17914745,-0.060586583,-0.2474132,0.046434812,-0.23617344,-0.19995584,0.3089806,0.39544192,0.29334584,-0.055620264,-0.32831022,-0.4718951,-0.5469938,-0.07038752,0.25280544,0.5733307,-0.06982518,-0.20824589,-0.0879059,0.14670555,-0.13092098,-0.050466757,-0.038464457,-0.13345365,0.6267522,0.07209986,0.1480591,0.09740529,-0.15074639,0.123417825,0.19024576,0.5236599,-0.39837104,0.15684335,0.26813048,-0.35168633,-0.36529365,-0.15198646,0.37859312,0.39029485,-0.17984585,-0.021852883,-0.16270119,-0.3441823,0.07824357,-0.07939855,0.16830854,-0.23156808,-0.38924548},{-0.04810852,0.077375054,-0.05002584,-0.108966425,0.12114431,-0.0620684,-0.07896578,-0.20192239,0.35747334,-0.035032984,0.103219084,0.097182535,0.08797358,0.048215106,-0.220172,0.21285148,-0.3348617,0.06817491,0.0608368,-0.03933076,-0.103731416,-0.33436388,-0.0046599316,0.29980794,0.19249567,0.09585573,0.17090684,-0.31204993,-0.045462135,0.24468142,-0.118553594,-0.17552623,-0.63043934,0.23875101,-0.0020611996,0.16326086,-0.10707844,-0.20521404,-0.063345,-0.091964304,0.13469493,-0.11393564,-0.35381383,0.06839799,-0.06695989,-0.2101307,-0.035659496,-0.05148644,0.4119708,-0.29636946,-0.019917404,0.21667871,-0.003679562,-0.013971561,0.051487204,-0.12545164,-0.17478102,-0.336042,0.7400259,-0.0018928673,-0.3374356,0.020125711,0.20282535,-0.13363202},{0.28131086,0.25394875,0.02529597,0.051463526,-0.1592975,0.036548533,0.3630765,0.0038404497,-0.12876752,-0.01688124,0.12697634,0.33766347,-0.22721423,-0.1467929,0.11010426,0.07816089,0.31694207,-0.16969615,0.07702177,-0.21977237,0.20468538,0.045671064,0.16593654,-0.031074096,-0.090280056,0.10312897,0.034996204,0.060535073,-0.028053531,0.13742961,-0.14756307,0.22742324,0.22970277,-0.40071416,0.17237422,0.2962485,0.114462376,0.11528688,0.09701852,-0.24779114,0.14989965,0.20187981,0.08607709,-0.0122670345,-0.10162969,0.09446166,-0.21816415,0.07738852,-0.10960259,0.17639098,0.008773782,0.019698178,-0.13959712,0.121667415,0.30571184,0.12602139,0.18096754,0.20893545,0.26885194,0.11806899,0.12904444,-0.2223086,0.15708336,0.29072624},{-0.13588482,-0.21569948,-0.1240211,-0.00091370806,0.19238992,0.24098387,-0.034494653,0.35355997,-0.09911024,0.27165577,0.086831585,0.04571779,-0.15644075,0.019897569,0.11834599,0.20990187,-0.084827915,0.1256637,-0.008091495,0.14813489,0.32634202,-0.11976439,0.5227258,-0.23143642,0.07268882,-0.19793619,-0.13633488,0.20650175,-0.0629702,0.3502964,0.11748762,-0.12945561,0.0917543,-0.1539476,0.14526366,0.03712229,-0.010734283,0.18255082,-0.24427234,0.011215841,-0.05052546,-0.225046,-0.06724428,-0.2515521,0.20764618,0.027154116,-0.34347925,0.08170014,0.3330452,0.17591281,0.10368739,-0.048614707,-0.3103677,-0.21307164,-0.16309008,-0.016112868,0.21713167,-0.35278335,-0.17631942,0.03891008,0.25999883,0.27638012,0.02793552,0.21274313},{0.057727337,-0.17065585,-0.15163521,-0.059934963,0.0645875,0.011073249,0.2867601,0.14928578,0.08070711,0.14446695,-0.11605033,-0.24128431,0.3243323,-0.17351517,0.15723193,-0.32815474,0.11656737,0.1841562,0.23798586,0.24554622,0.0019350598,0.4098035,-0.007963746,0.25424692,-0.004366634,0.034132324,-0.19702709,0.19353613,-0.184511,-0.11910591,0.042088415,0.08253725,0.5518605,-0.43646047,0.15973991,-0.30361807,0.19711922,-0.26801184,0.20556614,0.2535838,0.19222441,-0.062906876,-0.25022277,-0.15558892,0.05380251,-0.0889757,-0.08971194,0.048843186,0.023068871,-0.16126195,-0.18374065,-0.046041593,-0.33370942,-0.3119918,0.057090614,0.0057664043,0.10692474,-0.24181287,-0.7693933,-0.07962834,0.3676241,0.12684841,0.30106252,0.11688144},{0.071009174,0.0105527975,-0.019594047,0.06579935,-0.20303296,-0.34805197,0.1816507,0.040937092,-0.19191267,-0.04341857,0.0018351276,-0.0068584904,-0.2402936,-0.5111225,0.038983762,-0.1400946,-0.21601608,-0.004763279,0.031176696,-0.06904042,-0.07877736,-0.25579232,0.058702044,0.18253258,0.0052589313,-0.13619076,0.32248953,-0.43991324,-0.17970578,-0.019052666,0.04746181,-0.2023297,-0.16435774,0.03946357,-0.08229136,-0.11951818,0.12438142,0.15669698,-0.17904362,0.21278504,0.042961102,0.09496951,-0.21759945,-0.1439303,0.05378042,0.098704435,-0.06701622,0.04129677,-0.0716465,0.16455391,-0.12749705,0.12963535,-0.011987239,-0.1057728,0.11248712,0.13167322,0.1630451,-0.11410179,0.25962588,-0.0058650337,-0.31543466,-0.21172588,-0.30583042,0.17625178},{-0.20680355,0.0690522,-0.24973322,-0.16782504,0.009351028,0.12888584,-0.18555258,-0.19653942,-0.057158962,-0.09457195,0.2949634,0.1403591,0.12027817,0.14285938,-0.0963504,-0.16277535,-0.024351735,0.16209921,0.16651924,0.61137277,0.113461725,0.027956855,0.12275896,-0.10548993,0.11189285,0.00038592127,0.21316265,-0.061380442,0.14267129,-0.06582354,-0.09375516,-0.0060466873,0.051266495,-0.20049839,0.21318565,0.35130706,0.062460184,-0.012346023,-0.02925333,0.13973068,-0.12207808,0.13470466,0.047917467,0.20818737,0.103068285,-0.092369646,-0.16868682,-0.10543395,-0.00279059,-0.047158837,0.06847935,0.22114958,0.15444247,-0.0020993706,-0.037568238,-0.076740324,0.12643965,0.07566211,0.22737806,0.07114295,-0.1550297,-0.07617795,0.016426472,-0.13486397},{0.35866028,-0.24194086,-0.3847574,-0.028730243,0.14980626,-0.4375092,-0.30375078,0.0062758466,0.046291705,0.07839606,0.12091174,-0.32168478,-0.03855743,0.23119503,0.15989123,0.03102969,-0.031977225,-0.19011308,-0.12425303,-0.3694579,-0.17894824,-0.116844974,0.08496674,-0.021919552,0.24429809,-0.20714404,-0.12834829,0.16146879,0.05210385,0.168602,0.13636836,-0.3893563,0.05530032,-0.24454312,-0.0034171292,-0.041784782,0.09897828,0.023606537,-0.21883363,0.27206054,-0.042452823,0.27274305,0.056903843,-0.2643634,0.5465772,0.14065605,0.09125801,-0.032610815,0.060263604,-0.23173288,-0.11015866,-0.13720818,-0.26378816,0.016054349,0.27943525,0.12679031,0.038919028,-0.2545791,0.08760724,-0.24940585,0.043361865,0.359279,-0.1288609,-0.20046623},{-0.066464536,0.06398483,-0.05683828,0.057549708,-0.22019863,-0.0026361486,0.27243572,0.55900145,-0.3509852,0.4449805,-0.27092984,-0.31967258,-0.35396048,0.0376981,-0.22424933,-0.27892846,-0.082180634,0.2797568,-0.105879806,0.11975968,0.2506147,0.21241158,0.095076665,0.13849497,-0.030637229,0.08520309,0.5114055,0.22140467,-0.07829237,0.55909646,-0.0076237004,0.17786027,0.16645184,-0.18573345,-0.12484729,-0.0075666914,-0.14950301,0.23809446,0.204351,0.06113588,0.010955216,-0.2872038,-0.17059708,0.786,-0.06609628,-0.20537896,-0.044008896,0.21018635,-0.08900431,-0.15868609,-0.21067995,-0.28850138,0.556684,0.5066033,-0.11528544,-0.002783165,0.22256027,0.6991821,0.047002085,0.23859192,-0.024866628,-0.3432466,-0.0023852356,0.007345799},{-0.16783759,0.29444087,0.032856885,0.06153729,0.26381144,0.057423204,-0.029632056,0.02947626,0.019660134,0.3654268,-0.05094512,-0.12710495,-0.13561998,-0.29959336,0.09956928,0.010789365,-0.08144728,-0.19820993,-0.3907537,-0.04740455,0.3034864,0.23850483,0.27609944,0.020794405,0.27393487,-0.07420641,0.07095751,0.070706464,-0.068966895,-0.040732525,0.038086038,0.20046604,-0.16331778,0.13626216,-0.007803319,0.047137883,-0.31185573,-0.30261272,0.19905423,0.08477088,0.06603318,-0.2775931,0.06339686,0.40727776,0.47846976,-0.081829116,0.23249504,0.14266363,-0.08561285,-0.061542027,-0.111491516,0.19800223,0.35433757,0.1400002,-0.0713787,0.30825114,0.2652977,0.3259723,0.30805886,0.54899234,-0.03333968,-0.24034368,0.16351977,0.028751485},{0.19755536,0.075792596,-0.0031050267,0.105205774,-0.11480989,0.070472755,-0.0074312096,0.03433897,-0.22816202,-0.23168345,-0.40571433,-0.09406734,0.05144236,0.5293622,0.100819245,-0.10566516,-0.10913605,0.0319787,-0.2631452,-0.35790673,-0.08006064,-0.11924831,-0.019782463,-0.2556508,-0.028815866,-0.059738502,-0.18809913,0.17047502,-0.11520436,0.08258944,-0.10958541,-0.047548946,0.123432726,-0.10904183,0.050207824,-0.4931351,-0.26592714,-0.022611212,-0.118111804,-0.23697983,-0.02522725,0.10111555,-0.19394648,0.30550832,-0.40490094,-0.04586415,0.074525654,-0.048971623,-0.058993686,0.022705445,-0.17731805,-0.20136248,0.20982651,-0.08897701,0.039611198,0.07992379,-0.13812304,0.27258068,0.093380965,0.11944551,0.020376937,0.13712606,0.21078174,-0.26667663},{-0.15389001,-0.08691646,0.22435795,-0.112189,0.13384615,0.27254042,-0.09022542,-0.33008,-0.12426799,0.13101073,-0.30077016,0.095835365,-0.060739588,-0.093752965,-0.016989395,0.060055066,-0.36128685,0.15679336,-0.28743905,0.037204903,-0.28557402,-0.39800957,0.25950128,0.04171032,0.11778153,0.050374422,-0.03694244,-0.19783197,-0.09492093,-0.07659593,0.17403372,0.085052036,-0.03957136,0.088032626,0.23524131,0.042853277,-0.16574605,0.062867574,0.020039046,0.14429212,-0.15746523,-0.0983321,0.24096349,0.087278046,0.07382656,-0.16343202,-0.011612703,0.10868502,0.15583667,-0.19282736,0.1585861,0.027218213,0.07623712,0.4018338,0.05158373,0.323354,-0.21499792,0.26843387,0.38786918,0.090242155,-0.21182184,-0.18232438,0.008909524,0.09656774},{-0.12629355,0.124320164,0.10518108,0.14571302,-0.05544528,0.2887299,-0.08780379,-0.05363702,0.120030895,-0.17442508,0.23769629,-0.24210352,-0.22414863,-0.10534656,-0.100223035,-0.32503414,-0.24044965,-0.2861783,-0.15756199,0.36799484,0.1855099,0.1321396,-0.097067155,0.00415014,0.25213116,-0.20170155,-0.23457879,0.19975682,-0.2195145,-0.04091558,0.16321704,0.020423742,0.308713,0.14942744,-0.09826019,-0.089210875,-0.07909675,0.19644184,-0.05223467,0.15315522,0.053677917,-0.28311932,-0.08066573,0.08854005,0.09469291,0.121408984,0.102113575,-0.07791019,-0.26608008,-0.05697319,0.027493343,-0.09246178,-0.24860404,-0.14044407,-0.09585627,0.03643001,0.3366476,0.12669776,0.095891505,-0.10056275,-0.09361138,0.090133555,0.06257999,0.091682576},{0.11978738,0.38800186,-0.097583205,0.14376813,0.19440816,0.13135299,0.134259,-0.013114505,0.20118208,0.5213009,0.20413415,-0.05910116,0.22489202,-0.055660285,0.11445321,-0.23362578,-0.122809924,0.24235404,0.4190106,0.43360898,0.17283112,0.25980157,-0.407741,0.29447278,0.16439423,-0.32808137,-0.20777175,0.5631494,-0.050646592,0.2110857,0.43437985,0.3729766,0.5614908,-0.3786605,-0.03756455,-0.107215576,0.481319,0.12815738,0.17301238,-0.039769948,0.104941845,-0.21924578,0.21236055,0.15889958,0.43667123,0.020414045,-0.09341536,0.027382914,0.30507693,-0.29205003,0.6248425,-0.13453662,-0.26290053,0.09730453,-0.11666862,0.16469982,-0.014300415,-0.123688176,-0.23426941,0.31755835,0.12421359,0.069602005,0.21720642,0.5799643},{-0.014711392,0.09839475,0.044436004,0.47197303,0.41422305,0.22258338,-0.36500192,0.10214168,0.019647157,-0.09646557,0.0897443,0.07841391,0.00028895287,0.28399178,-0.30446416,-0.3688442,-0.30355886,0.33051893,-0.0541207,-0.09062073,-0.26175043,-0.38649803,0.17871045,-0.2943873,-0.024929544,-0.031318616,-0.11564399,-0.028601428,-0.005285905,-0.086441316,0.30721045,-0.013675363,-0.062310833,0.53252196,0.20896891,0.43503115,-0.14192754,0.009000371,0.03332745,-0.15362135,-0.13546817,-0.11986095,-0.32871497,-0.003698642,-0.19188078,-0.04617499,0.036000427,0.1063199,-0.29273427,-0.0002904804,0.1659399,-0.15182416,0.049466487,-0.11549346,-0.39541456,0.15266588,0.042642076,-0.25502506,-0.21074294,-0.20789136,0.17907538,0.06705091,-0.18359244,0.09810772},{0.15404142,0.19384702,-0.13868602,0.013070243,-0.43621314,-0.32105935,-0.10804071,-0.09046118,0.31404403,0.4512515,-0.110304624,0.012159598,-0.26247668,0.22020033,0.14014238,-0.09020356,0.12800391,-0.012757704,0.41944367,-0.29070923,-0.23825228,0.019915244,-0.30049273,0.22030106,0.07817564,0.0028417532,-0.0013340178,-0.22164041,-0.09111717,-0.21171999,0.12467664,0.14549601,0.16996947,-0.24248117,0.44294897,0.016834846,0.0286283,-0.15699077,0.6212051,0.002262142,0.16457602,-0.03037986,-0.40799475,0.088071465,-0.034857456,0.22071545,0.24392982,0.08178943,-0.18162781,-0.021807538,-0.08958228,-0.07298035,-0.16916014,0.14717408,0.18032248,-0.016773345,-0.23728178,-0.21674639,-0.63822424,0.62971175,0.33569592,-0.27009925,-0.07711419,0.07442598},{0.03377582,-0.26671314,-0.052403063,0.15759793,0.07259669,-0.30592847,-0.052755658,0.36589774,-0.16584922,0.2017287,-0.13776849,-0.12134685,0.017060803,-0.016767409,-0.0034386343,0.33118793,0.17507353,0.09654704,0.13339445,-0.16119155,-0.025197072,0.094281375,0.04328359,-0.121975124,-0.28000355,0.22676179,0.24137068,-0.23042452,-0.031689845,-0.010293403,0.055397674,0.31357569,0.091187365,-0.16332163,-0.05503503,0.1305357,-0.08475418,-0.06643166,0.009531172,0.33805785,-0.09930842,-0.0007513454,0.009149533,0.13509059,0.20554282,-0.2061795,-0.46015057,-0.13090557,-0.39558738,-0.18866478,-0.28476194,-0.09061745,-0.15984647,0.04437728,-0.09377847,-0.20682123,-0.11693159,-0.11138216,-0.17200164,0.08446575,0.18869348,0.26972198,0.04836149,-0.48930004},{0.14583224,0.12217888,0.41712156,0.19437099,0.22623833,0.07608117,-0.09683816,-0.459184,0.15498728,-0.11506984,0.033130266,-0.013437608,0.1179639,0.22778882,-0.17637639,-0.33926538,-0.09499138,0.19638407,-0.18168853,0.012757885,-0.048856776,-0.27333465,-0.21867932,-0.16610278,0.14169161,0.06620461,-0.121587545,0.30400565,-0.14546217,-0.23002656,0.14284061,-0.11481305,0.37672654,-0.083822586,0.13010022,0.07606621,0.34085664,0.16825058,-0.038229823,-0.2840579,-0.14444047,-0.09465338,0.1635254,-0.1475543,-0.052352022,0.21809602,0.25220942,0.064613946,-0.124731764,0.29504538,0.41442093,-0.22591303,-0.17822129,-0.052391022,-0.14393798,-0.1273408,0.28135863,0.118257076,0.28152546,0.089492366,-0.061286554,-0.33078128,-0.16933471,0.9533609},{0.10051134,0.030204767,0.00108238,0.061487317,-0.0021586888,0.14631903,0.0010971376,-0.09364924,0.22739899,0.08823165,0.12944968,0.09248089,-0.18980896,0.17787997,-0.06692452,0.12698898,0.29309043,-0.13923202,0.093481,-0.04202729,0.24989727,0.20255414,0.33517697,-0.04460376,0.07555209,0.3474544,0.04633511,0.22308135,-0.010206893,0.29827225,-0.023858633,0.13116312,-0.1792837,-0.0951979,-0.10779366,0.29678583,0.23890984,-0.040939018,0.18827973,0.14957875,0.22513781,0.2485773,-0.029113946,0.07980321,0.106967896,0.11385645,-0.18006884,0.18944919,-0.29176027,-0.09063952,0.09567728,-0.036482204,0.057891686,0.12935479,-0.17090286,-0.20489387,0.18209565,-0.060973547,-0.15835194,0.25959814,0.16649051,0.19813599,0.013787148,0.36872748},{0.059026137,-0.00037513976,0.16063458,0.3266573,0.005245545,-0.25342637,0.21934523,-0.059874076,0.12991568,-0.2489149,-0.08904307,0.15599942,-0.52425325,-0.1292956,-0.08064408,0.14506337,-0.2047566,-0.45513338,-0.558233,-0.08307445,0.40691772,-0.3647475,0.07859009,-0.16721873,0.0020890876,-0.35348055,-0.094138764,-0.16556656,-0.09303313,0.12114587,-0.021849224,-0.5157505,0.16742687,-0.18247366,0.23095028,-0.36272097,0.23502827,0.16208689,-0.27647159,-0.20387617,0.22028667,0.19857775,-0.33217868,-0.14980133,0.21425958,-0.030201307,0.3637841,-0.12639588,-0.14841722,0.049815584,0.34774238,0.19146919,0.26033443,-0.026782298,0.10391388,0.28974935,0.18608633,0.3515359,0.04971925,-0.12695718,0.32582572,-0.26715532,-0.057215683,-0.0025513412},{0.09422758,0.30251366,-0.31982833,0.030943412,-0.35662955,0.15645926,0.085731134,0.052736826,-0.16263586,-0.17315294,-0.15998273,-0.38068134,-0.205779,-0.1286935,-0.10338334,-0.015406202,-0.010314648,0.056744132,-0.40580407,-0.022999626,-0.28459093,0.1434697,0.11563859,0.427843,0.5253253,-0.14630324,-0.07436529,0.24715063,-0.10523995,-0.22683188,0.31902283,0.37857687,0.30079934,-0.18368876,0.061546724,-0.100443065,-0.012183992,0.2202566,-0.15417641,0.26345417,-0.06358032,-0.08296162,-0.09007363,0.0013502402,-0.068626024,0.017853009,0.27415407,-0.13857222,0.33915728,-0.08560508,0.18962733,0.052228395,0.16774093,-0.037700217,0.053267516,0.197613,0.12533265,0.35731032,0.050551612,0.31628177,-0.26044798,-0.36550802,0.1174731,0.17221354},{-0.1449758,0.1654464,0.08705807,-0.29488608,-0.030589411,0.30969977,-0.38949338,-0.29830572,0.107741386,0.1831407,0.30692342,0.27162743,0.1722986,0.1767985,-0.019174393,-0.06345393,0.1270702,-0.018517865,0.14782315,0.095867746,-0.19343673,0.2479241,0.23834823,-0.18063231,0.1846561,0.059250556,0.092093825,-0.09545778,-0.16823216,0.13176905,-0.27206516,0.11957776,0.10598009,-0.019861903,-0.09331915,-0.037845064,-0.036668055,-0.014611748,0.07117138,-0.0748955,0.26199573,0.42889112,-0.26022086,0.10493768,0.106241696,-0.21240415,-0.15645464,-0.1924863,-0.45728475,0.030342713,-0.021866858,0.14813438,0.109269515,0.19349968,0.17345451,0.030307233,-0.030433236,0.15308483,0.062280998,-0.017174823,0.12993705,0.03020245,0.1484667,0.092757106},{0.10390307,-0.106493644,0.007989985,-0.0076325834,0.20497568,-0.009609633,-0.13978656,-0.26030034,0.022848705,0.20190455,-0.12516509,-0.038202383,0.30961645,0.08399186,-0.03253226,0.03364978,-0.04100271,-0.11654123,0.22665575,-0.057896446,-0.1849715,0.012749659,-0.103057034,-0.05921072,-0.39771238,-0.06453176,-0.052615155,0.04627741,-0.026108857,0.05272238,0.036342036,-0.13297205,0.07810262,-0.037644736,0.1510284,-0.2019373,-0.18572791,-0.3053392,0.1701632,0.2110387,0.26505846,-0.007906693,-0.1917751,-0.08209242,0.064313434,-0.025796749,-0.11765988,-0.09199832,0.2576716,-0.1441287,-0.11282815,0.022187078,0.04054677,0.17051321,-0.0687102,-0.10664098,0.006732783,-0.17664503,-0.2504793,-0.12723765,0.14945138,0.05820161,-0.15175462,-0.14883924},{-0.23613486,-0.20941548,0.17028885,-0.26240173,-0.06478561,0.14436612,-0.07464978,-0.1877633,0.1689747,-0.13604665,-0.13046414,-0.0034880545,-0.0007106224,0.45857027,-0.19274677,-0.23427746,0.115228735,0.29081687,0.2601047,0.040756006,0.110354155,0.20422806,-0.026970835,-0.0075136153,0.006646263,0.052083522,-0.068000615,-0.013336035,-0.010056406,-0.30086356,-0.016981706,-0.18700187,0.059377637,0.06429676,-0.0019899157,-0.018683808,0.1383312,0.15115562,0.016925655,0.046178665,0.26598975,-0.2132235,0.10449805,0.15003948,0.27387315,-0.18494868,0.0381023,0.09290408,-0.19399185,-0.11791142,0.18194044,0.0022714306,-0.18436278,-0.062015217,-0.22118552,0.0199691,0.26128903,-0.015331071,-0.58415174,0.018328216,0.13918671,0.001043655,0.24162684,0.0017549015},{-0.32449576,0.06853105,0.19805855,-0.24423233,-0.20765233,0.06315948,0.1493756,-0.049675833,-0.033479527,-0.17222002,0.33618265,-0.02504326,0.086455725,0.46541122,0.14539972,-0.0063206637,-0.14326434,-0.35171238,0.22393087,-0.25500908,0.30565727,0.096136704,-0.14058,-0.20468076,-0.124518715,-0.25934258,-0.20635033,0.15591888,0.108407296,-0.25707975,-0.23231556,0.0027791366,-0.22787559,0.06663039,-0.27062595,-0.023639131,-0.011237008,0.25611034,0.04549051,-0.5551385,0.014571275,-0.060180195,-0.17140737,-0.107949056,-0.026062153,0.13102172,-0.09736872,-0.12876341,0.014175397,0.18411009,0.25983045,-0.1163835,-0.24288277,-0.32013932,-0.1989331,-0.18414466,-0.097896844,-0.20096497,-0.14508495,-0.029450169,-0.0816615,0.13580056,-0.22240213,-0.0038477264},{-0.035544112,-0.03298568,0.0734708,0.018484876,0.13721783,0.003170641,0.41569674,0.06608692,-0.15959494,0.12695953,0.014217482,-0.04748464,-0.27393374,-0.22268485,-0.050246753,-0.23581348,0.2504648,0.05606022,0.103035904,0.09918305,-0.20663933,0.13028747,0.05046109,0.32972848,0.2618456,0.2291486,0.40238202,-0.30928704,0.13998161,0.30508298,-0.28691554,-0.12082798,0.13310046,-0.24772613,0.22575799,0.09572305,0.22774342,-0.26615304,0.14838937,0.1411292,-0.13376185,0.06323398,-0.029550113,-0.1316379,-0.48756802,0.1198133,0.10269686,-0.010819562,0.07495974,-0.102507055,0.060204744,0.0034967908,0.16124365,0.13449086,0.26913625,-0.09335286,0.14272076,-0.15166408,0.11379353,0.048315782,0.11343962,0.09846635,0.18037356,0.06919811},{-0.2056848,-0.16281433,-0.24869783,-0.1056855,0.03864419,-0.013774535,0.13928564,0.28038198,-0.24149247,-0.1346091,0.021979235,-0.04737356,0.1507543,0.18544637,0.21244496,0.20052731,0.277381,-0.039128255,-0.13259868,-0.5709901,-0.06049843,-0.3986194,0.013311211,0.08127934,-0.24745175,0.23295869,0.28798836,-0.35708484,-0.0060118767,0.31029728,0.21061923,-0.37250683,-0.3079052,0.08544813,-0.015498835,-0.049752373,-0.52844036,-0.05669445,-0.34141305,0.20503831,-0.026151348,0.20404124,-0.1639484,-0.04442668,-0.09755402,0.16327694,-0.20226224,-0.28511566,-0.13894452,0.14446391,-0.24673706,0.1353673,0.22034346,0.07994604,0.20393357,0.07164783,-0.24935897,-0.2128816,0.02112885,-0.34015012,-0.1379326,0.3235417,-0.12717636,-0.5392431},{-0.16233185,0.07394627,0.09097294,-0.32567066,0.0060276226,0.102736056,-0.13395196,0.047360003,-0.033351116,0.05489877,0.27545956,-0.17041275,0.07806939,0.5354973,-0.111014344,-0.32112935,-0.06992948,0.105159454,-0.13690992,0.093370736,0.2064986,-0.032418214,-0.070136815,-0.48491183,-0.13469745,-0.0484534,0.079595424,0.25716847,-0.017811488,-0.54906446,0.11300976,-0.15640233,-0.11066891,0.053078596,-0.048808564,0.0951479,0.0111717675,0.25397047,0.12803341,-0.11923297,0.021572102,-0.24807599,-0.13190122,-0.066962756,-0.14717063,0.11197362,0.0059033935,0.13353989,-0.06750165,-0.17662224,0.24226326,-0.13118032,-0.14122772,-0.092144385,-0.1839138,-0.20533675,-0.04446671,0.17395158,-0.09014408,-0.18913177,0.13594316,0.1753986,0.020266837,0.37185428},{-0.09818105,-0.025177479,0.098737605,-0.04207171,-0.18661463,0.019359743,0.047211763,0.36201558,-0.15760231,0.14921422,-0.07079917,0.17005081,0.20877971,-0.011991046,-0.1141262,-0.011530961,0.19794807,-0.18214653,0.1440709,-0.3889897,-0.20312797,0.07050334,0.36157668,0.26697108,-0.10913954,-0.33892936,0.020493697,0.15077543,-0.16794208,-0.06506422,-0.07124476,-0.17770538,-0.11240278,0.015854567,0.0081096655,-0.10251331,-0.3003405,-0.20607196,0.12895492,-0.08930266,-0.0707058,0.024337307,0.06828343,0.25188068,-0.14799224,0.19631161,-0.011037342,-0.090240635,-0.35077867,-0.06653249,-0.1910877,0.003221876,0.00055964483,0.12250821,0.052506495,0.068471655,-0.1547761,0.1877048,-0.3233455,0.10653475,0.103999846,-0.22278543,0.036858395,-0.06888816},{0.12485163,0.29811773,0.19308515,-0.11827904,0.07635552,0.0024647485,0.101259306,-0.1735697,-0.067989565,-0.25777203,-0.29297426,0.13962027,0.30172634,-0.11514439,0.1309255,0.05825546,0.15412699,0.15162581,0.14960432,-0.035991993,-0.21046357,-0.03556857,0.055718336,-0.0727572,0.007454195,0.09747213,-0.08926703,-0.02067654,-0.08731043,-0.10324986,-0.09396829,-0.10774722,-0.30526164,0.12345161,0.10822713,0.027320623,0.04188604,-0.048357856,-0.2907231,-0.029187614,0.1314663,-0.26794583,-0.32906634,0.08349192,-0.6376553,0.0106413,-0.37382573,0.16464856,-0.22714525,0.099355005,-0.22140409,-0.11393181,0.18640403,0.12673084,-0.022200456,-0.091917664,-0.16408938,-0.021043908,-0.096679926,-0.2400103,-0.26337767,0.23946965,-0.22660643,0.22418982},{-0.027317438,-0.13977979,-0.11174001,0.22256213,0.094768785,0.3059401,-0.35755506,0.04034541,0.19158094,0.23330416,-0.26277506,-0.09596314,0.07104324,-0.028458718,-0.16409041,0.0956649,0.12813535,-0.11774456,0.18559656,0.23982151,0.02613346,-0.04013972,0.15781842,0.13188113,-0.12589407,-0.038934357,-0.23104355,0.053502064,0.20115405,0.19894947,0.11246984,-0.11524848,0.1775076,-0.1693992,-0.23130661,-0.14181581,0.2833844,-0.105043076,0.1327879,-0.0874309,-0.04492883,0.06357654,0.12955973,-0.18102866,0.4720231,0.10794341,0.18371788,0.042184576,-1.3220722e-05,-0.07579792,-0.16160831,0.10359849,-0.117239185,-0.1928894,-0.23912677,0.050697137,0.37011713,-0.105580755,-0.012246701,-0.10612001,0.38794798,0.018566163,0.043939795,0.080517784},{0.24526584,-0.020200426,-0.1396239,-0.11966103,0.18207698,-0.29421264,-0.33872133,0.109417096,-0.1518441,0.1539945,0.0659656,-0.54706436,0.075442925,-0.07304138,0.17793787,-0.066414334,-0.006748304,0.65429175,-0.24491346,-0.02728007,0.08736363,-0.12251722,0.06008023,-0.12610377,0.2090457,-0.20313464,0.58839244,0.011045403,0.053582795,0.07430393,0.07822969,-0.028890977,-0.40475422,0.117386736,-0.06426073,0.04810055,0.1506809,-0.10801162,-0.037067726,-0.0526933,-0.32234222,-0.24192059,-0.3162122,0.42391175,-0.050546557,-0.13916864,-0.14157581,0.22143967,0.21513058,-0.1964446,0.08377884,-0.11638523,-0.1855178,-0.35540587,-0.3559037,0.22705242,0.18912987,-0.21257497,0.2398997,-0.11214734,-0.30279762,0.13230605,0.72823614,0.08119436},{0.016242571,-0.20207208,-0.14102799,0.044055536,-0.083724596,0.02811034,-0.25016162,0.018532172,0.069492325,0.16612846,-0.27421284,0.043747976,0.32988772,-0.07269864,0.09669906,0.33691323,0.10078613,-0.008299435,-0.06852942,-0.0725391,0.02937791,0.021365661,-0.031475708,0.008327488,-0.1892538,0.2417629,0.10972716,0.004530364,-0.015834657,0.3314255,-0.045005772,0.2891768,-0.14167891,0.1976013,0.20574191,-0.28792194,-0.08372293,-0.020507436,-0.37394008,0.0735479,0.15270513,-0.026919223,0.12639801,-0.026643926,-0.250939,0.20550734,0.22318636,-0.097010456,-0.36193013,-0.14571108,-0.015825715,0.02466154,0.40924788,0.03067698,0.114358775,-0.2949721,-0.13853112,-0.21800157,0.063679,0.06177186,-0.23165913,0.04879314,-0.14874138,-0.30022788}};
static const float layer_2_weight[64][4] = {{0.10040447,-0.08225765,-0.028790308,-0.03644888},{0.081702895,0.16728841,-0.07370139,0.001511096},{0.13223596,0.21836248,0.13511015,0.027122581},{0.20093869,0.07638473,0.15136606,-0.00040869025},{0.016768327,-0.061290797,0.015561905,-0.04367301},{-0.11988611,0.19185252,0.12064036,-0.022127831},{0.0030554833,-0.038292445,-0.011674974,0.052616417},{-0.23869693,-0.19881733,-0.28183305,0.1966627},{-9.736312e-05,0.16196828,0.10751679,-0.18733692},{-0.040174708,0.14153263,-0.16485777,0.0011396628},{0.11923237,-0.38685903,-0.06197017,-0.14225727},{-0.16496077,-0.05672495,0.1990693,0.050701182},{0.01977842,-0.0877154,0.015533869,-0.112298824},{0.0017457537,0.20503442,-0.03752094,0.110522255},{-0.019432679,-0.03797318,-0.017549029,-0.04496457},{-0.0592034,-0.21871412,0.20862834,-0.17156488},{0.1963073,-0.28983283,0.12979257,-0.21446966},{0.2367725,0.16329373,-0.2332291,-0.0174195},{0.18633986,-0.04465233,-0.0696713,-0.21351519},{-0.048715815,-0.1586563,0.13615741,-0.04013143},{-0.21546349,-0.13356301,-0.16603625,0.13465205},{-0.10592097,0.018079743,-0.18495943,-0.15496013},{0.03000867,-0.067222334,0.064035155,0.04585471},{-0.0045800735,-0.024248878,0.271701,-0.09097891},{-0.14758684,0.117834106,0.08362595,0.0009848338},{0.0025983017,-0.045629825,-0.008649193,0.033168778},{0.063306786,0.004625717,-0.23204567,0.24374273},{-0.10388739,0.14724132,-0.1357905,-0.0002742119},{-0.0060417345,-0.0012909108,0.0038949596,-0.005959191},{0.30712017,-0.1036527,-0.001692792,0.2265759},{0.21553339,0.20037308,-0.10316515,-0.19683361},{-0.12111898,0.20651624,-0.03457609,-0.2586695},{0.24671659,0.18228166,0.05438235,0.2271837},{-0.07656124,-0.08306788,0.22024179,-0.102121025},{0.09694528,0.06688108,-0.003999627,-0.051240694},{-0.018355539,-0.07761244,0.037226047,0.07387598},{-0.16223039,0.10178872,-0.2365243,0.090972885},{0.08787464,0.16991104,0.09913985,0.0032772631},{0.038520545,0.12632886,-0.30736426,-0.10050635},{0.17374383,-0.09814056,0.012530744,-0.0885514},{-0.07304615,0.2615148,0.014697874,-0.13067573},{0.0067811306,-0.08639821,0.12142934,0.09063601},{0.022257531,-0.053510126,0.109360695,-0.07097542},{-0.18371293,0.15518388,-0.28496692,-0.0050916523},{-0.034185983,0.018138578,-0.060054958,-0.072229214},{0.00885394,-0.01918671,-0.0065975427,-0.013000371},{-0.041196924,0.0807996,-0.057169165,-0.05863823},{0.005503254,-0.018956078,-0.014039352,0.009003645},{0.10241136,-0.28256735,-0.07543595,-0.22786573},{-0.009483129,0.040124636,0.1223651,0.006543263},{0.022507384,0.19598398,-0.21458612,0.09526432},{0.007998088,-0.015796252,-0.0027607079,-0.0055920924},{-0.11205127,-0.018192243,0.024232885,0.13861872},{0.030897623,0.32651427,0.17443512,0.17949408},{0.11085926,0.04568644,0.057248257,-0.008159616},{-0.20387693,0.14255859,0.08422022,0.075944245},{0.070523754,0.0037737456,-0.101335324,0.19697993},{-0.08587549,0.10517252,-0.0023725627,0.06543685},{-0.059646986,-0.38926384,-0.24315895,0.18671216},{-0.04750364,0.10249603,-0.1531982,-0.14276029},{-0.02638902,-0.06343768,-0.18158616,0.123042405},{0.20505877,-0.2596573,-0.14261153,-0.0007935185},{0.061056662,-0.12077124,-0.14730285,0.10218235},{0.018460998,0.08371662,0.08732688,0.08231875}};
static const float layer_0_bias[64] = {-0.123996854,-0.061492,0.2823862,0.21425247,-0.065107025,0.09279042,-0.17097063,-0.24683678,-0.14680743,-0.053675823,0.06858044,-0.14891219,0.23317534,-0.23238355,-0.36025748,0.024937993,0.14046067,-0.3304217,-0.27084014,0.028594898,-0.10452069,-0.17247367,0.26889908,-0.12626788,-0.1481778,-0.16848621,-0.24731356,0.067169465,0.29755503,0.31195536,-0.08808089,0.06201998,0.13907048,-0.015355481,0.23293775,-0.019005451,-0.107678816,0.20376347,-0.44091704,0.1349185,0.39631966,-0.26184478,-0.14439061,0.0857298,0.05486087,0.06633314,0.0197877,-0.008068149,-0.038104806,-0.026464408,-0.05415331,-0.026647171,0.03937287,-0.06910093,0.5041671,-0.040052496,-0.15732493,-0.18725963,0.14406475,0.14305781,0.17199719,-0.065967925,-0.24095736,0.11321541};
static const float layer_1_bias[64] = {-0.058372367,-0.055184532,0.0009940083,-0.10322717,-0.101078756,0.062079858,0.030740868,0.15967362,0.03784356,-0.064283244,0.056522585,-0.030179951,-0.0012268368,0.31468436,-0.055429794,-0.05714522,0.07233524,0.025867907,-0.07371771,0.056164358,0.07377903,0.064299926,-0.0022611858,-0.10984679,0.048446372,-0.047279894,-0.047607444,0.1890371,-0.06545797,-0.38487428,-0.29418936,-0.0077446625,-0.029808166,0.08613778,-0.01273568,-0.012132024,-0.14202024,0.024709646,0.017478803,-0.1549286,0.084072046,-0.055570442,-0.06496387,0.004552732,0.06908451,0.063662656,0.05586306,-0.010581691,-0.26747406,-0.05086011,0.07631392,-0.00944526,0.022229472,0.0037365747,-0.06311538,0.003569085,0.03652707,0.065133475,-0.16249703,-0.027782744,0.02679274,-0.10783753,0.07592117,0.13145643};
static const float layer_2_bias[4] = {-0.06787932,0.06266748,-0.033004012,0.012935664};

void networkEvaluate(struct control_t_n *control_n, const _Float64 *state_array) {
	
		for (int i = 0; i < structure[0][1]; i++) {
			output_0[i] = 0;
			for (int j = 0; j < structure[0][0]; j++) {
				output_0[i] += state_array[j] * layer_0_weight[j][i];
			}
			output_0[i] += layer_0_bias[i];
			output_0[i] = tanhf(output_0[i]);
		}
	
		for (int i = 0; i < structure[1][1]; i++) {
			output_1[i] = 0;
			for (int j = 0; j < structure[1][0]; j++) {
				output_1[i] += output_0[j] * layer_1_weight[j][i];
			}
			output_1[i] += layer_1_bias[i];
			output_1[i] = tanhf(output_1[i]);
		}
		
		for (int i = 0; i < structure[2][1]; i++) {
			output_2[i] = 0;
			for (int j = 0; j < structure[2][0]; j++) {
				output_2[i] += output_1[j] * layer_2_weight[j][i];
			}
			output_2[i] += layer_2_bias[i];
		}
		// clock_t t = clock();
		// cout << CLOCKS_PER_SEC <<endl;
		// cout << t << endl;
		control_n->thrust_0 = output_2[0];
		control_n->thrust_1 = output_2[1];
		control_n->thrust_2 = output_2[2];
		control_n->thrust_3 = output_2[3];	
	
	}