
#include "network_evaluate.h"



float linear(float num) {
	return num;
}



float sigmoid(float num) {
	return 1 / (1 + exp(-num));
}



float relu(float num) {
	if (num > 0) {
		return num;
	} else {
		return 0;
	}
}

static const int structure[3][2] = {{18, 64},{64, 64},{64, 4}};
static float output_0[64];
static float output_1[64];
static float output_2[4];
static const float layer_0_weight[18][64] = {{-0.12024209,0.023742834,0.07462303,-0.3536853,0.13058777,0.13843444,-0.44442275,0.34614146,0.17738326,0.07650657,0.010459783,0.2086968,0.019113239,0.045400083,0.019880686,0.1379023,-0.11713307,0.041275702,0.114144824,0.027125273,0.22075525,-0.031044755,0.3291149,-0.071276985,0.13968332,0.07680688,0.05011839,-0.032906648,0.16679531,0.18129043,-0.065296754,-0.006826017,-0.37978342,0.20758739,-0.23589627,0.20677581,-0.12577014,0.18247901,-0.007624859,-0.24070571,0.30283675,0.07132099,-0.049558513,-0.07307496,-0.052320965,0.21924093,-0.13194865,0.13345264,-0.37321132,-0.15392683,-0.027857134,0.12843522,0.16182266,-0.4242243,-0.23522095,0.24127892,0.041279804,0.20948419,-0.23962076,-0.14825219,0.11488059,0.25051564,0.15450536,-0.4299052},{0.14605495,0.25135383,-0.058951147,-0.38972783,-0.2558244,0.4066359,-0.29981393,-0.05042052,0.14866237,0.026359022,-0.12642139,0.35703608,-0.03568895,-0.06655209,-0.019013423,0.06597018,0.17090696,-0.05383833,-0.07805333,0.043883495,0.40322444,0.053840745,0.07864818,0.6358917,0.1697403,0.0875143,0.16065511,-0.015441811,-0.23633547,-0.11039063,0.20004211,-0.1957363,-0.06652658,0.06820205,0.22527643,0.4980599,0.17984025,-0.15622614,0.15653333,0.037562124,-0.22130775,0.19451204,-0.14261279,0.054904707,0.09015147,0.14948532,0.39320892,-0.08912668,-0.17465594,-0.34619853,0.17398374,-0.08050552,-0.33167174,-0.077289075,-0.23171705,0.49491084,0.05752932,0.21816827,0.27749997,0.13027193,-0.10741213,0.36550316,0.06934944,0.114441},{0.055265006,-0.19693522,-0.18561894,-0.05045092,-0.09478096,-0.061314784,0.20013405,-0.4345248,1.2497995,0.03140749,0.0058492445,-0.3202349,-0.043713186,0.20279053,-0.244297,-0.3045696,0.15283497,0.15659167,-0.39751402,-0.26261088,-0.15654513,0.14688861,0.014231358,0.44531837,1.1444308,0.37205485,-0.038329117,0.2858013,0.059432667,-0.16454674,-0.37643018,-0.041399088,-0.0063898787,-0.29813007,0.12454627,0.089870974,0.21734099,-0.018011054,-0.15950033,-0.044808146,0.21754304,-0.1888861,1.0349044,-0.7161763,-0.1718742,0.105102845,0.21894501,-0.77077764,-0.2989673,0.628312,-0.22931969,1.0214934,0.011141965,-0.22970092,0.118457854,-0.31984773,-0.25125375,0.15908822,-0.10954374,0.095967546,-0.18038344,0.12127139,-0.0061281202,-0.033089124},{-0.19236253,0.050684754,0.23968962,-0.23608874,0.5261445,0.24129228,-0.3606726,0.09341643,0.37536246,0.004058376,0.10574982,-0.13103409,-0.24703866,0.06778391,-0.03332529,-0.19712003,0.44500315,0.24380702,-0.513354,-0.22781688,0.017518675,0.061176017,0.3639193,-0.22336926,-0.0051709493,-0.68951553,-0.096649885,-0.072560534,-0.011675015,-0.048751082,-0.5866843,-0.27497295,-0.5698913,-0.47474402,-0.28544214,0.049859025,-0.3265995,0.42930973,0.20337772,0.021889357,0.25503778,-0.06495773,-0.22078195,0.1852935,0.015217996,0.3530976,-0.02013345,-0.06324098,-0.29460418,-0.10776094,-0.09611274,-0.009878009,0.2395545,0.060351588,-0.03811358,0.27313638,-0.05178588,0.019613896,-0.27225918,-0.091107234,-0.038329918,-0.2446024,0.32206687,-0.29253596},{-0.39733663,0.32741642,-0.23216309,-0.35093045,0.18081696,-0.10267975,-0.18060435,0.08077027,-0.22825757,-0.078325324,0.16913505,-0.011080994,0.0034390783,0.10453608,0.15053658,-0.10804248,-0.033379715,0.054839477,0.046996452,0.549219,-0.022026116,-0.10317569,0.25383198,0.38584414,0.23053284,0.22411716,0.45748976,-0.006278253,0.07686538,-0.020873485,0.07467068,0.13294992,-0.018394165,-0.44095448,-0.33508804,0.43879268,-0.34134173,0.2720001,0.15052642,0.01942457,-0.16454217,0.08034192,0.5370762,0.1048747,0.5758191,-0.10471136,0.5870362,-0.027728,-0.32832065,-0.4693378,0.15628703,0.07060353,-0.22843246,0.10089921,-0.36751515,0.21061695,0.17685892,-0.23456964,0.32390985,-0.04224897,-0.12303263,0.4881429,0.2044865,0.30863053},{0.15272832,-0.15267688,-0.14050238,-0.017296595,0.15217431,-0.09708552,0.1357672,0.13951892,0.65989286,-0.13500898,-0.07128963,0.012934132,0.10204385,0.25568163,0.10432596,-0.027501145,-0.058335174,-0.09070067,-0.20105012,-0.008796492,-0.27875835,-0.0028295515,0.13031304,-0.33803248,0.4765008,-0.24715292,-0.23821758,-0.021284614,0.0005000757,-0.087424,-0.24572259,0.059041113,-0.014992162,0.1967041,0.21874988,0.03890882,0.12868023,0.14174433,0.114445135,0.082864895,-0.37861887,0.012297451,0.53380126,-1.489051,0.23498207,-0.13716899,0.26863486,-0.4500008,0.2686232,0.13298357,0.21374457,0.5780343,0.22602494,-0.052621774,-0.091054775,-0.672408,0.19880709,-0.026848411,0.11960915,-0.054875016,0.15391801,-0.015300241,-0.24986158,0.08862698},{0.35183877,0.40461397,-0.04953536,0.08906231,-0.23802619,0.0788251,0.06261362,0.38935804,-0.24276964,-0.25392818,-0.5544136,0.37781182,0.40258104,-0.20656392,0.74232996,-0.22729722,-0.29599148,-0.14045826,-0.013826867,-0.38316703,0.8735782,0.08146857,-0.13155048,-0.7362925,-0.23469554,0.2035812,0.03626507,-0.12778288,0.57238007,-0.2852417,0.49828026,-0.30234456,0.013482268,-0.6756887,-0.7934918,0.111125,0.25448698,-0.40452152,0.3218154,-0.31619617,-0.29468176,-0.3150463,-1.2470323,0.047951728,-0.05224343,0.21133187,0.42401204,-0.4072946,0.2493331,-0.17680298,-0.5998786,-0.117157735,-1.2500721,-0.68513316,0.30975387,-0.02348743,-0.31756508,0.3133026,-0.012579795,-0.17572871,0.20590897,-0.22280188,0.8464298,0.18633093},{-0.553643,0.44298214,0.15001361,-0.46487552,1.1071709,-1.3313751,0.016498629,-0.9865124,0.007946782,0.8930425,0.4372061,0.33621234,-0.19823825,-0.20944342,0.19073857,0.84486276,0.051759515,-0.6513387,0.9304868,-0.88615286,1.6227258,0.19643095,-0.65778476,0.044115204,-0.30479947,-0.7281333,0.65554607,-0.013065546,0.07597433,1.0615855,-0.25834483,0.5414606,-0.6983852,0.38560477,0.58322006,0.085026786,0.950488,0.6249645,0.5921534,-0.09404641,1.1456981,-0.2690664,-0.7227926,0.3658333,-0.35447323,-0.59322244,0.44094107,-0.29121983,-0.18636958,-0.28662625,-0.03896226,0.3521162,0.24560279,-0.98300105,-0.8604972,-0.086304925,-0.31098792,0.49368927,0.15771979,0.45679298,1.140891,-0.11855213,-0.3826157,-0.084207915},{0.17061268,0.54164404,0.111800365,-1.3772681,-0.36233097,-1.025407,1.9096193,-0.49405357,-0.16513065,0.051117387,0.8767485,-0.22282572,-1.8133688,-1.6131214,0.0928378,-0.16168088,0.75864357,1.1909565,-0.029824598,-0.38935715,-0.11833476,0.13809158,1.3516756,-0.22601727,-0.3397261,0.39267436,0.76140124,0.3220788,-0.6640553,-0.90473515,-1.2163974,-1.4840059,-1.4939133,-1.0596519,-0.6680988,-0.029343672,-0.14868064,-0.046068244,1.8958116,-0.1370872,0.754487,-0.89472437,0.27687752,-0.5674125,1.4347188,-0.20376113,0.062415525,0.39917645,1.5779642,0.18891686,-0.4241499,-1.6454345,-0.7404179,1.0389075,-0.4994356,-0.34287813,0.33156443,-0.43700507,-0.8496621,0.24437764,0.2725601,0.17687935,-0.10482034,-1.7529614},{0.5871783,-0.8519452,-0.14373186,1.0204988,0.4056292,0.16226073,-0.07541489,0.47715178,0.6257019,0.006580615,-0.055774365,-0.1644996,0.09854816,0.6807866,-0.6065949,0.069311604,0.21805584,0.55423576,-0.8548246,1.1918893,-0.42536747,0.41789457,0.9692592,0.2679191,0.38934332,0.15593688,-0.6123965,0.31833157,0.11250136,0.2942227,0.27033985,-0.067888424,0.5550324,0.2807721,-0.6573091,-0.52077836,-1.3454298,-0.6969872,0.24817826,1.1455103,0.032192215,-0.20561469,0.31681922,0.33887073,-0.047189347,0.6026256,-0.14062299,-0.07747389,-0.16705644,0.14352661,-1.1780232,0.7659781,-0.8843809,0.9876377,0.5254294,-0.5117317,0.2521166,0.8967109,-0.7060522,-0.26809824,0.20032907,0.38610741,0.34436446,-0.09008723},{0.15428509,-0.14114192,-0.2250131,-0.22184084,0.078296654,-0.22334057,-0.26271263,0.10725979,-0.31636485,-0.26311836,0.0012292623,-0.4788035,0.3999895,0.47767022,0.69176924,-1.1310142,-0.32861137,-0.036801722,-0.23337848,0.16698106,0.6817997,-0.543265,0.42640063,-0.67523706,0.1361184,-0.38964957,-0.47644404,-0.70245415,0.058458816,-0.76259714,-0.41138536,-0.14993376,-0.24414244,-0.59306854,0.0064275144,0.4826315,0.12435938,-0.5663922,0.24956577,0.0035270452,0.37513533,-0.42725286,-0.86772555,0.00058268214,0.35705444,0.12139349,0.11221182,0.115597814,0.27144137,0.22916903,0.4798188,0.40355906,-0.2531425,-0.79144716,-0.6143993,0.16878448,-0.3291385,0.0443758,-0.31368566,-0.037748497,-0.4493141,-0.28960088,0.55089194,-0.16212654},{-0.68723494,0.7036833,-0.07477733,-0.64083767,0.027112331,0.011455259,0.44464532,0.35602856,-0.9443641,-0.021328658,-0.8121551,-1.0805533,0.46451083,0.070002675,0.8616957,0.027616752,0.41503268,0.09540472,1.1465267,0.5749493,0.9359759,0.30669412,0.38361767,-0.5535061,1.318253,1.1895725,0.19139542,0.5845531,-0.10503663,1.1347126,1.3898823,0.8020515,0.22537921,0.04402717,0.7355464,-1.3319228,-0.35882702,-0.033227738,-0.7021868,-1.5872833,0.35791597,-0.59722656,-0.199129,-0.2275682,-0.61682266,0.6015507,0.03350802,0.21199714,-0.8756781,-0.9814788,0.6694982,-0.18336162,-1.0282296,0.2453046,-1.2207445,0.20111623,2.4856653,-0.47697428,0.6883736,0.77226883,-1.5682232,2.274887,-0.39309207,-0.34688774},{-1.2389513,0.2830672,0.9998517,0.952316,0.92844933,0.57483566,0.01025129,-0.5468518,1.1365949,-0.100516036,-0.74076134,1.3498578,2.0735865,1.0360323,1.0586535,0.21565686,-0.77236396,-1.9471904,-0.14644435,0.42265642,0.9792912,-0.10349515,-0.9743032,0.6604037,0.8572933,0.9830835,-0.5476311,-0.3347226,0.66028345,-0.048960652,0.75470287,0.6089123,1.8989911,0.17555934,0.49884158,0.664291,-0.21402116,0.77744037,-0.35724273,-0.3013819,-0.7202839,0.7543815,-0.33436388,1.0318371,0.25954401,-0.32311293,0.5347743,-0.50034803,-0.41598234,0.12021399,1.3482789,2.0444674,-0.6897785,-0.582166,-0.3418867,0.6968382,-0.5659145,0.6330169,0.78686386,1.0924863,-0.3824657,0.0522805,0.61592007,1.4065},{0.9445466,-0.056568637,0.52286637,1.0632216,0.3247259,-0.13060184,-0.48400253,-0.57759625,-0.78784597,-0.041995715,1.0599749,1.0067956,-0.47517112,-0.49793136,0.3887031,-0.44978583,-1.9516838,-0.5959028,-0.3780768,-0.35869518,1.0494528,-0.5213607,-0.7262076,0.679085,0.1853076,0.43458772,0.57702696,-0.22013989,0.8880227,-0.9313849,0.031012157,0.32453778,-0.7498378,1.2101179,-0.62429476,0.4436166,0.52898127,-0.48634103,-1.290139,1.5644406,-0.016138699,1.4734288,0.9553899,-0.48040533,1.0774859,-1.3541492,-0.89399815,-1.2579933,0.6230678,0.9135154,0.6575991,0.64358574,-0.2935081,-0.5332369,1.7917546,-0.41661435,-0.7300365,1.656103,-0.62444085,-1.15332,1.5719311,-0.92250973,0.7326418,0.38141274},{0.06269526,0.2113408,0.060034163,0.19546379,-0.109501794,0.1390013,-0.067631535,0.4453761,0.31050336,-0.11297286,0.26983416,-0.5378446,0.31371468,0.3186969,1.5173012,-1.0520574,-0.31198597,0.37657344,-0.27546632,-0.15127778,0.8623846,0.11611757,-0.120154634,-0.103627995,-0.27484,-0.005977134,0.18949403,-0.53161716,-0.06800621,-0.5095516,-0.29470438,-0.5752445,0.47083586,-0.104150504,-0.29922593,-0.44539,0.2513441,-0.4780623,0.0047727968,0.2578898,0.007232184,-0.69789463,-0.08957092,0.17840984,0.22056067,-0.2026455,0.0044433554,-0.14090732,-0.0030126036,-0.0020628697,0.31440577,-0.06357415,0.18296066,-0.796125,0.18678959,0.6971089,-1.2242981,-0.1680252,0.1090714,0.5454373,0.025011364,0.31785628,0.14823203,0.08498936},{0.60707307,0.6776088,1.2097464,0.3889031,-0.06913397,-0.22349118,-0.07932881,-0.2604103,0.59933794,0.26655853,-0.2576394,0.15750101,-0.12706725,-0.2507889,0.48183352,0.008818613,0.3884179,-0.23374075,-1.1147531,1.0525647,-0.45338508,0.41598052,0.2873423,-0.44103432,1.2206969,-0.1825032,0.06218158,0.28864375,-0.00679134,-0.18695466,1.1714453,0.26560986,-0.27803227,1.0173134,1.0157726,-1.2477276,0.7256358,-0.36883086,-1.1100774,0.5527403,-0.004197202,-0.15089762,0.46433085,0.30957198,1.4891346,-0.7104493,-0.73516536,0.13317095,-0.14774641,-1.0176147,-0.30052912,-1.007267,-0.6724321,-0.024195686,0.69259393,-0.24199137,0.33976465,-0.350819,-0.8614178,0.14578654,0.37082067,0.0909301,0.3120414,-0.07709458},{0.5025892,0.7317128,1.0832,-0.4432355,-0.3051866,-0.2521305,0.37831667,-0.23483406,-0.42438543,0.50148976,-0.15007617,-0.2663203,-1.0158548,1.0681516,-0.8955489,0.013406048,1.1580256,0.7882415,0.7700672,-0.19793917,-0.5711402,0.4437607,-0.66369694,-1.2974942,0.3995124,-0.5777527,1.4511744,-1.0808537,1.003233,-0.13576472,1.018123,-0.9259863,-0.97512805,-0.22335142,0.021837186,0.55871564,0.17285472,-0.37698233,0.14400762,-0.000849673,0.9673259,0.020593699,0.13149127,0.17982493,0.5506803,0.18533953,0.07092406,0.64378595,-0.81444633,-0.21175002,-0.26846957,0.9867733,0.1666357,-0.2632113,0.096711315,0.33125257,0.14873168,0.30729097,-0.20110647,0.2806116,0.17616288,-0.2899776,-0.602147,-0.6490098},{0.99672186,0.33744586,1.8696313,0.4517873,-0.93994147,-0.97427136,-0.05738068,1.6914859,-1.0629565,-1.630155,-0.6550551,-0.2932245,0.34818965,1.0562475,0.42818546,0.6607806,0.32884693,0.88898885,0.25203615,0.45024094,0.22755705,-1.9549434,0.45550337,0.44898796,0.4661811,-0.6391254,1.2656344,1.8900012,-0.08921674,-0.34771836,-0.49350992,0.23613141,1.2674645,-0.3058365,0.1461422,-0.28906664,-0.62851113,-0.13610722,0.89955837,0.88991106,-0.23572995,-0.8963075,-0.17869271,-1.0049756,0.13195655,-0.40854597,0.024506265,0.2714439,-1.1512243,-0.9148306,-0.15469858,0.040599916,-0.30370423,0.9549945,1.1016443,-0.5733,-0.1353785,1.0133209,-1.123394,1.5960447,-0.46758643,-0.14040451,-1.1801567,-0.16688842}};
static const float layer_1_weight[64][64] = {{0.046402402,-0.38441417,0.13788842,0.34924763,-0.18981788,-0.28262222,0.32286596,0.57229966,-0.11476127,0.07100739,-0.48651934,0.10617561,-0.078862585,0.0627041,-0.110856205,-0.14880253,0.050086845,0.2892714,0.052974924,0.21234478,-0.13051067,0.013538115,-0.14104064,-0.5025477,0.31993857,0.46009043,-0.36778247,-0.21880771,0.014011061,0.057938278,0.52826,-0.10829743,0.2761568,0.4415797,0.55279964,-0.19711691,-0.028405769,-0.19102028,-0.14162727,-0.12974823,-0.039705455,0.27513748,-0.21470852,-0.13880178,0.06532066,0.08993457,0.01230907,-0.08031573,0.19768317,0.34065488,0.33545956,0.20989633,-0.04339643,-0.44297984,0.025020963,-0.35266024,0.06518301,-0.17606667,0.17867053,0.15478708,0.003364819,0.030485194,0.17844991,0.20631811},{-0.12522219,-0.0763567,-0.15900698,0.3353204,0.2686334,0.12977153,-0.13323526,0.05288554,0.0061523174,-0.10939171,0.01246691,-0.2885835,0.20436002,0.004142366,-0.12928674,0.19677699,-0.06166281,0.1731021,0.09711342,0.06392476,-0.058399744,-0.07039884,0.20858644,-0.16569805,-0.21328485,0.12010055,0.076259166,0.23250528,0.04842353,-0.018916203,0.025380718,-0.1266563,0.056214236,-0.11703013,-0.0068825944,0.07523943,0.35295036,-0.064767376,0.036699943,-0.746848,-0.2614331,-0.16030371,0.22479995,0.19512327,-0.013248627,0.04415187,0.043155253,0.097372584,-0.046549834,-0.118072815,-0.1519569,0.14357983,0.04304319,-0.21986124,0.24453735,-0.41391098,0.16357179,-0.2952034,0.36258152,0.27026975,0.27952474,-0.20395549,0.074508876,-0.27602208},{-0.14851941,0.10066375,0.16403624,0.10284357,0.24513307,-0.06475468,0.22880876,-0.08968812,-0.09403127,-0.18572451,-0.1989696,0.22088687,-0.28759077,0.6217736,-0.17066288,-0.24932462,-0.033729795,-0.0955151,-0.19962722,-0.109623045,-0.1431102,0.14156844,-0.11492956,-0.063474126,-0.23211865,0.11949741,0.18450128,0.22257844,-0.10138817,0.2619218,0.06051883,-0.1733007,0.3674855,0.2196574,-0.011665431,-0.09953721,0.27655777,-0.03462457,0.05483274,-0.3924086,-0.10889519,-0.029653141,-0.22971593,0.10318128,0.18495895,-0.14213945,0.083941124,-0.09654048,0.055981085,0.30027816,0.29231596,-0.19229193,0.17626639,0.26573628,-0.37216267,-0.26099205,-0.26405057,-0.35041088,-0.42166525,0.15332544,0.08359904,0.27518022,-0.12695643,0.30533016},{0.21991062,0.5904931,0.019098446,-0.21625635,0.287786,-0.19139071,0.40180308,-0.3188455,-0.22764115,0.47489157,-0.15692087,0.054480415,-0.6285034,0.18084408,-0.49139524,0.35710496,-0.00047027916,0.13571924,0.17398958,-0.2352334,0.15834656,0.52729917,-0.16284679,-0.050821744,0.40445015,0.26399875,0.20249872,-0.30795678,-0.40270337,0.20289956,0.09140969,0.010655515,-0.13347484,0.23001577,0.058654446,0.05467858,-0.011816451,0.060569566,0.13042003,-0.14346547,-0.20570134,-0.3426309,-0.55742407,0.121473886,0.094882175,0.09385238,-0.38899627,0.027000066,0.5542498,0.21522896,0.055744667,0.676465,-0.48094633,0.45626992,-0.40161774,-0.49071863,-0.24777533,0.109048605,0.30375013,0.28884885,-0.15747818,0.3074698,-0.35894537,0.12443943},{-0.026719088,-0.031539142,-0.20574465,-0.6733572,-0.096990846,-0.118286245,-0.019612117,0.04051472,0.105174735,-0.24996677,0.17849675,0.13657905,-0.03834571,-0.05917781,0.3102306,-0.311945,-0.06626549,-0.053763524,0.10747474,-0.14656119,0.43918175,-0.01061514,0.22910692,-0.023386555,-0.043718245,-0.3780172,0.24223728,-0.11933211,0.14589089,0.03928582,-0.16272567,-0.076071605,0.435574,-0.049667723,0.009675004,-0.17681488,-0.15321429,0.11595037,0.13949265,0.33813578,-0.13048509,-0.2726459,0.071362264,0.05047662,0.07994871,-0.047473364,-0.009601791,-0.25217727,0.31486827,0.20408691,-0.11242768,-0.013427167,-0.06245056,-0.22717689,-0.28141877,0.2934885,-0.24214278,0.18131925,-0.21721905,0.13375461,-0.022490442,-0.14110795,-0.293724,-0.14374603},{-0.016116852,0.5465206,-0.13009223,0.14949708,0.19138564,-0.027370144,0.2999177,-0.17944318,0.560447,0.02316687,0.08805464,-0.11758839,-0.26875392,0.0017602138,-0.4036267,-0.35592642,0.006913621,0.21318883,0.016688583,0.34680232,-0.3152453,-0.032751385,0.23577292,-0.03618677,0.24012178,0.16639216,0.38426328,0.08057089,0.45411623,-0.048255783,-0.15426487,-0.20616792,-0.095057614,-0.054288283,-0.004539562,0.033214618,-0.13544388,-0.20785233,-0.008573702,-0.44660717,0.013391606,-0.091390535,-0.23067057,0.13370988,0.12042078,-0.14016666,0.14079033,0.22768536,0.13392326,0.12067547,-0.12579566,0.2883192,0.22418074,0.13725929,0.3370052,0.36109534,0.20651881,0.62761205,-0.25137752,0.16681883,0.21922441,-0.21036321,-0.13734981,0.030050524},{0.02179796,-0.26485625,0.19575578,0.046903986,0.26167202,-0.01595746,-0.11316047,-0.23106053,-0.10213544,0.041125134,0.4597554,0.10833996,-0.16022158,-0.011493463,0.6087256,0.27420157,-0.02107839,0.19002053,-0.081981674,-0.052526616,-0.02709963,-0.4393461,-0.17710298,0.35966125,-0.30827323,-0.14129384,0.049768846,-0.1989625,-0.053580422,-0.19615138,0.29850876,-0.08014054,-0.08436709,-0.07675524,-0.07050226,0.21249133,-0.6429756,0.00755746,-0.15213896,-0.1821317,-0.20640996,0.113782965,0.19494784,0.029101683,-0.26927024,0.17368248,-0.27521408,0.07455858,-0.11233842,0.0493796,0.17708988,0.008909112,-0.2522759,-0.14187554,-0.24150623,-0.11960544,-0.08771698,0.15717533,-0.5567876,-0.0040243617,0.054423872,0.2312523,-0.31687638,-0.039623883},{-0.03564337,-0.124406084,-0.052674513,-0.23678337,0.11276837,0.016992817,0.18853538,0.19435126,0.20993328,0.2335048,-0.23545781,0.15020964,-0.33538553,-0.07988795,-0.3491803,-0.005576512,-0.020461684,0.28321868,0.22611935,0.10395318,0.08475182,0.2145627,0.25431007,-0.122836456,0.25052503,0.49505413,0.018375978,0.05967657,0.2987626,0.23987986,-0.11369536,-0.25903794,-0.40558293,0.47324762,0.6701503,-0.050691985,-0.35025015,0.10082218,0.0007893685,0.11161415,0.048308898,0.08581514,-0.04311809,0.18171325,0.031644046,0.20154102,-0.14530304,0.57806754,-0.055317983,-0.27188346,0.108369805,0.16532119,0.15827079,0.10144945,0.06251734,-0.53813684,-0.10415785,-0.06831881,0.3418631,0.008318195,0.1559484,-0.18476532,0.30291745,-0.071493484},{0.054409124,-0.15009505,-0.37739295,0.14709306,-0.2360322,-0.68585294,0.37422243,0.28944784,0.07378051,0.2453141,-0.19011687,-0.04954897,-0.16872823,-0.24079217,0.3182365,0.27223116,0.11504036,-0.11497879,-0.52986515,-0.40034536,0.47533593,-0.06675039,-0.049600888,0.2177658,-0.061782327,0.09186713,-0.33497083,-0.117676035,-0.09071214,0.068559304,0.0017300475,0.13335897,-0.07406946,-0.016101874,-0.18154196,-0.5851729,-0.5010992,-0.2370035,0.09986432,0.0692477,0.20163915,-0.33843866,0.07970487,0.13345714,0.12011747,-0.17056628,-0.12425987,-0.29076505,-0.11883982,-0.04100995,-0.018898837,0.02244469,0.43916652,-0.059068672,-0.109816685,0.04498515,0.6353122,0.01011755,0.02078745,0.34639308,0.048340604,0.34755474,-0.23512828,0.18467003},{-0.19207135,0.008160205,0.24861574,0.35856178,-0.00031746272,-0.038554307,-0.56064063,-0.06406501,0.31495523,-0.32076102,0.6015596,0.08968391,0.3078664,0.34116462,0.21206625,-0.18265215,-0.23180835,-0.20273133,-0.08171718,-0.2834897,-0.09508964,-0.41361928,-0.06328519,0.20752297,-0.76331747,-0.46123073,0.18792206,0.05523802,-0.27177474,-0.06551455,-0.025005633,0.30012202,0.53133315,-0.0731252,-0.5936113,-0.38050625,0.20064393,0.105570555,-0.12737481,-0.07553266,-0.32059485,-0.12683134,0.20869061,-0.055473197,-0.18826471,0.04390113,-0.030760288,-0.5169376,0.17241585,0.2641076,0.25760716,-0.2307942,-0.18714742,0.12205725,-0.19680773,0.2864281,-0.116094485,-0.0065086805,-0.2836427,0.13881107,-0.11157126,0.08494614,0.12773547,0.19878572},{0.2558878,0.12425959,-0.35139817,0.21809383,-0.023225041,0.37094727,-0.4085992,-0.16119133,0.21721041,-0.3200174,0.4725,-0.12850243,0.2673406,-0.16773863,-0.4838702,-0.002743145,-0.09134883,-0.1311716,0.0143002,0.19169733,-0.22721866,-0.10226534,0.017524324,-0.043480977,-0.54231495,-0.38084534,0.42412952,0.02057794,-0.15865354,-0.019198947,0.6555061,0.14594379,0.51781464,0.080845654,-0.3941504,-0.022283895,-0.067252584,-0.04004642,0.17636095,-0.034266517,-0.3226372,0.014709491,-0.012016915,0.093197726,0.11673896,0.042788453,-0.30185115,-0.27705586,-0.28183705,-0.011036514,0.06296998,0.2151357,-0.2296001,-0.11800691,-0.5198131,0.020794613,-0.09081235,0.12906505,0.6442327,0.027333207,0.010348293,0.2845189,0.007924866,-0.048547078},{-0.38821614,0.25938383,0.19453117,-0.4844504,0.012991751,0.12621242,0.25798908,0.17193179,-0.27799648,0.21513787,-0.26189306,-0.12736945,-0.17065042,-0.005408524,-0.35273838,0.13580832,0.14570796,-0.55245143,0.11670017,0.3832976,-0.07466667,-0.13782859,-0.16662414,0.043424185,0.32260683,0.0589735,0.021840047,-0.11548773,-0.01077836,0.23115896,-0.25453478,-0.37710136,0.058067147,-0.24285746,0.0015391773,-0.080934085,0.22776224,0.020915853,0.19611046,-0.004596072,0.000279425,0.44211653,-0.23478533,-0.024571445,0.14115277,-0.11068332,0.14365113,-0.17551035,0.3141434,0.15089367,-0.13495813,-0.18687472,0.25341877,-0.025866909,0.022270253,0.035340775,-0.36888143,-0.07724702,0.23981732,0.25855657,0.024258656,0.06663023,-0.3880802,-0.17142703},{0.019032346,0.51471996,-0.17361285,-0.16941193,0.2183992,0.07784895,0.11823106,-0.644639,-0.25520462,0.0764854,-0.372861,-0.060998995,-0.05239766,-0.09712836,-0.037794534,0.20738058,0.24395676,0.14123291,0.2218343,-0.06291648,-0.35369113,0.46755826,0.14765593,0.16664734,0.45699766,-0.060321506,-0.20234834,0.07034076,-0.22824101,0.111264855,-0.3297834,-0.022697276,-0.46023464,-0.21917896,0.20343536,0.37406194,-0.10709489,0.07980582,0.50890166,-0.2546754,0.09076457,-0.006260374,0.2335911,0.053483106,0.26395854,-0.06677434,-0.094811395,0.61279273,0.614174,0.35786182,0.165975,-0.07587104,-0.32579833,0.4478064,-0.24534841,0.07972918,0.046776343,0.13623917,0.14240038,-0.20418242,0.56110567,0.22349644,-0.50006884,-0.11871088},{-0.2264585,-0.23775467,-0.21496825,0.24173905,0.009411916,-0.35903448,-0.01577886,0.26917723,-0.17147072,0.0030469054,0.00505674,0.009322792,0.068090186,-0.2873194,0.3003124,-0.04595439,-0.31713134,0.28521213,-0.10981078,-0.22114888,0.4849886,-0.17789392,0.21748129,0.26362026,0.4645623,-0.035194535,-0.14926314,0.25783348,-0.15628193,0.06435642,-0.09590545,-0.06420105,-0.34057716,0.20885335,-0.10911856,-0.15989129,-0.25786757,0.41139048,0.26093408,0.061886065,0.35108334,0.31390467,-0.19457513,-0.17889443,-0.1722665,0.27655876,0.04574582,0.17285231,-0.20071658,-0.23048392,-0.17515792,-0.04000317,0.04067963,-0.17093281,0.70757216,-0.22404845,0.07061267,0.4087376,-0.0464835,0.1217728,-0.1496927,0.10561537,0.08430686,0.05930467},{-0.3638669,-0.4668794,-0.063343346,0.25723368,-0.95834947,0.07935137,-0.06528732,0.20092951,-0.3179597,-0.030868582,-0.18594746,-0.06556937,0.1849218,0.13826078,-0.027687874,0.25629568,0.46767822,-0.009951241,0.030043248,-0.29715207,0.24294163,0.40567613,0.12790509,-0.06503769,0.18692784,0.11248267,-0.074484356,0.10254825,0.326443,0.1704926,-0.10220727,0.07459685,-0.26547372,0.27710903,0.48592755,-0.004714081,-0.22008432,0.59618825,0.52787423,-0.29282743,0.4342701,0.05278746,-0.043185662,0.15561496,-0.21732415,-0.02140861,0.13571428,0.43186417,0.4208991,0.4205794,0.49081644,-0.014112673,0.063297674,-0.28276575,0.06723,0.0696755,0.35527748,0.38075036,0.36731198,-0.4071938,0.28815508,-0.20555523,-0.27470723,-0.12476344},{-0.15429738,0.38948423,0.10348451,-0.35034376,0.46846363,-0.2264148,0.09342132,-0.24616873,-0.1029351,0.22742721,0.3410148,-0.14409314,-0.043248534,0.096073106,0.15714121,0.115783736,-0.17969258,0.09769449,0.3083137,-0.088791065,-0.11819985,-0.24331512,-0.3239869,-0.4793778,-0.103403464,-0.16879591,0.11528939,-0.085606284,0.15584405,0.18446468,0.04822312,0.12804446,0.38125092,-0.47646955,-0.020951124,0.6243671,-0.1692322,0.41537535,-0.34794876,0.28241792,-0.28204593,0.2437536,0.12181285,-0.12632681,-0.19074082,0.1479512,0.25633484,-0.0018926571,-0.4531656,-0.4178035,-0.54054666,0.028313633,0.13583265,0.48717934,-0.1657252,0.27259442,0.080492795,-0.28130957,-0.20146118,0.062412795,-0.55872756,-0.2531797,0.3366064,-0.024635157},{-0.074316435,0.031333473,0.026983324,0.09412224,0.129254,0.16264337,-0.08843811,-0.07371698,0.4796399,0.20660725,0.15494335,-0.5043321,0.00068008946,-0.05240492,-0.21310182,-0.052644003,-0.40402877,-0.4482709,0.48000193,-0.040493622,0.30220345,-0.47362643,-0.25988483,0.13921209,-0.30234656,-0.5260996,-0.27427614,-0.09047289,0.24863407,0.0909146,0.35267994,-0.051691588,-0.15555222,-0.10720052,0.21358927,0.09877853,-0.011868587,0.15138718,-0.26264238,0.104354806,-0.16557682,-0.39398056,0.37782347,0.05543078,-0.4062724,0.15526657,0.16909222,-0.33889773,-0.30423906,-0.2326523,-0.4717819,0.14997865,-0.16474055,0.37470576,0.20606253,-0.12955895,-0.12400083,0.14703776,0.29082,-0.16057184,-0.13339865,0.17833142,0.2059017,0.085777454},{0.055884983,-0.59789336,-0.07954702,0.6180832,-0.6230972,-0.24942487,0.1328888,0.008256751,0.90498745,-0.46026427,-0.3724259,-0.30600357,0.372088,-0.087517284,-0.09647934,-0.015724668,0.19827193,0.45755285,-0.088497736,0.262283,-0.6130676,-0.17472121,-0.17983162,-0.18385778,-0.0660716,0.36304003,0.10945502,-0.117601365,-0.2749451,-0.14674349,0.26660138,-0.23438779,-0.13789682,0.48313016,-0.12993675,0.17866859,0.14741574,0.13031307,-0.4593714,0.23683347,0.1117427,-0.2860981,0.3976247,-0.26567045,0.19822668,0.05554989,-0.18927898,-0.3722182,-0.597227,-0.38057792,0.20216209,0.4964773,0.2593544,0.13047116,0.1789413,-0.32023242,-0.16439615,-0.13039526,0.18765552,-0.06462798,-0.017142763,-0.2822079,0.8676974,0.088329375},{-0.08512777,0.61513233,0.29571164,-0.38422084,0.21068193,0.1243699,-0.078299575,-0.434239,0.63899696,0.0828054,0.28370056,2.8843222e-05,0.3670419,0.16921295,0.24655586,0.025519717,-0.22677667,0.26980716,0.18306603,0.064526014,-0.41713244,0.44027597,-0.011460033,0.17038245,-0.20725624,-0.105162084,0.13245186,-0.04878154,0.19280967,-0.17613335,0.04362406,0.27251568,-0.10891634,-0.30131972,-0.19660546,0.24085125,-0.26112428,0.0863266,0.08976464,-0.2781893,-0.08606406,0.12132482,0.16021459,-0.18778692,-0.038344037,-0.03288327,-0.043984562,-0.15363152,-0.07115606,0.008658192,-0.13261275,-0.066114336,-0.04281078,0.05296176,-0.3179168,0.016566029,-0.25082284,-0.08640115,0.021606686,-0.005299349,0.13393143,-0.61059374,0.095123515,0.06259303},{-0.23172602,0.15686418,-0.38616878,-0.17481412,0.14209612,-0.18168138,0.28358537,-0.02019177,-0.0052092704,0.25631785,-0.067046426,-0.23861215,-0.08369432,-0.0522474,-0.23414275,0.030927453,0.15433365,-0.08179218,0.06822724,0.3557081,0.4771663,0.039825197,0.20907144,0.3973416,0.34371355,0.013460463,-0.060119532,0.10317234,-0.12929067,0.13307516,-0.39505604,0.17879367,-0.43229958,-0.1256594,0.30194375,-0.11688255,0.24648048,-0.101518504,-0.15637735,-0.009923222,-0.01797077,-0.32501757,-0.08639693,0.26718423,-0.16563569,0.0085298745,0.41526026,0.19956563,-0.090028085,-0.07645449,-0.20430548,-0.09259847,-0.26201227,0.4190254,0.025772292,0.0025803526,0.18714562,-0.47230485,0.29576346,-0.1869816,-0.26703864,-0.016148224,-0.23126689,0.43373573},{0.26419857,0.060917985,0.039105527,-0.10771928,0.097248614,0.3145261,0.023925982,-0.064134054,0.081597164,-0.075449355,-0.12826781,0.10586562,0.21726203,0.24003786,-0.5715038,0.06976183,0.158438,-0.10118027,0.1686564,-0.12557365,-0.33020842,0.3527947,-0.18536222,-0.19942747,0.04065939,-0.081217624,-0.066350706,0.2734235,-0.16797626,0.030810084,-0.34795308,0.09551005,0.13248256,-0.18330643,0.008119389,-0.18076901,0.73904127,0.10045129,-0.106558874,-0.22374356,0.27708408,0.3115468,0.05742845,-0.25737765,-0.1822969,-0.16148701,0.055102866,-0.1104118,-0.009427953,0.18189733,-0.26824647,0.10185876,0.06383173,0.022514358,-0.11592514,-0.25271416,0.10695715,0.20838434,0.27336073,0.20406727,-0.09478558,-0.39850348,-0.3912023,-0.17597945},{0.031178864,0.059841603,-0.19671296,0.37193903,-0.06764023,-0.10057679,-0.34274426,0.09447586,0.09101483,0.3058846,-0.027879413,-0.7859316,0.001902737,0.42712006,0.13597399,-0.35833243,-1.1242706,-0.1988665,-0.14665611,0.20371433,-0.21715204,-0.27632648,0.67546785,0.18210548,-0.34792718,-0.14059442,-0.18757443,0.33397686,-0.045565978,-0.7959328,0.14182715,0.066003054,0.010457917,0.045506265,-0.34898123,0.09460189,-0.18698576,-0.7780916,-0.19187315,0.033079587,0.0068892585,-0.65124846,0.06796654,-0.23008764,-0.23895758,-0.05613833,-0.109325275,0.33514866,0.00011281326,-0.7454306,-0.29072186,0.016228821,0.06699404,-0.15293312,0.16091378,0.52148956,0.09102878,0.035071246,0.15001492,-0.05565985,0.70779854,0.280272,0.2956521,0.36953694},{-0.050820924,-0.23381665,-0.25230208,-0.28583047,-0.058933318,-0.02365866,-0.013003633,-0.01883885,0.11087078,-0.20365012,-0.56218886,-0.12572528,-0.15784463,-0.07878249,-0.46673924,-0.049192756,0.24014403,0.323014,-0.4501155,0.10336765,-0.06039612,-0.04035147,-0.1483056,-0.2646657,0.3417953,0.20932555,-0.06143402,0.18518206,0.13771912,0.35241228,-0.08432212,-0.26734164,-0.37193128,0.17959645,0.36179167,-0.2783153,0.2696571,0.014893271,-0.0569195,0.056046586,-0.15585782,0.23075962,0.19816692,0.127012,0.16945662,0.15603718,0.26083723,-0.027362326,-0.22880052,-0.097982615,-0.07272167,-0.32018554,0.1091103,-0.37334785,-0.03834234,0.08981154,-0.15434375,-0.016485265,0.3641809,0.054925807,0.10404717,-0.38476327,0.41489187,-0.03709721},{-0.085723065,0.18094139,-0.045365456,-0.13593842,0.52829885,0.27630633,-0.20171167,-0.54391676,0.09277912,0.019612024,0.27581257,-0.14601323,0.08418081,0.2765435,-0.06517462,-0.033678748,0.20483086,-0.34263375,-0.02581524,0.3265998,0.014483722,0.19132774,-0.11499654,0.2646874,0.20347169,-0.0051852716,-0.23522703,-0.11534051,-0.13948669,0.18083322,0.25512737,0.18856569,0.09043211,0.011138632,-0.060218815,-0.18672906,-0.18167503,-0.17031461,-0.1977593,0.010834569,-0.14161529,-0.14268753,-0.4222355,0.23772904,0.073842235,0.019865453,-0.021724476,0.10186663,-0.07113485,-0.26137894,0.013100351,0.121619776,-0.079260446,0.32425198,-0.3669356,0.43092662,-0.10584644,-0.27458647,0.3395108,0.010603747,-0.10095571,0.15330109,-0.15234205,-0.07349108},{-0.101223595,-0.02142592,-0.04080162,-0.23320068,0.019960087,-0.007229747,0.09046864,0.05450663,-0.16419572,-0.02409851,-0.0016322936,0.1856058,-0.19363376,-0.1141591,0.63134986,0.12413001,0.027052954,-0.06549075,-0.0951352,0.042079918,0.7218815,0.28731626,-0.037754703,0.13181181,0.00059805025,-0.045694556,-0.28697273,-0.24875967,0.18809907,-0.081110485,-0.091083705,-0.18362008,0.14158878,0.07477586,-0.0010614394,-0.22950499,-0.3961736,-0.32418677,0.25584438,0.20514797,-0.32979545,-0.11997202,0.14192525,-0.14952637,-0.16214152,0.09779257,0.029819928,-0.011659588,0.07403422,-0.20925303,0.09716928,-0.2965566,-0.075044475,0.22505715,-0.15927665,0.30231073,0.08353265,0.092621736,-0.27561906,-0.089201964,-0.08397711,-0.4945398,-0.05702957,-0.15757939},{0.162821,0.3223195,-0.09650642,0.1896533,-0.010297334,0.10723589,0.3111481,-0.43305007,-0.15003791,0.015579229,0.36946973,-0.12354941,-0.19750832,0.45662278,0.3035911,0.2962261,0.23447983,-0.11670806,0.0004943765,0.052387293,-0.14056394,-0.15496376,0.19088349,0.03800253,-0.04673139,-0.15686233,0.0685773,-0.19643858,-0.35663122,-0.35113174,-0.13598292,-0.038782064,-0.09247007,-0.25151363,0.054090004,-0.043108806,0.42887774,-0.017935371,-0.18259682,-0.1237098,-0.16022019,-0.114963405,-0.06657294,-0.26520634,0.08830207,-0.13537271,-0.0017374149,0.14863838,0.19082151,0.07731452,-0.3122355,-0.06717172,0.008665833,0.36768672,-0.17787512,0.22156177,0.050498758,-0.35905775,0.03229102,0.04215901,-0.23317397,-0.037164755,-0.08547636,0.48020113},{-0.14796689,0.2129673,0.04497704,0.40939635,-0.0005929215,0.97773343,-0.20868167,0.13858156,0.2387845,-0.03239612,0.2559135,-0.32208344,-0.14055797,0.41815174,-0.13904172,0.009176003,0.06355213,0.08448124,0.22230054,-0.28948373,-0.034627352,-0.083594464,0.08544052,-0.040289417,0.12479242,0.13577001,0.18115294,0.030425278,-0.013367601,-0.0038538978,0.31807637,0.06633855,-0.15495868,0.121819764,0.19791,-0.16855656,-0.13093694,-0.058203213,-0.0046452545,-0.054208573,0.068547755,0.12124282,0.37386277,0.0063917045,0.08152418,0.30618545,-0.19044498,0.14680505,-0.05856156,0.19739956,0.05039847,-0.09392703,0.14463161,0.01533391,-0.08549475,-0.5781335,-0.17251198,-0.28989145,0.03123359,0.13131417,0.016653258,-0.045008928,0.30284962,0.1211406},{-0.57964563,0.016178325,-0.001881766,0.009941977,0.0061110132,-0.17962569,-0.11423369,-0.07959282,-0.023160907,-0.29373318,0.03775971,-0.14631012,0.18843544,0.17082497,0.4883137,0.14700435,0.46969625,-0.08645464,-0.16422477,0.050094042,0.039479777,-0.054881763,-0.07958415,0.50034267,-0.1769413,-0.45345047,-0.15690596,-0.48110735,0.12101463,0.29880124,0.20036343,-0.03564782,0.29961973,-0.67670304,0.4031416,-0.23695798,-0.27781227,0.14153007,-0.15450709,0.48307228,-0.26399294,0.03830169,-0.04198031,0.4739416,0.19812423,-0.016439475,0.25244045,-0.43662694,-0.0017248287,0.038619634,-0.1060142,-0.2695832,0.31537887,0.10373126,0.37553018,-0.053564392,0.13119036,-0.09630958,-0.5359249,0.13113497,-0.53060657,-0.20687379,-0.026953531,-0.12091831},{0.35680908,0.63287103,-0.090336725,-0.1955768,0.12549442,0.00013401105,-0.02828183,0.26199654,0.10534232,-0.07478676,0.043055307,0.3454172,-0.28228068,-0.28528613,-0.17348763,0.1156039,-0.13518059,-0.062029403,0.20677507,-0.40011102,-0.4231238,0.1945109,-0.2886542,-0.21050178,0.100091375,-0.4177705,0.11656658,0.45326006,-0.06657901,-0.14096428,-0.17388432,-0.081267215,0.09902997,0.017875107,0.04504924,-0.22421715,-0.10717759,0.25961962,0.070069194,-0.14756699,-0.13090558,0.28813797,-0.20327242,-0.4337842,-0.11040584,0.11188321,-0.33874908,0.3091597,0.06579624,0.16671708,-0.21158357,0.277678,-0.24856307,-0.20736781,-0.096656606,0.111739606,-0.16477923,0.4282122,0.34678936,0.15401612,-0.15184246,0.31912297,0.035878617,0.27372852},{0.015694318,0.27515474,-0.06126366,-0.68911314,-0.1207795,-0.091155775,-0.024531405,-0.2604219,0.30558133,-0.18368399,0.011733885,-0.014735624,0.247852,0.15703245,0.16244428,-0.07552231,-0.029698601,-0.1987705,0.39643037,-0.17535618,0.36584198,-0.1612326,0.25683564,0.0014596647,-0.1173356,-0.19218715,0.25407487,0.10372909,-0.019809369,-0.035842855,-0.49786845,0.12310588,-0.022589114,0.026262382,-0.16829596,0.37116,-0.4420317,-0.0913291,-0.18469535,0.0035790524,-0.4608275,0.08404577,-0.14889722,0.042268578,0.16569808,-0.091232896,0.09122613,-0.020742465,-0.25442216,0.0017414537,-0.41109693,0.24767,-0.04536272,0.24600728,-0.27275613,0.5140118,0.054047666,0.093881704,-0.07803796,0.05439867,-0.09623015,-0.017104436,0.0011308866,-0.18629174},{-0.091297284,0.07832805,-0.13575311,0.015563197,0.12802075,0.32708147,0.15360226,0.15240917,0.059232526,0.19044083,0.055007365,0.14650516,-0.1595548,0.28580737,-0.4287667,-0.036084503,0.06640433,0.27008292,0.3971169,-0.08925146,-0.015688876,0.08401992,-0.09658029,-0.028863143,0.052418727,-0.45415002,-0.20686279,0.05891114,-0.08754128,-0.2819899,-0.065285504,-0.08820353,0.17156106,0.08095516,-0.24910295,0.1551785,-0.06533927,-0.08030173,-0.16308923,-0.40761667,0.18880592,-0.15253703,0.165741,0.028674625,-0.04371142,-0.10140554,0.01676009,-0.038024776,0.3128697,0.2824603,0.29355788,-0.065229155,0.005591282,0.33810124,-0.2704557,0.37068024,-0.22198814,-0.16165806,-0.04235507,-0.02704185,0.22274913,-0.46976888,-0.14854299,0.328231},{-0.2059735,-0.015104677,-0.289173,-0.7221676,0.13925259,0.08550234,-0.133118,6.720103e-05,-0.22378758,0.10750222,-0.23731203,0.14517587,0.008010917,-0.033939328,0.44581476,-0.14303982,0.16316538,-0.26471862,0.13997498,0.1716615,0.6458229,-0.13481764,0.15128003,0.30719092,0.4256043,-0.13948578,0.11279851,-0.2351909,-0.18329562,0.09891267,-0.20187452,0.03748668,0.03330494,-0.22103444,-0.12762724,0.043346923,-0.10497817,-0.28190362,0.28658542,-0.07554514,-0.2053815,-0.22811456,-0.4025642,-0.004538181,0.41867387,0.1698929,0.17685096,0.1331532,-0.06883091,0.047548253,-0.0038770153,0.14569373,-0.06650946,0.25560865,-0.26633385,0.508462,0.4097898,-0.4888085,-0.48903432,-0.042037603,0.17361051,-0.08834064,-0.021289041,-0.09733467},{-0.3403174,0.39488047,0.20572689,-0.09185517,0.2739098,0.10717611,0.71357596,-0.3581832,-0.29142055,0.8495639,-0.33318713,0.1254642,-0.57138854,0.13554235,0.119213715,-0.06565697,-0.055004876,-0.020032862,0.5274108,0.10085277,0.09107552,0.30895552,0.08938271,0.036825225,0.6592795,0.26153725,-0.13689363,-0.023081675,-0.09307836,0.009925471,-0.12615861,0.22934726,-0.57581747,-0.26778328,0.21930675,0.5769955,-0.22078139,-0.012490684,-0.21404028,-0.23624097,0.26158208,-0.35767677,-0.34177694,0.11336351,-0.2588217,-0.20744392,0.5714549,0.70067215,0.55747867,0.2073214,-0.25454485,0.13644812,0.041189708,0.6836389,-0.2315864,0.17910412,0.31040782,0.13220435,0.15008229,0.04969728,0.3848675,0.3497362,-0.19698457,0.30376092},{-0.22812547,0.27685526,0.060614068,-0.2948777,0.038775515,-0.20688674,-0.10820575,0.263259,0.14749287,-0.096849255,-0.17496449,0.25196478,-0.25096443,-0.009708484,0.35931402,-0.051888317,-0.26172444,-0.24034238,0.10063552,-0.0022112625,0.36058706,-0.05420474,-0.046350338,0.10544634,0.05207934,0.06695938,-0.23805705,-0.5013567,-0.026788099,0.056275614,0.10766623,-0.15912853,0.23821166,0.18056253,-0.30464694,0.10240631,-0.19719103,-0.3184866,0.13826491,0.27005762,-0.33167902,0.23920414,-0.009349143,0.023463361,0.14910634,0.122797884,0.15641452,-0.2232078,-0.047589403,0.21697405,0.1388242,-0.030541481,-0.10627616,-0.040567633,0.045331568,0.52278507,0.1546935,0.17761575,-0.5638713,0.13433143,0.16017678,-0.29528224,0.04808374,0.17436707},{0.1703167,-0.2387701,-0.1823161,0.21632388,0.17607528,-0.33688238,-0.004019836,0.3714564,-0.13075219,0.13680752,-0.08436666,-0.16325785,-0.25523174,0.056366615,-0.08846394,0.1214662,-0.17006607,-0.21188658,0.25337932,0.02210344,0.88125664,-0.42003134,-0.086281404,-0.03869955,0.15285562,0.17395152,-0.011837674,0.23218398,-0.1529369,-0.04074838,-0.115424186,0.052880656,0.14786729,-0.26136792,-0.24587035,0.2643467,0.14110062,0.17341723,0.19263667,0.019503178,-0.21446751,0.07495579,-0.37468457,0.053579222,0.10502665,-0.09757804,0.06068226,-0.140287,-0.0790651,-0.17120147,-0.16298456,-0.14310232,-0.31390148,-0.21891518,0.120054916,0.16343832,0.1714,0.06209423,-0.36653903,-0.093950845,-0.19098848,0.6630179,0.03563714,0.17317927},{0.14999045,0.1846539,0.21815634,-0.20886844,0.16901168,0.11316995,0.17185396,-0.0041757366,-0.039813947,0.112745866,0.106597446,-0.015883768,-0.02962514,-0.5163267,-0.17218322,-0.22782196,-0.013190653,-0.3765908,-0.236788,0.2558225,-0.14505428,-0.1171002,0.09243268,-0.1217014,0.37633157,-0.29293036,-0.2430088,-0.35336247,0.021545837,-0.09040151,0.17737861,0.19484143,-0.21444361,-0.07072729,-0.012458372,-0.09715883,0.24994156,0.12272554,0.26626813,0.026499294,0.021112785,0.044234425,-0.12746556,-0.11121078,-0.05297095,-0.08257209,0.14528559,0.077858225,-0.043554593,0.17331053,0.056712285,-0.19793576,-0.13633086,-0.016653713,-0.43925518,0.35929203,0.052797247,0.163361,-0.49297944,-0.18538946,-0.14477888,0.11233041,-0.021945873,-0.2511885},{0.04149767,-0.24019532,0.06714324,0.5108866,-0.2503833,0.08501663,0.04527821,0.67472255,-0.8923583,0.049081743,0.3471726,0.12681484,0.10938921,0.022779426,0.37087435,0.29809856,0.3950045,-0.035588402,0.095103174,-0.1379957,0.09390055,0.059550866,-0.30736634,-0.3456777,0.11467298,0.3177635,0.00495814,-0.070777744,0.041210197,-0.045771178,-0.2473786,0.30902004,0.24487619,-0.11965279,-0.11424149,0.120461024,0.09960395,-0.09558514,0.101857506,0.008737408,0.23344937,0.41358644,-0.039825212,-0.05834672,-0.09296193,0.27243423,-0.066253446,-0.19729544,0.0872038,0.13929147,0.28896314,-0.3974121,-0.25038508,-0.5269472,0.16847165,0.12854487,0.33590686,0.07906384,-0.68052316,-0.082303636,-0.088178724,0.24464226,-0.4325415,-0.34105024},{-0.17978553,-0.16842921,0.20232244,-0.5467779,0.030680917,-0.12955356,-0.18979926,-0.1703889,0.160912,0.15460728,0.26263362,0.031305134,0.11113051,-0.13758013,0.16070966,0.19686207,0.005509881,-0.28338024,0.24447285,0.053198937,0.12227825,-0.004207404,0.15381275,0.2527496,-0.3008745,-0.3768083,-0.057371013,-0.13792671,0.1751543,-0.17483343,-0.34041926,-0.14167622,0.038320668,-0.10865756,-0.09824588,0.019427093,-0.43727645,0.21748388,-0.022753773,0.18207128,-0.10593262,-0.19057253,0.30507836,0.15684555,-0.15510692,0.114913106,-0.13507715,0.16796076,0.15811917,-0.1400939,-0.14941193,0.20991477,0.29571378,0.22466864,0.051097132,-0.085746236,-0.11622383,0.15483478,-0.3629831,-0.15087931,-0.21743299,-0.06791989,0.0026701444,0.3153579},{-0.056508824,-0.23085348,0.029952394,0.3666813,-0.25793758,0.016755583,0.104564056,0.16619794,0.48910517,-0.26637957,0.19040684,0.099702425,-0.03815415,-0.34374896,0.1341179,-0.21971534,0.06176729,0.0890636,-0.50045806,0.03521945,-0.1837908,-0.11830194,-0.12477946,0.24355601,0.15939325,0.54137015,0.22989708,0.085773885,0.093127854,0.20767549,-0.018528158,-0.31854522,-0.3068347,-0.020634545,0.49361646,0.33240113,-0.54221946,0.6308468,-0.18905288,-0.3070116,0.42832315,0.46806377,0.24257594,0.06466775,-0.030630095,-0.013659634,0.02750226,0.19323593,-0.098828256,0.0739134,0.18259658,-0.0937287,0.4395858,-0.24168964,0.1615646,-0.6731085,-0.20246148,0.33842978,-0.01866995,0.10533468,0.19420525,0.21402177,0.27503493,-0.3955894},{-0.20295592,-0.3597525,-0.1923421,-0.04544308,0.3036481,-0.4733621,0.54064715,0.28805697,-0.26178497,0.24457647,-0.49876946,-0.30259883,-0.28186914,0.33220518,-0.7393869,0.16279763,0.1566523,-0.45977604,0.11135546,0.24193539,0.5883087,0.010448543,0.071011625,0.12628485,0.3122058,0.3428252,-0.6800508,0.045305986,-0.14352077,0.25157046,0.3765211,0.31568322,0.22042556,0.36651194,0.44803524,-0.4673574,-0.16498885,-0.12725641,0.05560512,0.4164509,0.36353838,0.00979406,-0.09093519,0.02750717,0.04945314,0.1446777,0.14930525,-0.014920275,0.2820614,0.05379837,0.16813247,0.1723364,-0.4062387,0.096358635,-0.4157483,0.009451027,-0.39194453,0.116066895,0.3662983,0.037811752,0.017289415,0.18096347,-0.0733178,0.12862739},{0.07949118,-0.015812006,0.13535477,0.30878958,-0.14051907,0.3010325,0.06671788,0.30360106,-0.1978766,-0.0040188413,-0.13116863,0.32271445,0.046032794,0.002416032,-0.38813066,0.068038784,-0.026578432,0.061599985,0.004065424,-0.073755585,-0.10754967,-0.10717754,-0.06588648,-0.32463583,-0.17494395,0.10024251,0.18860584,0.17691083,0.22897704,0.051861413,-0.3116811,0.09865274,-0.07687893,-0.010057625,-0.32177866,-0.10079382,0.34705114,0.45847344,0.054670494,0.24787693,-0.045521475,-0.24048546,-0.040222377,0.18412754,-0.12568896,-0.026685221,0.23303042,-0.19409065,-0.090989396,-0.10157165,0.109037295,0.061837442,0.110082395,-0.0047805454,0.007627932,-0.16609211,-0.11350324,-0.14552277,0.6783652,0.06692504,0.23161364,-0.15388112,0.07780316,-0.09067699},{-0.22302122,0.48187396,-0.024926508,-0.15656023,0.38553327,0.1862579,0.3607681,0.19574307,-0.3459859,0.086650126,-0.11766465,-0.13929462,-0.16331366,0.08358,-0.06242787,0.37980953,-0.24011792,-0.18367678,-0.1996639,0.08972927,-0.042525485,-0.20576902,0.19830005,0.07174571,0.22231306,-0.44294527,-0.054158688,-0.02517952,0.11645332,-0.23665173,0.13842122,-0.096685186,0.29706743,-0.030183347,-0.29069278,-0.31640267,0.0056948382,-0.44796613,0.098018534,-0.225994,0.34955052,-0.02669381,-0.30114102,-0.25658235,0.036938746,0.12255796,0.12453625,-0.27127284,0.20881961,-0.20711425,-0.0885309,-0.005863231,-0.09011358,-0.21454722,-0.19632217,0.3767093,-0.14367616,-0.053317457,-0.13786317,0.25267205,-0.051001117,0.24454919,-0.012627668,0.3964401},{0.16595578,0.060568906,0.06696037,0.015664907,0.11007742,0.03713652,0.19032973,-0.15127687,-0.16472901,0.10442513,0.06893639,0.1760193,-0.057731397,0.014009636,0.26735786,-0.051218674,-0.23017031,-0.17523822,0.21581466,0.053961154,0.523929,-0.5640627,0.027003191,0.20820865,-0.17195082,0.11627338,0.19881716,-0.7034848,0.3004565,-0.17580089,0.19788098,0.055816002,-0.13747346,0.026697772,0.0014145654,-0.19837213,-0.8479858,-0.28022283,0.3318828,0.29526228,0.015800893,0.011079182,-0.09575998,0.06492063,0.012908395,0.114818774,0.06545655,0.0352944,0.099191904,-0.009575885,0.013885346,0.018919658,-0.09754384,-0.10174142,0.030479657,0.27465823,-0.09257201,0.17440309,-0.120505825,0.043492537,0.12458708,0.004345486,0.088862844,-0.14842582},{-0.30842593,0.012829525,-0.07227983,0.1114648,-0.04162719,0.049126793,-0.17702498,0.40044254,0.047494486,-0.0845036,0.17825761,-0.024871351,0.24160482,0.106710136,-0.028569248,-0.2525668,0.16789185,-0.24265671,0.08278296,0.46641624,-0.15807563,0.20828559,0.25045404,0.015209386,0.07610622,0.21821508,0.05190646,-0.16630907,0.059973896,-0.17770578,-0.0846651,-0.03848796,-0.05382894,0.196623,0.18618253,0.41802797,-0.2360986,0.27239883,0.05900066,-0.44367003,-0.0079821,-0.20865957,0.032246023,0.0035897437,-0.28692096,0.39448386,-0.037426203,-0.07729862,0.34319615,0.028552216,-0.06075718,0.16681589,-0.24462228,-0.02111015,0.1075428,-0.26372275,-0.35995805,-0.15326193,0.4715899,-0.21459292,0.23823468,0.036774475,0.06919738,-0.05165803},{-0.036687434,-0.25744265,0.033134665,-0.04900752,0.1771761,-0.3563708,-0.084151596,0.29582784,-0.34248543,0.105340846,0.0028198592,-0.11587714,-0.100781925,-0.11160842,0.048086125,0.024901155,0.19593894,-0.19051568,-0.031990137,-0.0145882275,0.73034704,-0.5163953,-0.047704957,-0.24561822,0.29042423,0.24756742,-0.35921568,0.10130648,-0.08178463,0.11976207,0.12214881,-0.04006363,0.19533314,0.13789119,-0.15451919,-0.2542227,0.008125686,-0.39101815,0.4040828,-0.1930002,-0.38742235,-0.024120301,-0.12660092,-0.09087364,-0.20874362,-0.0390486,0.1322969,-0.12457447,0.015693484,-0.10085373,-0.09556216,-0.26842624,0.08971398,-0.31442475,0.05126614,-0.300682,0.37142304,0.27935487,0.1447063,0.19007343,0.14979608,0.14574501,-0.355242,0.131738},{0.07279885,-0.0048773545,-0.14347954,0.090156004,-0.059579745,-0.081113696,-0.0060630077,-0.10804548,0.29125902,-0.16803753,-0.27947113,0.05761097,0.048465032,-0.20558971,0.03718123,-0.37521148,0.12793261,0.27755335,-0.05251648,0.12001625,-0.49387592,0.27992252,-0.022086184,-0.34716696,0.23539932,0.04061982,0.079837464,0.24507207,-0.08360301,0.13531229,-0.24270767,0.020382317,-0.030342108,-0.2725495,-0.010975744,0.15657543,-0.021950983,0.07019575,-0.05614502,-0.04713976,-0.28731063,-0.09779803,0.31743616,-0.11714397,0.16220073,-0.033505835,0.350664,0.18083744,-0.1574578,-0.30135265,-0.010009639,-0.062243097,0.0377007,0.112632036,0.34182054,-0.5092663,-0.019978018,0.37639087,0.08340025,-0.086601175,0.32774082,-0.2544033,0.19804096,-0.16166352},{-0.19243416,-0.21930115,0.21504177,0.1211952,-0.05140166,-0.020739783,0.0323589,-0.08435604,0.021190803,0.11870244,0.23134027,-0.15044388,0.164192,-0.087805666,-0.20163347,0.08212914,-0.08390972,-0.37420124,0.022865409,0.2821729,0.27766943,-0.088974044,0.28890663,-0.05064295,0.38135147,0.07555302,-0.3511084,-0.24919243,0.19388014,-0.13257067,-0.26191035,0.15988526,-0.1615312,-0.06942847,0.29381424,-0.056906078,-0.3084153,0.15313762,-0.036244504,-0.08858534,0.365381,0.29283828,0.506507,-0.08484374,-0.2993601,-0.27178833,0.28982344,0.3295614,-0.12613261,0.2136846,-0.07860067,-0.25592932,0.20629719,0.10637621,0.19471568,0.012487104,0.33078796,0.26323164,0.12356532,0.10150652,0.063691966,0.18730053,0.16485445,0.10068369},{-0.048624527,0.20043749,-0.06223412,0.00452415,-0.093601055,-0.025495453,-0.29861906,0.20743705,0.12342047,0.17342305,0.004699876,-0.030167753,-0.17269966,0.046855062,-0.25550094,0.041385643,0.11937422,0.004943432,0.23501027,0.2601691,0.20500381,0.24132814,0.14342216,-0.28614965,-0.10653473,0.31934875,0.08536456,0.2427689,-0.093726374,-0.019076461,0.23127367,0.021494418,0.037850197,-0.12166521,-0.18820135,0.049888123,0.017099623,-0.08041787,-0.2567497,0.024951415,-0.36975795,-0.04218331,-0.14437775,-0.059712112,0.218717,0.03332157,-0.058618575,-0.006365115,-0.044683836,0.11395206,-0.086337276,-0.055681724,-0.06977921,-0.15020473,-0.050376248,-0.4217674,-0.24917702,-0.3293318,0.37549135,-0.2222531,0.2682182,-0.29039547,0.31932878,0.10126955},{-0.089428306,0.011894468,-0.066702,-0.07687461,-0.31188783,-0.061009936,0.087927885,0.2700809,-0.45607683,0.0007343118,-0.3935751,0.050956644,0.27997035,0.23260991,-0.18465059,0.16074051,0.11944154,0.00048593193,0.019978382,0.2211002,0.0869956,-0.029535469,0.03631937,-0.45519856,-0.012011257,0.1677201,0.17374162,0.060949206,-0.08835302,-0.024767773,-0.36377993,-0.16195756,-0.037709262,0.055030793,0.28550914,-0.22490315,0.3721627,0.33161086,0.19579777,-0.06809009,0.10712959,0.1877781,-0.050046902,-0.22892092,-0.042973448,-0.2328345,-0.043512423,-0.021459078,-0.231065,0.07415902,-0.18398477,0.107597336,-0.11042123,-0.34160143,0.3201907,0.16909273,0.03961735,0.087528594,-0.2798832,0.08587282,0.100487374,0.44157606,-0.40174517,-0.51219535},{0.17090231,-0.020780502,-0.15643026,-0.3132279,0.034817707,-0.2191752,0.28350902,0.078963995,-0.2187072,-0.07940366,-0.19271865,0.50702864,-0.022579346,-0.714759,0.045280177,0.32401437,0.16197783,-0.075951025,-0.41716638,0.07748019,0.16712609,-0.2751598,-0.20025948,0.13362923,0.101549365,-0.28899655,0.23834524,0.17383626,0.11701081,0.07277974,0.0659868,-0.3132438,-0.05071013,0.18539217,0.20864302,-0.11843611,-0.17444259,0.17342879,0.120115,0.22947001,0.052222956,0.0049669943,-0.24143256,-0.15818588,0.19589631,0.03089993,0.017554596,0.0074805287,0.18903701,0.03281139,0.2188179,0.18206005,-0.12221569,-0.4187756,-0.27167547,0.18308982,0.17063925,0.91440064,-0.593777,-0.0052367807,0.080153964,0.7783629,0.071322784,0.068255424},{0.0013819385,0.30072683,0.11394043,-0.4254654,0.29312325,-0.020627959,0.13873963,-0.21763635,0.049557433,-0.011894758,-0.183066,-0.18539038,-0.096737504,-0.13911733,-0.20858595,-0.2798306,-0.035839275,-0.19899307,0.028302288,-0.021979826,-0.22092827,0.46707633,0.18065254,-0.119386576,-0.18644013,0.061764397,-0.073080815,-0.12667625,0.27990985,-0.09236049,-0.15175034,0.2026393,-0.24411987,-0.008371096,0.18537584,-0.15744327,0.13434003,0.15989374,0.48776677,-0.5300298,0.032547448,0.077662066,0.19015159,-0.27462178,-0.062197447,-0.0687134,0.052483622,-0.0494156,0.13302739,0.2375966,-0.16513708,-0.41718602,-0.005142431,0.07238123,-0.20537035,-0.26883414,0.069357365,0.08344204,-0.34632,-0.09225941,0.03502149,0.23947643,-0.26011798,0.055548497},{0.094697215,-0.05637279,-0.3312574,0.08858985,0.055626687,-0.47551596,0.59981173,0.08071009,-0.32836786,0.23030128,-0.488361,0.12362775,0.011767467,-0.30482474,-0.008306389,-0.05094263,-0.023580005,0.12133523,-0.22892454,-0.08931761,-0.23117626,-0.25952744,-0.11801043,0.2355961,0.23859234,0.052085795,-0.16388614,0.15283321,-0.009857115,0.021269698,-0.10640999,0.060616802,0.037165664,0.14347877,-0.1759684,-0.38663056,0.5338931,-0.096595876,0.08157839,-0.04271216,0.4279879,-0.3044546,0.037919965,-0.11091416,-0.25030813,0.033482783,0.33528718,0.10216983,-0.1826193,0.13205142,-0.33596024,0.22658579,0.015478203,0.16272394,0.01890363,0.13469175,0.35048828,0.59625816,-0.301048,0.11410271,-0.0026416304,0.39725327,0.10096598,-0.056598622},{-0.158251,-0.06352467,-0.18307866,0.086541034,0.019736296,-0.34033838,0.16552146,0.07546409,0.21468554,-0.1266093,-0.24006471,-0.15540062,0.13285293,-0.3448753,0.477753,-0.020569686,-0.02739269,-0.06522857,-0.18613707,-0.282627,0.05552677,-0.09432562,0.082131736,0.1454928,-0.21462268,0.14580423,-0.10095701,-0.16391869,0.0552595,-0.27542374,-0.10490403,0.06830432,0.045574106,-0.04507808,-0.15997209,0.011642107,-0.3439745,-0.21593341,-0.45428464,0.36625144,0.28373897,-0.2868123,-0.15428989,0.17029501,0.21588573,-0.29733795,-0.20023963,-0.3009869,0.013403299,-0.13509329,-0.055091668,-0.0326334,0.22721478,-0.019884052,-0.083197266,0.48868877,-0.13155639,0.17669559,-1.1415478,0.11328713,-0.054795966,-0.12093178,0.3126187,0.037418745},{0.06923407,-0.16621052,-0.3280775,-0.18318565,0.18655345,-0.18229635,0.02440977,-0.18777192,0.14217082,-0.020724831,0.004612655,-0.1853912,0.12772016,0.37065113,-0.05243717,-0.1432229,0.025472581,0.26305646,0.09452363,-0.061935205,0.40051484,0.030194633,-0.069335036,0.20716792,0.036038484,-0.037689414,0.09639613,-0.037600506,-0.13555257,0.244902,0.28878453,-0.22457771,-0.16955109,-0.22260977,-0.08105301,-0.09080614,0.52783215,-0.067076854,-0.4826251,0.47112444,-0.38923532,-0.28927556,-0.16981204,0.09202363,0.050997127,0.048169866,-0.065269455,0.006131958,-0.13147016,-0.5315496,-0.070729986,0.10798612,0.1882679,0.28713438,0.21093185,-0.15027055,-0.09204093,0.1618524,0.10775742,-0.08998915,-0.09253911,-0.6024767,0.3553316,0.14454815},{0.002383621,-0.06202597,-0.04605845,0.07018214,0.268235,-0.06661732,0.3254404,-0.08572972,-0.20225146,0.14876363,-0.13198851,-0.18798946,-0.33554485,0.398512,-0.3646499,0.056515407,-0.052621916,-0.07316931,0.2274283,-0.4244501,-0.29786053,-0.33218297,-0.115141995,0.08797468,0.19414985,0.2185695,-0.23542033,-0.11248657,-0.3198513,0.24637488,0.61795837,-0.13200743,0.42568326,0.38425314,-0.17377736,-0.17124796,-0.25558925,-0.3124984,0.17784667,0.116969705,0.19451928,-0.25031552,-0.6619001,-0.20662208,0.15340029,-0.20959531,-0.08350021,-0.22349322,0.21748236,0.09115547,0.10978658,0.33972612,-0.12503785,-0.03547793,-0.2918032,-0.40110582,-0.105834715,0.061894912,0.17718564,0.14829604,-0.24501309,-0.13859275,-0.11727017,0.41287223},{-0.15163179,0.3720718,-0.091971576,0.19787288,0.21432747,0.043060645,0.14571768,0.14904776,-0.045177422,-0.16216023,-0.25533432,0.16018693,0.0073121674,0.09730641,-0.33898476,0.007044799,0.14893726,0.108467035,-0.059838478,0.053638533,0.21556523,0.015449,0.1420726,0.148102,0.19930449,-0.023752326,-0.045844585,0.067893386,0.15827252,0.091464,0.1506843,-0.17457812,-0.0452143,0.005516688,-0.25818318,0.09456125,0.18449551,0.35213226,-0.12269905,-0.24637908,0.14961578,-0.010475067,0.15758581,-0.12939297,-0.0055461675,0.02752784,0.17924468,0.0040107183,-0.18765403,-0.12659138,0.05322498,-0.26692867,-0.06006575,0.22129095,-0.13622348,-0.12368605,-0.2455249,-0.13985972,0.20665748,0.18590961,-0.05257498,0.011955036,-0.007510307,0.13360132},{-0.24386914,-0.07430314,0.046457108,-0.27584013,0.0041364837,-0.04839882,0.10172539,-0.074539945,0.13932073,-0.011428984,0.1728494,-0.055259574,0.023305006,0.20453642,0.32074708,0.10608564,-0.17587322,0.25123292,-0.14397615,0.15122898,0.7648646,-0.34760743,0.009314037,0.27681428,-0.0026732383,-0.031111745,-0.07074172,-0.045366064,0.22091405,0.18607846,-0.1814726,-0.27478817,-0.08485822,-0.35170832,0.2631531,-0.08557797,-0.3246744,-0.49715456,-0.33463895,0.031935744,-0.2018345,-0.00016196766,-0.19043367,0.20757014,0.2581127,-0.07302488,0.05478478,-0.28939572,0.038801126,-0.29913127,-0.2581064,-0.19312404,0.16205235,0.26862994,0.36653253,-0.087236024,0.30653402,-0.19956256,-0.29839852,-0.19985503,0.15111744,-0.40729028,0.29785645,0.038636},{-0.07533655,0.59990984,0.42718786,-0.4083452,0.35928392,0.20210922,-0.0032511097,-0.1614296,0.12625708,-0.27361324,-0.5253171,0.4366189,-0.19880345,-0.040695056,0.089899525,-0.41489154,-0.12658778,-0.109362826,0.26591358,0.36225098,0.23619545,0.6549252,-0.37284172,-0.095565274,-0.11856946,-0.30707416,-0.42842326,-0.33024916,-0.18654206,0.268983,0.23338908,0.02757158,-0.018611144,0.10578308,0.16016223,-0.24604487,-0.15118353,0.27628407,0.33111227,-0.17777796,0.40939176,0.29326248,-0.39156997,-0.016152108,-0.17885321,0.028805612,0.2645002,-0.109986,0.33863,0.2232549,-0.07426718,0.067533396,-0.17219552,-0.12030442,-0.42667115,-0.37335405,-0.09309016,0.007286953,0.4076183,-0.03532791,-0.22835466,-0.049500044,-0.019885443,-0.022015242},{-0.04117192,0.17243105,0.1883784,0.123754576,0.071238816,0.5660075,-0.060544513,-0.116376564,0.18123005,0.28448433,0.4993496,0.12099613,0.103199266,-0.43685308,-0.11305017,-0.0147800585,-0.16564518,-0.22659366,0.04715656,0.16140145,-0.014066891,-0.51763284,-0.06409577,0.25321212,0.054100346,0.17095134,-0.040785942,-0.20971368,0.007349361,-0.18589683,-0.12608643,0.23567432,-0.29823104,-0.5487992,-0.112866886,-0.027599921,-0.46845952,-0.25150847,0.011456281,-0.18287721,0.00948266,0.34701568,-0.13052374,0.0040053837,-0.31023142,-0.009373734,0.21327777,0.37950012,-0.15801735,-0.12944758,-0.094734155,-0.10866625,0.2856506,0.11647911,0.26012498,0.26493737,0.2800552,0.010601452,-0.4945341,-0.05548691,-0.07814966,0.32167292,0.18569714,0.025065692},{-0.31932664,-0.13908017,0.45703724,-0.01633385,-0.05856166,0.11560258,-0.10386431,-0.21728496,-0.27488527,0.033451073,0.4484563,0.34478873,-0.026874164,-0.016113037,0.5195515,-0.21859384,0.21936357,0.0013890628,0.16853514,-0.19356072,-0.14541449,0.24540918,-0.15385953,0.54400074,0.01526046,-0.029845161,-0.137696,-0.36890236,0.19514816,0.18361194,-0.091925174,0.51295,-0.3144477,-0.39841697,0.19427542,0.41537192,-0.377535,0.34595922,0.021971267,-0.16816403,-0.20542164,0.51291597,0.39531428,0.29520494,-0.81366605,0.33849877,0.45679793,0.49840024,-0.029702343,0.2815821,-0.14690621,-0.33440575,-0.21276842,-0.1676299,0.49830815,-0.1722191,0.21323645,-0.35750735,-0.41265208,-0.25745663,0.17604877,0.1628701,-0.32615113,0.3021155},{-0.22441305,-5.534748e-07,0.1453829,0.020802638,-0.23829262,0.15962803,0.09123827,1.0892551,-0.18038486,-0.2875453,-0.31553388,0.28065938,0.003512477,-0.22676976,-0.39626184,-0.111423545,0.32047907,-0.06142747,-0.2871782,-0.09521301,0.093972445,-0.26978934,-0.0028108573,-0.30654228,-0.10240637,0.36899891,0.25294226,0.32087597,-0.061470415,0.3717109,-0.36721677,0.02858508,0.53465384,0.016969966,0.065258354,-0.1759683,-0.22628316,-0.018830562,0.5463675,0.8744706,0.2636604,0.38184115,-0.2756154,-0.036104623,0.1786482,0.042607795,-0.13357525,-0.45237377,-0.016530499,0.30636227,0.2678728,-0.037741207,0.06808693,-0.39783207,-0.026653249,-0.015455204,-0.39883706,-0.19842851,-0.064141445,-0.07374911,-0.3711761,-0.14451705,-0.045696303,-0.26882103},{-0.19816622,0.43240902,-0.11854997,0.29197478,-0.028727978,0.08627839,0.09263043,-0.42026213,0.24688919,-0.18369156,-0.051320344,-0.063483424,0.38685688,0.36338636,-0.2699717,-0.35192457,-0.044312187,0.095302336,-0.022541597,0.027894558,0.32013342,0.015900817,0.39990586,-0.17327257,-0.04830282,0.03069898,0.079610474,-0.4467534,0.2436953,0.08599816,0.086069494,-0.03907319,-0.23009104,-0.15532158,-0.01224464,0.19247,-0.1583022,-0.03476197,0.31798735,-0.2621921,-0.22802976,-0.22087172,-0.037138533,-0.247541,-0.15162568,-0.06839076,0.34046295,0.12388783,-0.15331167,0.14818463,-0.11568649,-0.0016017725,0.32821575,-0.13857237,0.043030154,0.022574607,0.2494618,-0.10001433,0.2983527,0.053904675,0.31742567,-0.54973376,0.21150833,0.3733285},{-0.16041635,-0.004661025,0.022252575,-0.060172424,-0.25850207,0.23592335,0.04249188,-0.07199074,-0.078921236,-0.010181329,-0.10599098,0.008517707,-0.10993361,0.2331346,-0.5721675,-0.09549373,-0.15815558,-0.22917256,-0.19283397,0.24737081,-0.051242065,0.58679277,0.16934992,-0.19436477,0.35014746,0.10348648,-0.15391171,0.60310835,-0.08517633,-0.07770617,-0.3609867,0.08029934,-0.00937283,-0.16304573,0.16638134,0.06865866,0.65717286,-0.035308614,0.030322278,0.11724728,0.026119525,-0.065227866,0.37814426,-0.22132593,-0.1413227,0.042457514,0.0119077405,-0.0768461,-0.03166162,0.12504731,-0.026803285,-0.094962075,0.0042277533,0.2712898,0.063789696,-0.5843225,-0.11233252,0.2730027,0.7565846,0.050778788,0.27274233,0.22798447,-0.059544977,0.17809738},{0.22003736,-0.12548393,-0.17667957,-0.11473921,0.25066373,-0.05474819,0.37181076,-0.348597,-0.1044578,0.41018012,0.19203421,-0.17614736,-0.03005626,-0.03974131,-0.21639307,0.5352794,0.010331437,-0.14229847,0.13055755,0.26373306,-0.31355247,0.47525582,-0.116601735,0.4869344,0.14953268,0.013013894,-0.293602,-0.59057796,-0.24609406,-0.04554858,-0.1908109,0.37864545,-0.23706363,-0.26436418,0.047491696,0.056015413,-0.064674914,-0.34469497,-0.063420944,-0.14322528,0.01856077,0.13841033,0.091007255,-0.17957772,-0.07274816,-0.26379812,0.022840148,0.2983995,0.32072917,0.2953999,-0.18772472,0.039927587,0.19143629,0.0406557,0.043711293,0.147824,0.26456708,-0.0061098556,-0.48511812,0.0810152,-0.20192806,0.4791777,-0.31418556,0.019696021}};
static const float layer_2_weight[64][4] = {{-0.047303468,-0.14797854,0.12964693,-0.025984563},{0.05608104,-0.14863592,0.23373623,0.044125523},{0.0067378976,0.0024984505,0.013280715,0.016636103},{-0.030202918,0.0023491904,-0.15669565,-0.013291184},{-0.21832314,-0.24133004,0.2806673,0.0014121393},{0.037700497,0.07610004,0.10658084,-0.017041355},{-0.06362015,-0.014808083,0.08946293,-0.13809282},{-0.040072072,-0.18965802,-0.24517363,0.029028848},{-0.026941335,0.123727135,-0.18215886,-0.10682628},{-0.017996874,0.08198896,0.22071604,-0.035582457},{0.0073933033,0.16922356,-0.021163797,0.21881126},{0.029321065,-0.2504521,0.05735387,0.12490504},{0.04341426,0.027187457,-0.025744904,0.048676793},{0.0953713,-0.18434596,0.09453055,-0.113678925},{0.10755486,0.022799132,-0.22795433,0.017657515},{-0.016922185,-0.016116824,0.021900315,-0.016140629},{0.0380745,-0.09130274,-0.36721668,0.24130684},{-0.18526867,0.111268975,-0.1555675,-0.11579939},{0.0747204,0.16480607,0.23858705,0.13500434},{0.06068631,0.08422906,-0.008826191,-0.005195053},{-0.11842475,-0.15899156,0.122590676,0.11139544},{-0.07320509,0.21910572,-0.053809684,-0.1273109},{0.012542032,0.12879103,-0.038082395,-0.058785968},{0.15127784,0.15847681,-0.22442457,-0.04983861},{-0.10003707,-0.093063556,0.28284383,-0.215494},{-0.0938924,0.06382663,-0.18905847,-0.10576525},{0.07098878,-0.15759669,-0.04636695,0.026617542},{-0.19285606,0.31421074,0.13240112,-0.0716795},{0.003559125,0.05187632,-0.053465378,-0.0162293},{-0.027745795,-0.022563618,-0.10980871,0.13266523},{0.16931535,-0.36190262,-0.27094933,-0.27851963},{-0.019231137,0.011967529,0.05890365,-0.015002573},{-0.13615751,-0.21076466,-0.109377936,0.2146742},{0.25045982,-0.2611819,-0.08565439,-0.25508025},{-0.0028889978,0.22197196,0.024695858,-0.14863652},{0.062454335,-0.020499455,0.110847995,-0.03863405},{-0.2104349,-0.09279612,0.0808841,0.08538826},{-0.11616264,-0.27050602,0.27076367,0.15279303},{0.12266137,-0.15494712,-0.022371385,0.1229391},{-0.15365827,0.26391378,0.23284817,-0.026867665},{-0.20310098,-0.16024002,0.124012806,-0.14737904},{0.06282676,0.0053672055,-0.02207175,0.11462878},{0.21486689,0.38918713,-0.03625423,0.1372973},{0.028244277,0.06145751,-0.1102929,0.086419754},{-0.0088923415,-0.2363594,-0.30031997,-0.14515732},{-0.009939111,0.024389459,0.02095128,0.025062777},{0.0077546653,0.046630587,-0.047713097,-0.0024615212},{0.23828988,0.17347129,0.22931506,-0.19012938},{0.17308225,-0.1819952,0.041398846,0.06427666},{0.082928054,-0.07612448,0.016465904,0.13614008},{0.21363293,-0.17468408,-0.2799705,-0.03894156},{-0.004680443,-0.053700913,-0.006673264,0.011203966},{-0.022142086,0.07090007,-0.09989021,-0.015130031},{-0.06540942,0.091339946,0.07136337,-0.04151661},{-0.07201234,0.15729421,-0.10895778,0.028708676},{0.015952695,-0.105860226,0.17734605,-0.10295427},{-0.22713313,0.14576004,0.14923078,0.10550422},{0.022610724,-0.044716388,0.12547699,-0.013237255},{0.04037273,0.05605702,0.1390673,-0.1380129},{-1.1698379e-05,0.0130961,0.01636327,0.0056458493},{0.13196465,-0.06125883,0.029040692,-0.16156448},{0.07683326,-0.10144279,0.03660536,0.0045974567},{-0.06159298,0.04801038,-0.2432557,-0.18061998},{-0.014302934,0.15851371,0.16493182,-0.20057513}};
static const float layer_0_bias[64] = {0.2377295,0.13914567,-0.075590394,-0.20539588,-0.1281195,0.10371783,-0.24533835,0.10890957,0.40695927,-0.06020463,-0.22744188,0.28073448,0.0018029048,0.23670968,-0.07385592,0.09688062,-0.2600287,-0.14465994,-0.25676206,0.39934886,0.38435963,-0.18572915,0.14612813,-0.19529192,-0.10507241,-0.18270817,-0.24475276,-0.17844255,-0.09057809,0.13087234,-0.3452843,0.036037646,-0.11304739,-0.021487053,0.4706757,-0.1604692,0.059306554,0.06308201,0.21779308,-0.089595,0.34328038,0.036909614,-0.48491424,0.24796823,0.14866649,0.20027655,-0.24725653,0.0032070877,0.011442681,0.082986385,-0.058465786,0.20209342,0.27250025,-0.08549054,-0.36801162,-0.09356573,-0.082262166,-0.1358441,0.07022002,-0.172546,0.38838905,-0.032819994,0.5640069,-0.041784126};
static const float layer_1_bias[64] = {-0.03894569,-0.2283506,0.05991619,0.3055646,0.025031913,-0.007502782,-0.056387223,0.12158541,0.13320446,-0.04194847,0.07496682,-0.009596363,-0.0021018132,0.022433102,-0.27911335,0.0049461178,0.10898215,0.09136671,-0.034629244,-0.0073313955,-0.025706686,0.07493253,-0.023001172,-0.16365512,-0.046828795,0.1662587,0.027162086,0.37289092,-0.02282913,0.008364154,-0.06837063,0.0015291827,-0.06273525,-0.0088779265,-0.02688938,-0.022445716,0.7029311,0.26737007,0.085486025,-0.29139,-0.07720435,0.20382926,0.046735566,-0.027115678,-0.07812148,0.02660893,0.079697885,-0.08459263,-0.093628116,0.03530254,0.12661585,0.0026517955,0.020004608,0.05879174,0.0863945,-0.21871586,0.103251815,-0.15322812,0.18234885,0.044977088,-0.014497008,-0.030543001,-0.03271287,-0.03381158};
static const float layer_2_bias[4] = {-0.0321226,0.020244736,-0.05933381,0.049518377};

void networkEvaluate(struct control_t_n *control_n, const _Float64 *state_array) {
	
		for (int i = 0; i < structure[0][1]; i++) {
			output_0[i] = 0;
			for (int j = 0; j < structure[0][0]; j++) {
				output_0[i] += state_array[j] * layer_0_weight[j][i];
			}
			output_0[i] += layer_0_bias[i];
			output_0[i] = tanhf(output_0[i]);
		}
	
		for (int i = 0; i < structure[1][1]; i++) {
			output_1[i] = 0;
			for (int j = 0; j < structure[1][0]; j++) {
				output_1[i] += output_0[j] * layer_1_weight[j][i];
			}
			output_1[i] += layer_1_bias[i];
			output_1[i] = tanhf(output_1[i]);
		}
		
		for (int i = 0; i < structure[2][1]; i++) {
			output_2[i] = 0;
			for (int j = 0; j < structure[2][0]; j++) {
				output_2[i] += output_1[j] * layer_2_weight[j][i];
			}
			output_2[i] += layer_2_bias[i];
		}
		// clock_t t = clock();
		// cout << CLOCKS_PER_SEC <<endl;
		// cout << t << endl;
		control_n->thrust_0 = output_2[0];
		control_n->thrust_1 = output_2[1];
		control_n->thrust_2 = output_2[2];
		control_n->thrust_3 = output_2[3];	

	}
	